{"name": "tree", "version": "v4", "num_class": 1, "num_tree_per_iteration": 1, "label_index": 0, "max_feature_idx": 43, "objective": "binary sigmoid:1", "average_output": false, "feature_names": ["win_odds", "log_odds", "implied_prob", "popularity", "log_popularity", "odds_rank_in_race", "popularity_z", "weight", "weight_z", "body_weight", "weight_diff", "abs_weight_diff", "body_weight_deviation", "age", "is_male", "is_female", "is_gelding", "waku_ban", "prev_finish", "career_prize_norm", "jockey_win_rate", "jockey_in_three_rate", "trainer_win_rate", "trainer_in_three_rate", "course_win_rate", "distance_win_rate", "surface_win_rate", "going_win_rate", "distance", "horses_in_race", "is_g1", "is_dirt", "run_style_id", "days_from_last_race", "horse_starts", "horse_win_rate", "horse_in3_rate", "popularity_x_jockey", "popularity_x_course", "implied_x_jockey_in3", "distance_x_distwinrate", "weight_diff_x_career", "age_x_distance", "horsewin_x_popularity"], "monotone_constraints": [], "feature_infos": {"popularity": {"min_value": 0, "max_value": 18, "values": []}, "log_popularity": {"min_value": 0, "max_value": 2.8903717578961645, "values": []}, "popularity_z": {"min_value": -2.04939015319192, "max_value": 1.670435989234541, "values": []}, "weight": {"min_value": 49, "max_value": 63, "values": []}, "weight_z": {"min_value": -4.123105625617664, "max_value": 3.8729833462074166, "values": []}, "body_weight": {"min_value": 0, "max_value": 999, "values": []}, "weight_diff": {"min_value": -32, "max_value": 999, "values": []}, "abs_weight_diff": {"min_value": 0, "max_value": 999, "values": []}, "body_weight_deviation": {"min_value": -9, "max_value": 10.98, "values": []}, "age": {"min_value": 2, "max_value": 12, "values": []}, "is_male": {"min_value": 0, "max_value": 1, "values": []}, "is_female": {"min_value": 0, "max_value": 1, "values": []}, "is_gelding": {"min_value": 0, "max_value": 1, "values": []}, "jockey_win_rate": {"min_value": 0.0123, "max_value": 0.2825, "values": []}, "jockey_in_three_rate": {"min_value": 0.066, "max_value": 0.6196, "values": []}, "trainer_win_rate": {"min_value": 0.013, "max_value": 0.198, "values": []}, "trainer_in_three_rate": {"min_value": 0.0437, "max_value": 0.4266, "values": []}, "course_win_rate": {"min_value": 0.0127, "max_value": 0.3294, "values": []}, "distance_win_rate": {"min_value": 0.019, "max_value": 0.3272, "values": []}, "surface_win_rate": {"min_value": 0.013, "max_value": 0.2965, "values": []}, "going_win_rate": {"min_value": 0.0115, "max_value": 0.2828, "values": []}, "distance": {"min_value": 1000, "max_value": 4100, "values": []}, "horses_in_race": {"min_value": 5, "max_value": 18, "values": []}, "is_dirt": {"min_value": 0, "max_value": 1, "values": []}, "horse_starts": {"min_value": 1, "max_value": 15, "values": []}, "horse_win_rate": {"min_value": 0, "max_value": 1, "values": []}, "horse_in3_rate": {"min_value": 0, "max_value": 1, "values": []}, "popularity_x_jockey": {"min_value": 0.0006833333333333333, "max_value": 0.2825, "values": []}, "popularity_x_course": {"min_value": 0.0007055555555555555, "max_value": 0.3294, "values": []}, "distance_x_distwinrate": {"min_value": 0.0144, "max_value": 0.4755, "values": []}, "age_x_distance": {"min_value": 0.25, "max_value": 5.085, "values": []}, "horsewin_x_popularity": {"min_value": 0, "max_value": 1, "values": []}}, "tree_info": [{"tree_index": 0, "num_leaves": 63, "num_cat": 0, "shrinkage": 1, "tree_structure": {"split_index": 0, "split_feature": 43, "split_gain": 6868.5, "threshold": 0.05063333333333334, "decision_type": "<=", "default_left": true, "missing_type": "None", "internal_value": -2.54329, "internal_weight": 2011.22, "internal_count": 29770, "left_child": {"split_index": 2, "split_feature": 43, "split_gain": 814.3460083007812, "threshold": 0.015504807692307694, "decision_type": "<=", "default_left": true, "missing_type": "None", "internal_value": -2.55836, "internal_weight": 1724.3, "internal_count": 25523, "left_child": {"split_index": 18, "split_feature": 43, "split_gain": 41.26679992675781, "threshold": 0.007141428571428572, "decision_type": "<=", "default_left": true, "missing_type": "None", "internal_value": -2.56424, "internal_weight": 1457.85, "internal_count": 21579, "left_child": {"leaf_index": 0, "leaf_value": -2.5650080907864936, "leaf_weight": 1385.8291340395808, "leaf_count": 20513}, "right_child": {"leaf_index": 19, "leaf_value": -2.5494067201035335, "leaf_weight": 72.01744537055492, "leaf_count": 1066}}, "right_child": {"split_index": 8, "split_feature": 25, "split_gain": 74.0968017578125, "threshold": 0.10135000000000001, "decision_type": "<=", "default_left": true, "missing_type": "None", "internal_value": -2.52623, "internal_weight": 266.451, "internal_count": 3944, "left_child": {"split_index": 19, "split_feature": 36, "split_gain": 38.85430145263672, "threshold": 0.42265, "decision_type": "<=", "default_left": true, "missing_type": "None", "internal_value": -2.53326, "internal_weight": 185.043, "internal_count": 2739, "left_child": {"split_index": 25, "split_feature": 43, "split_gain": 33.1172981262207, "threshold": 0.023815476190476192, "decision_type": "<=", "default_left": true, "missing_type": "None", "internal_value": -2.52689, "internal_weight": 124.713, "internal_count": 1846, "left_child": {"leaf_index": 3, "leaf_value": -2.538774755189606, "leaf_weight": 53.97930473834276, "leaf_count": 799}, "right_child": {"split_index": 28, "split_feature": 29, "split_gain": 26.679500579833984, "threshold": 11.500000000000002, "decision_type": "<=", "default_left": true, "missing_type": "None", "internal_value": -2.51789, "internal_weight": 70.7338, "internal_count": 1047, "left_child": {"leaf_index": 26, "leaf_value": -2.5410850703493106, "leaf_weight": 15.741148941218851, "leaf_count": 233}, "right_child": {"split_index": 36, "split_feature": 21, "split_gain": 23.621400833129883, "threshold": 0.24935000000000004, "decision_type": "<=", "default_left": true, "missing_type": "None", "internal_value": -2.51133, "internal_weight": 54.9927, "internal_count": 814, "left_child": {"split_index": 37, "split_feature": 27, "split_gain": 35.19369888305664, "threshold": 0.0772, "decision_type": "<=", "default_left": true, "missing_type": "None", "internal_value": -2.50284, "internal_weight": 38.7786, "internal_count": 574, "left_child": {"split_index": 39, "split_feature": 38, "split_gain": 31.38610076904297, "threshold": 0.010675000000000002, "decision_type": "<=", "default_left": true, "missing_type": "None", "internal_value": -2.51025, "internal_weight": 34.1846, "internal_count": 506, "left_child": {"split_index": 60, "split_feature": 14, "split_gain": 15.726900100708008, "threshold": 1.0000000180025095e-35, "decision_type": "<=", "default_left": true, "missing_type": "None", "internal_value": -2.52802, "internal_weight": 18.7813, "internal_count": 278, "left_child": {"leaf_index": 29, "leaf_value": -2.508584775480661, "leaf_weight": 8.715056709945202, "leaf_count": 129}, "right_child": {"leaf_index": 61, "leaf_value": -2.5448255134631537, "leaf_weight": 10.066228292882442, "leaf_count": 149}}, "right_child": {"split_index": 40, "split_feature": 7, "split_gain": 26.182100296020508, "threshold": 55.75000000000001, "decision_type": "<=", "default_left": true, "missing_type": "None", "internal_value": -2.48913, "internal_weight": 15.4034, "internal_count": 228, "left_child": {"split_index": 41, "split_feature": 27, "split_gain": 26.56220054626465, "threshold": 0.0512, "decision_type": "<=", "default_left": true, "missing_type": "None", "internal_value": -2.51659, "internal_weight": 7.70168, "internal_count": 114, "left_child": {"leaf_index": 40, "leaf_value": -2.472850551137359, "leaf_weight": 3.1076946407556516, "leaf_count": 46}, "right_child": {"leaf_index": 42, "leaf_value": -2.5468346626994514, "leaf_weight": 4.593983381986618, "leaf_count": 68}}, "right_child": {"split_index": 42, "split_feature": 37, "split_gain": 24.838499069213867, "threshold": 0.015362500000000003, "decision_type": "<=", "default_left": true, "missing_type": "None", "internal_value": -2.4630900000000002, "internal_weight": 7.70168, "internal_count": 114, "left_child": {"leaf_index": 41, "leaf_value": -2.4404652281737276, "leaf_weight": 5.472244910895824, "leaf_count": 81}, "right_child": {"leaf_index": 43, "leaf_value": -2.5228866802458376, "leaf_weight": 2.229433111846447, "leaf_count": 33}}}}, "right_child": {"split_index": 38, "split_feature": 38, "split_gain": 32.24319839477539, "threshold": 0.014720000000000002, "decision_type": "<=", "default_left": true, "missing_type": "None", "internal_value": -2.45113, "internal_weight": 4.59398, "internal_count": 68, "left_child": {"leaf_index": 38, "leaf_value": -2.406926474814333, "leaf_weight": 2.6347845867276183, "leaf_count": 39}, "right_child": {"leaf_index": 39, "leaf_value": -2.5174894334557707, "leaf_weight": 1.9591987952589986, "leaf_count": 29}}}, "right_child": {"leaf_index": 37, "leaf_value": -2.531999034185169, "leaf_weight": 16.214058995246887, "leaf_count": 240}}}}, "right_child": {"leaf_index": 20, "leaf_value": -2.546390908797184, "leaf_weight": 60.32981117814779, "leaf_count": 893}}, "right_child": {"split_index": 9, "split_feature": 21, "split_gain": 72.1769027709961, "threshold": 0.22390000000000002, "decision_type": "<=", "default_left": true, "missing_type": "None", "internal_value": -2.51032, "internal_weight": 81.4081, "internal_count": 1205, "left_child": {"split_index": 45, "split_feature": 35, "split_gain": 20.691499710083008, "threshold": 0.16025000000000003, "decision_type": "<=", "default_left": true, "missing_type": "None", "internal_value": -2.46416, "internal_weight": 11.5525, "internal_count": 171, "left_child": {"split_index": 52, "split_feature": 23, "split_gain": 17.132299423217773, "threshold": 0.18270000000000003, "decision_type": "<=", "default_left": true, "missing_type": "None", "internal_value": -2.50081, "internal_weight": 4.52642, "internal_count": 67, "left_child": {"leaf_index": 9, "leaf_value": -2.457140605451348, "leaf_weight": 1.8916402161121348, "leaf_count": 28}, "right_child": {"leaf_index": 53, "leaf_value": -2.5362003847853756, "leaf_weight": 2.634784586727619, "leaf_count": 39}}, "right_child": {"leaf_index": 46, "leaf_value": -2.4423503193888836, "leaf_weight": 7.026092231273651, "leaf_count": 104}}, "right_child": {"split_index": 34, "split_feature": 43, "split_gain": 23.764799118041992, "threshold": 0.039481818181818194, "decision_type": "<=", "default_left": true, "missing_type": "None", "internal_value": -2.51816, "internal_weight": 69.8556, "internal_count": 1034, "left_child": {"split_index": 59, "split_feature": 34, "split_gain": 16.639299392700195, "threshold": 4.500000000000001, "decision_type": "<=", "default_left": true, "missing_type": "None", "internal_value": -2.52657, "internal_weight": 46.683, "internal_count": 691, "left_child": {"leaf_index": 10, "leaf_value": -2.484028258871452, "leaf_weight": 3.3103703781962386, "leaf_count": 49}, "right_child": {"leaf_index": 60, "leaf_value": -2.5300827953465315, "leaf_weight": 43.37260781228542, "leaf_count": 642}}, "right_child": {"split_index": 35, "split_feature": 23, "split_gain": 36.465599060058594, "threshold": 0.20950000000000005, "decision_type": "<=", "default_left": true, "missing_type": "None", "internal_value": -2.50154, "internal_weight": 23.1726, "internal_count": 343, "left_child": {"leaf_index": 35, "leaf_value": -2.458795164086468, "leaf_weight": 5.877596385776999, "leaf_count": 87}, "right_child": {"leaf_index": 36, "leaf_value": -2.5168477319676823, "leaf_weight": 17.29499626159668, "leaf_count": 256}}}}}}, "right_child": {"split_index": 1, "split_feature": 43, "split_gain": 883.5170288085938, "threshold": 0.23611666666666667, "decision_type": "<=", "default_left": true, "missing_type": "None", "internal_value": -2.45271, "internal_weight": 286.921, "internal_count": 4247, "left_child": {"split_index": 4, "split_feature": 43, "split_gain": 153.78399658203125, "threshold": 0.09523809523809525, "decision_type": "<=", "default_left": true, "missing_type": "None", "internal_value": -2.47226, "internal_weight": 219.565, "internal_count": 3250, "left_child": {"split_index": 5, "split_feature": 25, "split_gain": 105.50499725341797, "threshold": 0.09120000000000002, "decision_type": "<=", "default_left": true, "missing_type": "None", "internal_value": -2.4897, "internal_weight": 106.607, "internal_count": 1578, "left_child": {"split_index": 20, "split_feature": 28, "split_gain": 36.51679992675781, "threshold": 1850.0000000000002, "decision_type": "<=", "default_left": true, "missing_type": "None", "internal_value": -2.51286, "internal_weight": 45.8723, "internal_count": 679, "left_child": {"split_index": 21, "split_feature": 36, "split_gain": 41.52159881591797, "threshold": 0.5916500000000001, "decision_type": "<=", "default_left": true, "missing_type": "None", "internal_value": -2.5044399999999998, "internal_weight": 37.495, "internal_count": 555, "left_child": {"split_index": 31, "split_feature": 9, "split_gain": 25.556499481201172, "threshold": 447.00000000000006, "decision_type": "<=", "default_left": true, "missing_type": "None", "internal_value": -2.49104, "internal_weight": 26.6181, "internal_count": 394, "left_child": {"leaf_index": 1, "leaf_value": -2.449294484256882, "leaf_weight": 4.864217698574069, "leaf_count": 72}, "right_child": {"split_index": 32, "split_feature": 37, "split_gain": 26.56279945373535, "threshold": 0.022016666666666674, "decision_type": "<=", "default_left": true, "missing_type": "None", "internal_value": -2.50109, "internal_weight": 21.7539, "internal_count": 322, "left_child": {"split_index": 51, "split_feature": 20, "split_gain": 17.19879913330078, "threshold": 0.03515000000000001, "decision_type": "<=", "default_left": true, "missing_type": "None", "internal_value": -2.48188, "internal_weight": 12.3632, "internal_count": 183, "left_child": {"leaf_index": 32, "leaf_value": -2.537340334867784, "leaf_weight": 2.0267573744058636, "leaf_count": 30}, "right_child": {"leaf_index": 52, "leaf_value": -2.4715362861649526, "leaf_weight": 10.336462609469889, "leaf_count": 153}}, "right_child": {"split_index": 50, "split_feature": 43, "split_gain": 17.250499725341797, "threshold": 0.07143095238095239, "decision_type": "<=", "default_left": true, "missing_type": "None", "internal_value": -2.52725, "internal_weight": 9.39064, "internal_count": 139, "left_child": {"leaf_index": 33, "leaf_value": -2.5521496111241877, "leaf_weight": 4.9993348568677884, "leaf_count": 74}, "right_child": {"leaf_index": 51, "leaf_value": -2.498900403024148, "leaf_weight": 4.391307644546032, "leaf_count": 65}}}}, "right_child": {"leaf_index": 22, "leaf_value": -2.537785089107714, "leaf_weight": 10.876931242644785, "leaf_count": 161}}, "right_child": {"leaf_index": 21, "leaf_value": -2.5502088045221365, "leaf_weight": 8.37726381421089, "leaf_count": 124}}, "right_child": {"split_index": 6, "split_feature": 21, "split_gain": 123.99700164794922, "threshold": 0.28110000000000007, "decision_type": "<=", "default_left": true, "missing_type": "None", "internal_value": -2.4723800000000002, "internal_weight": 60.7352, "internal_count": 899, "left_child": {"split_index": 7, "split_feature": 36, "split_gain": 78.71649932861328, "threshold": 0.6458500000000001, "decision_type": "<=", "default_left": true, "missing_type": "None", "internal_value": -2.42856, "internal_weight": 18.1733, "internal_count": 269, "left_child": {"split_index": 17, "split_feature": 23, "split_gain": 43.065399169921875, "threshold": 0.25630000000000003, "decision_type": "<=", "default_left": true, "missing_type": "None", "internal_value": -2.40754, "internal_weight": 14.4575, "internal_count": 214, "left_child": {"split_index": 43, "split_feature": 25, "split_gain": 22.668699264526367, "threshold": 0.09960000000000001, "decision_type": "<=", "default_left": true, "missing_type": "None", "internal_value": -2.37394, "internal_weight": 7.70168, "internal_count": 114, "left_child": {"leaf_index": 6, "leaf_value": -2.4437967642502634, "leaf_weight": 2.1618745326995867, "leaf_count": 32}, "right_child": {"leaf_index": 44, "leaf_value": -2.350552501579155, "leaf_weight": 5.5398034900426865, "leaf_count": 82}}, "right_child": {"split_index": 33, "split_feature": 35, "split_gain": 24.869800567626953, "threshold": 0.17425000000000002, "decision_type": "<=", "default_left": true, "missing_type": "None", "internal_value": -2.44913, "internal_weight": 6.75586, "internal_count": 100, "left_child": {"leaf_index": 18, "leaf_value": -2.507703125419782, "leaf_weight": 2.296991690993309, "leaf_count": 34}, "right_child": {"leaf_index": 34, "leaf_value": -2.421759186663664, "leaf_weight": 4.458866223692894, "leaf_count": 66}}}, "right_child": {"leaf_index": 8, "leaf_value": -2.513214817179751, "leaf_weight": 3.7157218530774108, "leaf_count": 55}}, "right_child": {"split_index": 26, "split_feature": 34, "split_gain": 30.455699920654297, "threshold": 7.500000000000001, "decision_type": "<=", "default_left": true, "missing_type": "None", "internal_value": -2.4914899999999998, "internal_weight": 42.5619, "internal_count": 630, "left_child": {"split_index": 44, "split_feature": 36, "split_gain": 20.96179962158203, "threshold": 0.7071500000000001, "decision_type": "<=", "default_left": true, "missing_type": "None", "internal_value": -2.48196, "internal_weight": 32.3606, "internal_count": 479, "left_child": {"split_index": 61, "split_feature": 25, "split_gain": 15.379899978637695, "threshold": 0.10585000000000001, "decision_type": "<=", "default_left": true, "missing_type": "None", "internal_value": -2.47508, "internal_weight": 27.4288, "internal_count": 406, "left_child": {"leaf_index": 7, "leaf_value": -2.5121124563257897, "leaf_weight": 4.391307644546035, "leaf_count": 65}, "right_child": {"leaf_index": 62, "leaf_value": -2.468398547725403, "leaf_weight": 23.037475489079952, "leaf_count": 341}}, "right_child": {"leaf_index": 45, "leaf_value": -2.521674243352155, "leaf_weight": 4.931776277720927, "leaf_count": 73}}, "right_child": {"leaf_index": 27, "leaf_value": -2.522483260920877, "leaf_weight": 10.201345451176165, "leaf_count": 151}}}}, "right_child": {"split_index": 10, "split_feature": 34, "split_gain": 64.48650360107422, "threshold": 7.500000000000001, "decision_type": "<=", "default_left": true, "missing_type": "None", "internal_value": -2.45591, "internal_weight": 112.958, "internal_count": 1672, "left_child": {"split_index": 13, "split_feature": 37, "split_gain": 43.65420150756836, "threshold": 0.022642857142857145, "decision_type": "<=", "default_left": true, "missing_type": "None", "internal_value": -2.44766, "internal_weight": 87.6235, "internal_count": 1297, "left_child": {"split_index": 22, "split_feature": 28, "split_gain": 35.39500045776367, "threshold": 1950.0000000000002, "decision_type": "<=", "default_left": true, "missing_type": "None", "internal_value": -2.41161, "internal_weight": 12.4983, "internal_count": 185, "left_child": {"split_index": 48, "split_feature": 27, "split_gain": 17.946699142456055, "threshold": 0.07435000000000001, "decision_type": "<=", "default_left": true, "missing_type": "None", "internal_value": -2.39633, "internal_weight": 10.404, "internal_count": 154, "left_child": {"leaf_index": 5, "leaf_value": -2.4185302846260264, "leaf_weight": 7.634119443595408, "leaf_count": 113}, "right_child": {"leaf_index": 49, "leaf_value": -2.34574638572828, "leaf_weight": 2.7699017450213432, "leaf_count": 41}}, "right_child": {"leaf_index": 23, "leaf_value": -2.4936163220466865, "leaf_weight": 2.094315953552722, "leaf_count": 31}}, "right_child": {"split_index": 14, "split_feature": 36, "split_gain": 46.59700012207031, "threshold": 0.47725000000000006, "decision_type": "<=", "default_left": true, "missing_type": "None", "internal_value": -2.45395, "internal_weight": 75.1251, "internal_count": 1112, "left_child": {"leaf_index": 14, "leaf_value": -2.4320095623917375, "leaf_weight": 26.61808018386364, "leaf_count": 394}, "right_child": {"split_index": 15, "split_feature": 43, "split_gain": 45.66270065307617, "threshold": 0.12250000000000001, "decision_type": "<=", "default_left": true, "missing_type": "None", "internal_value": -2.46636, "internal_weight": 48.5071, "internal_count": 718, "left_child": {"split_index": 47, "split_feature": 38, "split_gain": 18.408899307250977, "threshold": 0.06145000000000001, "decision_type": "<=", "default_left": true, "missing_type": "None", "internal_value": -2.50901, "internal_weight": 8.78262, "internal_count": 130, "left_child": {"leaf_index": 15, "leaf_value": -2.529663286216906, "leaf_weight": 6.080272123217581, "leaf_count": 90}, "right_child": {"leaf_index": 48, "leaf_value": -2.466765021518357, "leaf_weight": 2.702343165874481, "leaf_count": 40}}, "right_child": {"split_index": 29, "split_feature": 25, "split_gain": 26.646299362182617, "threshold": 0.08555000000000001, "decision_type": "<=", "default_left": true, "missing_type": "None", "internal_value": -2.45717, "internal_weight": 39.7244, "internal_count": 588, "left_child": {"split_index": 49, "split_feature": 29, "split_gain": 17.316099166870117, "threshold": 11.500000000000002, "decision_type": "<=", "default_left": true, "missing_type": "None", "internal_value": -2.48948, "internal_weight": 9.12041, "internal_count": 135, "left_child": {"leaf_index": 16, "leaf_value": -2.5354840249244264, "leaf_weight": 2.5672260075807554, "leaf_count": 38}, "right_child": {"leaf_index": 50, "leaf_value": -2.4724840331737066, "leaf_weight": 6.553182177245617, "leaf_count": 97}}, "right_child": {"split_index": 30, "split_feature": 21, "split_gain": 28.922000885009766, "threshold": 0.27430000000000004, "decision_type": "<=", "default_left": true, "missing_type": "None", "internal_value": -2.44795, "internal_weight": 30.604, "internal_count": 453, "left_child": {"leaf_index": 30, "leaf_value": -2.405447196633965, "leaf_weight": 5.742479227483275, "leaf_count": 85}, "right_child": {"leaf_index": 31, "leaf_value": -2.4586523296456444, "leaf_weight": 24.861557126045227, "leaf_count": 368}}}}}}, "right_child": {"split_index": 53, "split_feature": 25, "split_gain": 16.729000091552734, "threshold": 0.0777, "decision_type": "<=", "default_left": true, "missing_type": "None", "internal_value": -2.48495, "internal_weight": 25.3345, "internal_count": 375, "left_child": {"split_index": 57, "split_feature": 20, "split_gain": 22.1427001953125, "threshold": 0.05140000000000001, "decision_type": "<=", "default_left": true, "missing_type": "None", "internal_value": -2.51426, "internal_weight": 6.55318, "internal_count": 97, "left_child": {"leaf_index": 11, "leaf_value": -2.4752675693873583, "leaf_weight": 2.972577482461932, "leaf_count": 44}, "right_child": {"leaf_index": 58, "leaf_value": -2.5472578850989485, "leaf_weight": 3.5806046947836876, "leaf_count": 53}}, "right_child": {"split_index": 54, "split_feature": 21, "split_gain": 46.172698974609375, "threshold": 0.24530000000000005, "decision_type": "<=", "default_left": true, "missing_type": "None", "internal_value": -2.4752, "internal_weight": 18.7813, "internal_count": 278, "left_child": {"leaf_index": 54, "leaf_value": -2.40531813347909, "leaf_weight": 3.107694640755656, "leaf_count": 46}, "right_child": {"split_index": 55, "split_feature": 28, "split_gain": 32.032798767089844, "threshold": 1850.0000000000002, "decision_type": "<=", "default_left": true, "missing_type": "None", "internal_value": -2.49043, "internal_weight": 15.6736, "internal_count": 232, "left_child": {"split_index": 56, "split_feature": 10, "split_gain": 25.208999633789062, "threshold": -1.0000000180025095e-35, "decision_type": "<=", "default_left": true, "missing_type": "None", "internal_value": -2.4759700000000002, "internal_weight": 12.4308, "internal_count": 184, "left_child": {"leaf_index": 55, "leaf_value": -2.437244154283153, "leaf_weight": 4.391307644546035, "leaf_count": 65}, "right_child": {"split_index": 58, "split_feature": 22, "split_gain": 18.110000610351562, "threshold": 0.09455000000000001, "decision_type": "<=", "default_left": true, "missing_type": "None", "internal_value": -2.49905, "internal_weight": 8.03947, "internal_count": 119, "left_child": {"leaf_index": 57, "leaf_value": -2.478556623375147, "leaf_weight": 5.404686331748957, "leaf_count": 80}, "right_child": {"leaf_index": 59, "leaf_value": -2.543382268672656, "leaf_weight": 2.634784586727619, "leaf_count": 39}}}, "right_child": {"leaf_index": 56, "leaf_value": -2.5454902028549853, "leaf_weight": 3.2428117990493766, "leaf_count": 48}}}}}}, "right_child": {"split_index": 3, "split_feature": 35, "split_gain": 161.70199584960938, "threshold": 0.41430000000000006, "decision_type": "<=", "default_left": true, "missing_type": "None", "internal_value": -2.38932, "internal_weight": 67.3559, "internal_count": 997, "left_child": {"split_index": 12, "split_feature": 38, "split_gain": 50.93619918823242, "threshold": 0.10712500000000001, "decision_type": "<=", "default_left": true, "missing_type": "None", "internal_value": -2.41866, "internal_weight": 37.0221, "internal_count": 548, "left_child": {"split_index": 23, "split_feature": 25, "split_gain": 33.78030014038086, "threshold": 0.09340000000000001, "decision_type": "<=", "default_left": true, "missing_type": "None", "internal_value": -2.44991, "internal_weight": 14.7953, "internal_count": 219, "left_child": {"split_index": 46, "split_feature": 38, "split_gain": 18.84309959411621, "threshold": 0.07225000000000002, "decision_type": "<=", "default_left": true, "missing_type": "None", "internal_value": -2.48367, "internal_weight": 7.22877, "internal_count": 107, "left_child": {"leaf_index": 2, "leaf_value": -2.4555242679576494, "leaf_weight": 4.05351474881172, "leaf_count": 60}, "right_child": {"leaf_index": 47, "leaf_value": -2.5228396262021455, "leaf_weight": 3.1752532199025154, "leaf_count": 47}}, "right_child": {"split_index": 24, "split_feature": 21, "split_gain": 34.569400787353516, "threshold": 0.35680000000000006, "decision_type": "<=", "default_left": true, "missing_type": "None", "internal_value": -2.4198399999999998, "internal_weight": 7.56656, "internal_count": 112, "left_child": {"leaf_index": 24, "leaf_value": -2.391523566106776, "leaf_weight": 5.269569173455238, "leaf_count": 78}, "right_child": {"leaf_index": 25, "leaf_value": -2.491356523486821, "leaf_weight": 2.296991690993309, "leaf_count": 34}}}, "right_child": {"split_index": 16, "split_feature": 21, "split_gain": 43.087100982666016, "threshold": 0.38615000000000005, "decision_type": "<=", "default_left": true, "missing_type": "None", "internal_value": -2.3987600000000002, "internal_weight": 22.2268, "internal_count": 329, "left_child": {"leaf_index": 13, "leaf_value": -2.3644871726890977, "leaf_weight": 9.525759659707548, "leaf_count": 141}, "right_child": {"leaf_index": 17, "leaf_value": -2.426483762437241, "leaf_weight": 12.70101287961006, "leaf_count": 188}}}, "right_child": {"split_index": 11, "split_feature": 35, "split_gain": 51.22779846191406, "threshold": 0.7083500000000001, "decision_type": "<=", "default_left": true, "missing_type": "None", "internal_value": -2.3544, "internal_weight": 30.3338, "internal_count": 449, "left_child": {"split_index": 27, "split_feature": 25, "split_gain": 30.374099731445312, "threshold": 0.12105, "decision_type": "<=", "default_left": true, "missing_type": "None", "internal_value": -2.37021, "internal_weight": 24.3886, "internal_count": 361, "left_child": {"leaf_index": 4, "leaf_value": -2.40339182624035, "leaf_weight": 9.998669713735586, "leaf_count": 148}, "right_child": {"leaf_index": 28, "leaf_value": -2.3490400585809565, "leaf_weight": 14.38997735828161, "leaf_count": 213}}, "right_child": {"leaf_index": 12, "leaf_value": -2.2959077420294745, "leaf_weight": 5.945154964923858, "leaf_count": 88}}}}}}, {"tree_index": 1, "num_leaves": 63, "num_cat": 0, "shrinkage": 0.02, "tree_structure": {"split_index": 0, "split_feature": 43, "split_gain": 6184.72021484375, "threshold": 0.05063333333333334, "decision_type": "<=", "default_left": true, "missing_type": "None", "internal_value": 0.000140146, "internal_weight": 2012.14, "internal_count": 29770, "left_child": {"split_index": 1, "split_feature": 43, "split_gain": 794.9829711914062, "threshold": 0.015504807692307694, "decision_type": "<=", "default_left": true, "missing_type": "None", "internal_value": -0.0148147, "internal_weight": 1702.47, "internal_count": 25523, "left_child": {"split_index": 11, "split_feature": 43, "split_gain": 41.32360076904297, "threshold": 0.007141428571428572, "decision_type": "<=", "default_left": true, "missing_type": "None", "internal_value": -0.0207533, "internal_weight": 1432.14, "internal_count": 21579, "left_child": {"leaf_index": 0, "leaf_value": -0.02153379272296759, "leaf_weight": 1360.4876154959202, "leaf_count": 20513}, "right_child": {"leaf_index": 12, "leaf_value": -0.005877099684450687, "leaf_weight": 71.65116944909096, "leaf_count": 1066}}, "right_child": {"split_index": 8, "split_feature": 25, "split_gain": 67.61599731445312, "threshold": 0.10135000000000001, "decision_type": "<=", "default_left": true, "missing_type": "None", "internal_value": 0.016629, "internal_weight": 270.33, "internal_count": 3944, "left_child": {"split_index": 14, "split_feature": 36, "split_gain": 36.59669876098633, "threshold": 0.42265, "decision_type": "<=", "default_left": true, "missing_type": "None", "internal_value": 0.00989315, "internal_weight": 186.631, "internal_count": 2739, "left_child": {"split_index": 22, "split_feature": 43, "split_gain": 30.591899871826172, "threshold": 0.023815476190476192, "decision_type": "<=", "default_left": true, "missing_type": "None", "internal_value": 0.0160006, "internal_weight": 126.453, "internal_count": 1846, "left_child": {"split_index": 48, "split_feature": 8, "split_gain": 18.53730010986328, "threshold": 1.0283658752048874, "decision_type": "<=", "default_left": true, "missing_type": "None", "internal_value": 0.00455454, "internal_weight": 54.1948, "internal_count": 799, "left_child": {"leaf_index": 2, "leaf_value": 0.001100682896019319, "leaf_weight": 50.12511744350195, "leaf_count": 739}, "right_child": {"leaf_index": 49, "leaf_value": 0.04483233111480708, "leaf_weight": 4.069698303937911, "leaf_count": 60}}, "right_child": {"split_index": 29, "split_feature": 29, "split_gain": 24.362600326538086, "threshold": 11.500000000000002, "decision_type": "<=", "default_left": true, "missing_type": "None", "internal_value": 0.0245167, "internal_weight": 72.2582, "internal_count": 1047, "left_child": {"leaf_index": 23, "leaf_value": 0.0023042978342184476, "leaf_weight": 15.77285150438547, "leaf_count": 233}, "right_child": {"split_index": 34, "split_feature": 21, "split_gain": 21.180999755859375, "threshold": 0.25700000000000006, "decision_type": "<=", "default_left": true, "missing_type": "None", "internal_value": 0.0306437, "internal_weight": 56.4853, "internal_count": 814, "left_child": {"split_index": 35, "split_feature": 24, "split_gain": 56.4739990234375, "threshold": 0.08735000000000001, "decision_type": "<=", "default_left": true, "missing_type": "None", "internal_value": 0.0380436, "internal_weight": 41.4084, "internal_count": 593, "left_child": {"split_index": 36, "split_feature": 27, "split_gain": 22.212900161743164, "threshold": 0.0772, "decision_type": "<=", "default_left": true, "missing_type": "None", "internal_value": 0.0291111, "internal_weight": 36.5067, "internal_count": 523, "left_child": {"leaf_index": 30, "leaf_value": 0.02321172494985421, "leaf_weight": 32.417937844991684, "leaf_count": 467}, "right_child": {"leaf_index": 37, "leaf_value": 0.07269952956954319, "leaf_weight": 4.088786602020263, "leaf_count": 56}}, "right_child": {"leaf_index": 36, "leaf_value": 0.10113787509790795, "leaf_weight": 4.901662051677703, "leaf_count": 70}}, "right_child": {"leaf_index": 35, "leaf_value": 0.009948696169596495, "leaf_weight": 15.076961822807787, "leaf_count": 221}}}}, "right_child": {"leaf_index": 15, "leaf_value": -0.0028987251007672617, "leaf_weight": 60.177921429276466, "leaf_count": 893}}, "right_child": {"split_index": 9, "split_feature": 21, "split_gain": 61.759700775146484, "threshold": 0.22390000000000002, "decision_type": "<=", "default_left": true, "missing_type": "None", "internal_value": 0.0315681, "internal_weight": 83.6993, "internal_count": 1205, "left_child": {"split_index": 30, "split_feature": 24, "split_gain": 22.101299285888672, "threshold": 0.09655000000000001, "decision_type": "<=", "default_left": true, "missing_type": "None", "internal_value": 0.0727884, "internal_weight": 12.3408, "internal_count": 171, "left_child": {"split_index": 31, "split_feature": 8, "split_gain": 22.388599395751953, "threshold": 0.7000266406436803, "decision_type": "<=", "default_left": true, "missing_type": "None", "internal_value": 0.0593573, "internal_weight": 10.4628, "internal_count": 145, "left_child": {"split_index": 53, "split_feature": 36, "split_gain": 17.231800079345703, "threshold": 0.31665000000000004, "decision_type": "<=", "default_left": true, "missing_type": "None", "internal_value": 0.0761102, "internal_weight": 7.82649, "internal_count": 108, "left_child": {"leaf_index": 9, "leaf_value": 0.10440938412930675, "leaf_weight": 4.133669055998324, "leaf_count": 57}, "right_child": {"leaf_index": 54, "leaf_value": 0.040812914810805935, "leaf_weight": 3.6928172633051872, "leaf_count": 51}}, "right_child": {"leaf_index": 32, "leaf_value": 0.007125711444912539, "leaf_weight": 2.636291228234768, "leaf_count": 37}}, "right_child": {"leaf_index": 31, "leaf_value": 0.13621039396962076, "leaf_weight": 1.8780411779880513, "leaf_count": 26}}, "right_child": {"split_index": 32, "split_feature": 43, "split_gain": 21.219999313354492, "threshold": 0.039481818181818194, "decision_type": "<=", "default_left": true, "missing_type": "None", "internal_value": 0.0242597, "internal_weight": 71.3585, "internal_count": 1034, "left_child": {"leaf_index": 10, "leaf_value": 0.016299840935901463, "leaf_weight": 47.35171993076801, "leaf_count": 691}, "right_child": {"split_index": 33, "split_feature": 23, "split_gain": 30.918800354003906, "threshold": 0.22085000000000002, "decision_type": "<=", "default_left": true, "missing_type": "None", "internal_value": 0.039637, "internal_weight": 24.0068, "internal_count": 343, "left_child": {"leaf_index": 33, "leaf_value": 0.07343776269068966, "leaf_weight": 7.420935288071635, "leaf_count": 103}, "right_child": {"leaf_index": 34, "leaf_value": 0.023811777860493894, "leaf_weight": 16.58581852912903, "leaf_count": 240}}}}}}, "right_child": {"split_index": 2, "split_feature": 43, "split_gain": 644.4459838867188, "threshold": 0.23611666666666667, "decision_type": "<=", "default_left": true, "missing_type": "None", "internal_value": 0.0823337, "internal_weight": 309.673, "internal_count": 4247, "left_child": {"split_index": 3, "split_feature": 43, "split_gain": 122.93800354003906, "threshold": 0.09523809523809525, "decision_type": "<=", "default_left": true, "missing_type": "None", "internal_value": 0.0656933, "internal_weight": 233.077, "internal_count": 3250, "left_child": {"split_index": 5, "split_feature": 36, "split_gain": 89.96330261230469, "threshold": 0.6125000000000002, "decision_type": "<=", "default_left": true, "missing_type": "None", "internal_value": 0.0503269, "internal_weight": 111.538, "internal_count": 1578, "left_child": {"split_index": 6, "split_feature": 25, "split_gain": 76.12020111083984, "threshold": 0.09120000000000002, "decision_type": "<=", "default_left": true, "missing_type": "None", "internal_value": 0.0603946, "internal_weight": 84.8989, "internal_count": 1191, "left_child": {"split_index": 13, "split_feature": 28, "split_gain": 37.13079833984375, "threshold": 1850.0000000000002, "decision_type": "<=", "default_left": true, "missing_type": "None", "internal_value": 0.0379595, "internal_weight": 36.0981, "internal_count": 517, "left_child": {"split_index": 26, "split_feature": 9, "split_gain": 24.8533992767334, "threshold": 447.00000000000006, "decision_type": "<=", "default_left": true, "missing_type": "None", "internal_value": 0.0473278, "internal_weight": 29.7171, "internal_count": 422, "left_child": {"split_index": 51, "split_feature": 36, "split_gain": 18.217199325561523, "threshold": 0.43650000000000005, "decision_type": "<=", "default_left": true, "missing_type": "None", "internal_value": 0.0863511, "internal_weight": 5.40412, "internal_count": 74, "left_child": {"leaf_index": 1, "leaf_value": 0.1121966545081244, "leaf_weight": 3.585402227938178, "leaf_count": 49}, "right_child": {"leaf_index": 52, "leaf_value": 0.029209137381079983, "leaf_weight": 1.8187151476740835, "leaf_count": 25}}, "right_child": {"split_index": 27, "split_feature": 37, "split_gain": 26.514999389648438, "threshold": 0.022016666666666674, "decision_type": "<=", "default_left": true, "missing_type": "None", "internal_value": 0.0380551, "internal_weight": 24.313, "internal_count": 348, "left_child": {"leaf_index": 27, "leaf_value": 0.0558549704384679, "leaf_weight": 14.042997479438784, "leaf_count": 198}, "right_child": {"split_index": 52, "split_feature": 43, "split_gain": 17.36389923095703, "threshold": 0.07143095238095239, "decision_type": "<=", "default_left": true, "missing_type": "None", "internal_value": 0.0129742, "internal_weight": 10.27, "internal_count": 150, "left_child": {"leaf_index": 28, "leaf_value": -0.010123781442392715, "leaf_weight": 5.641110509634016, "leaf_count": 84}, "right_child": {"leaf_index": 53, "leaf_value": 0.04118519801418422, "leaf_weight": 4.628878973424435, "leaf_count": 66}}}}, "right_child": {"leaf_index": 14, "leaf_value": -0.005295274288248795, "leaf_weight": 6.381044685840606, "leaf_count": 95}}, "right_child": {"split_index": 7, "split_feature": 21, "split_gain": 99.40180206298828, "threshold": 0.28110000000000007, "decision_type": "<=", "default_left": true, "missing_type": "None", "internal_value": 0.0767615, "internal_weight": 48.8007, "internal_count": 674, "left_child": {"split_index": 21, "split_feature": 24, "split_gain": 33.540199279785156, "threshold": 0.07565000000000001, "decision_type": "<=", "default_left": true, "missing_type": "None", "internal_value": 0.118041, "internal_weight": 15.87, "internal_count": 210, "left_child": {"split_index": 25, "split_feature": 35, "split_gain": 24.97100067138672, "threshold": 0.19090000000000004, "decision_type": "<=", "default_left": true, "missing_type": "None", "internal_value": 0.0754085, "internal_weight": 5.82093, "internal_count": 78, "left_child": {"leaf_index": 7, "leaf_value": 0.02728743713351673, "leaf_weight": 2.711061812937259, "leaf_count": 37}, "right_child": {"leaf_index": 26, "leaf_value": 0.11325232068552678, "leaf_weight": 3.1098711863160133, "leaf_count": 41}}, "right_child": {"split_index": 40, "split_feature": 36, "split_gain": 21.05940055847168, "threshold": 0.43650000000000005, "decision_type": "<=", "default_left": true, "missing_type": "None", "internal_value": 0.14097, "internal_weight": 10.0491, "internal_count": 132, "left_child": {"leaf_index": 22, "leaf_value": 0.167040266611665, "leaf_weight": 5.993034839630125, "leaf_count": 78}, "right_child": {"leaf_index": 41, "leaf_value": 0.09715318514418642, "leaf_weight": 4.056073158979416, "leaf_count": 54}}}, "right_child": {"split_index": 24, "split_feature": 43, "split_gain": 26.38279914855957, "threshold": 0.06458000000000001, "decision_type": "<=", "default_left": true, "missing_type": "None", "internal_value": 0.056332, "internal_weight": 32.9307, "internal_count": 464, "left_child": {"split_index": 54, "split_feature": 26, "split_gain": 17.115400314331055, "threshold": 0.13625, "decision_type": "<=", "default_left": true, "missing_type": "None", "internal_value": 0.0314737, "internal_weight": 11.9016, "internal_count": 169, "left_child": {"leaf_index": 8, "leaf_value": 0.009879046394787582, "leaf_weight": 6.8349403217434865, "leaf_count": 97}, "right_child": {"split_index": 55, "split_feature": 8, "split_gain": 20.596500396728516, "threshold": 0.3547939440257199, "decision_type": "<=", "default_left": true, "missing_type": "None", "internal_value": 0.058908, "internal_weight": 5.06669, "internal_count": 72, "left_child": {"leaf_index": 55, "leaf_value": 0.01563370444139174, "leaf_weight": 2.5384897515177727, "leaf_count": 36}, "right_child": {"leaf_index": 56, "leaf_value": 0.09792907854441717, "leaf_weight": 2.528201162815094, "leaf_count": 36}}}, "right_child": {"split_index": 47, "split_feature": 36, "split_gain": 19.009300231933594, "threshold": 0.24040000000000003, "decision_type": "<=", "default_left": true, "missing_type": "None", "internal_value": 0.0699367, "internal_weight": 21.029, "internal_count": 295, "left_child": {"leaf_index": 25, "leaf_value": 0.12143964561175455, "leaf_weight": 2.646592669188979, "leaf_count": 37}, "right_child": {"split_index": 60, "split_feature": 8, "split_gain": 15.933699607849121, "threshold": -1.037461905190909, "decision_type": "<=", "default_left": true, "missing_type": "None", "internal_value": 0.0614369, "internal_weight": 18.3824, "internal_count": 258, "left_child": {"leaf_index": 48, "leaf_value": 0.010461267138065616, "leaf_weight": 2.3475022837519672, "leaf_count": 33}, "right_child": {"split_index": 61, "split_feature": 23, "split_gain": 15.960100173950195, "threshold": 0.17880000000000004, "decision_type": "<=", "default_left": true, "missing_type": "None", "internal_value": 0.0685482, "internal_weight": 16.0349, "internal_count": 225, "left_child": {"leaf_index": 61, "leaf_value": 0.009391307844277734, "leaf_weight": 1.7890056744217897, "leaf_count": 25}, "right_child": {"leaf_index": 62, "leaf_value": 0.07559343521719276, "leaf_weight": 14.245940759778021, "leaf_count": 200}}}}}}}, "right_child": {"split_index": 49, "split_feature": 25, "split_gain": 18.3075008392334, "threshold": 0.12235000000000001, "decision_type": "<=", "default_left": true, "missing_type": "None", "internal_value": 0.0179701, "internal_weight": 26.6387, "internal_count": 387, "left_child": {"leaf_index": 6, "leaf_value": 0.006086994610220397, "leaf_weight": 17.920676819980148, "leaf_count": 262}, "right_child": {"split_index": 50, "split_feature": 29, "split_gain": 27.31399917602539, "threshold": 13.500000000000002, "decision_type": "<=", "default_left": true, "missing_type": "None", "internal_value": 0.0415423, "internal_weight": 8.71804, "internal_count": 125, "left_child": {"leaf_index": 50, "leaf_value": 0.002301889992819633, "leaf_weight": 4.038784518837927, "leaf_count": 58}, "right_child": {"leaf_index": 51, "leaf_value": 0.07366704232774347, "leaf_weight": 4.679256573319435, "leaf_count": 67}}}}, "right_child": {"split_index": 10, "split_feature": 35, "split_gain": 49.81230163574219, "threshold": 0.27920000000000006, "decision_type": "<=", "default_left": true, "missing_type": "None", "internal_value": 0.0796913, "internal_weight": 121.539, "internal_count": 1672, "left_child": {"split_index": 15, "split_feature": 36, "split_gain": 36.007198333740234, "threshold": 0.5635000000000001, "decision_type": "<=", "default_left": true, "missing_type": "None", "internal_value": 0.0689128, "internal_weight": 73.7882, "internal_count": 1020, "left_child": {"split_index": 17, "split_feature": 8, "split_gain": 34.336299896240234, "threshold": 0.31622776601683983, "decision_type": "<=", "default_left": true, "missing_type": "None", "internal_value": 0.0810364, "internal_weight": 42.866, "internal_count": 588, "left_child": {"split_index": 45, "split_feature": 21, "split_gain": 19.3927001953125, "threshold": 0.37225, "decision_type": "<=", "default_left": true, "missing_type": "None", "internal_value": 0.062381, "internal_weight": 21.9698, "internal_count": 302, "left_child": {"split_index": 46, "split_feature": 24, "split_gain": 22.30900001525879, "threshold": 0.06470000000000002, "decision_type": "<=", "default_left": true, "missing_type": "None", "internal_value": 0.0752125, "internal_weight": 15.1215, "internal_count": 208, "left_child": {"leaf_index": 4, "leaf_value": 0.03333177243265202, "leaf_weight": 4.214526474475863, "leaf_count": 58}, "right_child": {"leaf_index": 47, "leaf_value": 0.0904524121394806, "leaf_weight": 10.906989544630049, "leaf_count": 150}}, "right_child": {"leaf_index": 46, "leaf_value": 0.03261492714070933, "leaf_weight": 6.848329462110995, "leaf_count": 94}}, "right_child": {"split_index": 41, "split_feature": 35, "split_gain": 20.536300659179688, "threshold": 0.16025000000000003, "decision_type": "<=", "default_left": true, "missing_type": "None", "internal_value": 0.0999234, "internal_weight": 20.8961, "internal_count": 286, "left_child": {"split_index": 56, "split_feature": 20, "split_gain": 17.01259994506836, "threshold": 0.09345000000000002, "decision_type": "<=", "default_left": true, "missing_type": "None", "internal_value": 0.0634727, "internal_weight": 5.72273, "internal_count": 79, "left_child": {"leaf_index": 18, "leaf_value": 0.02213639885901238, "leaf_weight": 2.5932466238737133, "leaf_count": 36}, "right_child": {"leaf_index": 57, "leaf_value": 0.09423208342524736, "leaf_weight": 3.1294833421707153, "leaf_count": 43}}, "right_child": {"split_index": 58, "split_feature": 22, "split_gain": 16.010299682617188, "threshold": 0.06630000000000001, "decision_type": "<=", "default_left": true, "missing_type": "None", "internal_value": 0.112719, "internal_weight": 15.1734, "internal_count": 207, "left_child": {"leaf_index": 42, "leaf_value": 0.1583567558487426, "leaf_weight": 3.0721416994929305, "leaf_count": 42}, "right_child": {"split_index": 59, "split_feature": 8, "split_gain": 21.344499588012695, "threshold": 0.6499336836196797, "decision_type": "<=", "default_left": true, "missing_type": "None", "internal_value": 0.0990914, "internal_weight": 12.1013, "internal_count": 165, "left_child": {"leaf_index": 59, "leaf_value": 0.12851584126443094, "leaf_weight": 5.708817206323145, "leaf_count": 78}, "right_child": {"leaf_index": 60, "leaf_value": 0.07001118265317471, "leaf_weight": 6.392450928688049, "leaf_count": 87}}}}}, "right_child": {"leaf_index": 16, "leaf_value": 0.05169995812183463, "leaf_weight": 30.922264106571674, "leaf_count": 432}}, "right_child": {"split_index": 18, "split_feature": 23, "split_gain": 33.693599700927734, "threshold": 0.33760000000000007, "decision_type": "<=", "default_left": true, "missing_type": "None", "internal_value": 0.0960163, "internal_weight": 47.7508, "internal_count": 652, "left_child": {"split_index": 19, "split_feature": 11, "split_gain": 36.677101135253906, "threshold": 5.500000000000001, "decision_type": "<=", "default_left": true, "missing_type": "None", "internal_value": 0.104707, "internal_weight": 38.1303, "internal_count": 520, "left_child": {"split_index": 20, "split_feature": 43, "split_gain": 50.53879928588867, "threshold": 0.11110555555555557, "decision_type": "<=", "default_left": true, "missing_type": "None", "internal_value": 0.119263, "internal_weight": 25.242, "internal_count": 344, "left_child": {"leaf_index": 11, "leaf_value": 0.07180105447293836, "leaf_weight": 7.337845772504809, "leaf_count": 101}, "right_child": {"leaf_index": 21, "leaf_value": 0.13779024351609215, "leaf_weight": 17.904177986085415, "leaf_count": 243}}, "right_child": {"split_index": 37, "split_feature": 24, "split_gain": 21.10300064086914, "threshold": 0.06470000000000002, "decision_type": "<=", "default_left": true, "missing_type": "None", "internal_value": 0.074926, "internal_weight": 12.8883, "internal_count": 176, "left_child": {"leaf_index": 20, "leaf_value": 0.02141157700576846, "leaf_weight": 2.637384518980979, "leaf_count": 36}, "right_child": {"split_index": 38, "split_feature": 26, "split_gain": 36.705299377441406, "threshold": 0.11245000000000001, "decision_type": "<=", "default_left": true, "missing_type": "None", "internal_value": 0.0878986, "internal_weight": 10.2509, "internal_count": 140, "left_child": {"leaf_index": 38, "leaf_value": 0.13452545607719912, "leaf_weight": 4.074803441762922, "leaf_count": 55}, "right_child": {"split_index": 39, "split_feature": 25, "split_gain": 25.21339988708496, "threshold": 0.16160000000000002, "decision_type": "<=", "default_left": true, "missing_type": "None", "internal_value": 0.0542011, "internal_weight": 6.17612, "internal_count": 85, "left_child": {"leaf_index": 39, "leaf_value": 0.02179313105718324, "leaf_weight": 3.993151657283306, "leaf_count": 55}, "right_child": {"leaf_index": 40, "leaf_value": 0.10698420623329118, "leaf_weight": 2.182965502142906, "leaf_count": 30}}}}}, "right_child": {"leaf_index": 19, "leaf_value": 0.06018380367892112, "leaf_weight": 9.620423838496206, "leaf_count": 132}}}}, "right_child": {"split_index": 4, "split_feature": 35, "split_gain": 101.54399871826172, "threshold": 0.41430000000000006, "decision_type": "<=", "default_left": true, "missing_type": "None", "internal_value": 0.132703, "internal_weight": 76.5963, "internal_count": 997, "left_child": {"split_index": 12, "split_feature": 24, "split_gain": 38.997398376464844, "threshold": 0.10540000000000001, "decision_type": "<=", "default_left": true, "missing_type": "None", "internal_value": 0.110148, "internal_weight": 41.0861, "internal_count": 548, "left_child": {"split_index": 43, "split_feature": 25, "split_gain": 19.644500732421875, "threshold": 0.09340000000000001, "decision_type": "<=", "default_left": true, "missing_type": "None", "internal_value": 0.082019, "internal_weight": 14.8893, "internal_count": 204, "left_child": {"split_index": 57, "split_feature": 24, "split_gain": 16.479700088500977, "threshold": 0.07115000000000002, "decision_type": "<=", "default_left": true, "missing_type": "None", "internal_value": 0.056487, "internal_weight": 7.53011, "internal_count": 106, "left_child": {"leaf_index": 3, "leaf_value": 0.08183922457993179, "leaf_weight": 4.294544756412504, "leaf_count": 59}, "right_child": {"leaf_index": 58, "leaf_value": 0.019816060975896582, "leaf_weight": 3.235567942261696, "leaf_count": 47}}, "right_child": {"split_index": 44, "split_feature": 21, "split_gain": 25.684999465942383, "threshold": 0.35680000000000006, "decision_type": "<=", "default_left": true, "missing_type": "None", "internal_value": 0.106094, "internal_weight": 7.35919, "internal_count": 98, "left_child": {"leaf_index": 44, "leaf_value": 0.1281530924475052, "leaf_weight": 5.452468581497669, "leaf_count": 71}, "right_child": {"leaf_index": 45, "leaf_value": 0.03681016156912169, "leaf_weight": 1.9067194908857343, "leaf_count": 27}}}, "right_child": {"split_index": 16, "split_feature": 20, "split_gain": 35.50790023803711, "threshold": 0.11055000000000002, "decision_type": "<=", "default_left": true, "missing_type": "None", "internal_value": 0.125464, "internal_weight": 26.1968, "internal_count": 344, "left_child": {"leaf_index": 13, "leaf_value": 0.18674235493736732, "leaf_weight": 3.686088182032111, "leaf_count": 47}, "right_child": {"split_index": 42, "split_feature": 23, "split_gain": 19.817100524902344, "threshold": 0.22385000000000002, "decision_type": "<=", "default_left": true, "missing_type": "None", "internal_value": 0.114127, "internal_weight": 22.5107, "internal_count": 297, "left_child": {"leaf_index": 17, "leaf_value": 0.16426651330098466, "leaf_weight": 3.290654547512534, "leaf_count": 43}, "right_child": {"leaf_index": 43, "leaf_value": 0.10418228491044705, "leaf_weight": 19.220020622015, "leaf_count": 254}}}}, "right_child": {"split_index": 23, "split_feature": 35, "split_gain": 29.470199584960938, "threshold": 0.7750000000000001, "decision_type": "<=", "default_left": true, "missing_type": "None", "internal_value": 0.158142, "internal_weight": 35.5102, "internal_count": 449, "left_child": {"split_index": 28, "split_feature": 25, "split_gain": 24.556499481201172, "threshold": 0.07740000000000001, "decision_type": "<=", "default_left": true, "missing_type": "None", "internal_value": 0.148871, "internal_weight": 30.7737, "internal_count": 392, "left_child": {"leaf_index": 5, "leaf_value": 0.0906154653067998, "leaf_weight": 3.587977029383185, "leaf_count": 47}, "right_child": {"leaf_index": 29, "leaf_value": 0.1559105230661349, "leaf_weight": 27.185696326196194, "leaf_count": 345}}, "right_child": {"leaf_index": 24, "leaf_value": 0.21134264776685374, "leaf_weight": 4.7365330159664145, "leaf_count": 57}}}}}}, {"tree_index": 2, "num_leaves": 63, "num_cat": 0, "shrinkage": 0.02, "tree_structure": {"split_index": 0, "split_feature": 43, "split_gain": 5618.52978515625, "threshold": 0.05063333333333334, "decision_type": "<=", "default_left": true, "missing_type": "None", "internal_value": 0.000128879, "internal_weight": 2012.23, "internal_count": 29770, "left_child": {"split_index": 1, "split_feature": 43, "split_gain": 776.4210205078125, "threshold": 0.015504807692307694, "decision_type": "<=", "default_left": true, "missing_type": "None", "internal_value": -0.0147072, "internal_weight": 1680.96, "internal_count": 25523, "left_child": {"split_index": 11, "split_feature": 43, "split_gain": 41.38100051879883, "threshold": 0.007141428571428572, "decision_type": "<=", "default_left": true, "missing_type": "None", "internal_value": -0.0207076, "internal_weight": 1406.86, "internal_count": 21579, "left_child": {"leaf_index": 0, "leaf_value": -0.02150093670314503, "leaf_weight": 1335.5656256228685, "leaf_count": 20513}, "right_child": {"leaf_index": 12, "leaf_value": -0.005789069008308735, "leaf_weight": 71.29183511435986, "leaf_count": 1066}}, "right_child": {"split_index": 7, "split_feature": 25, "split_gain": 61.8843994140625, "threshold": 0.10135000000000001, "decision_type": "<=", "default_left": true, "missing_type": "None", "internal_value": 0.0160744, "internal_weight": 274.099, "internal_count": 3944, "left_child": {"split_index": 16, "split_feature": 36, "split_gain": 34.492401123046875, "threshold": 0.42265, "decision_type": "<=", "default_left": true, "missing_type": "None", "internal_value": 0.00961647, "internal_weight": 188.182, "internal_count": 2739, "left_child": {"split_index": 20, "split_feature": 8, "split_gain": 28.423500061035156, "threshold": 0.8052215518050994, "decision_type": "<=", "default_left": true, "missing_type": "None", "internal_value": 0.0154749, "internal_weight": 128.153, "internal_count": 1846, "left_child": {"split_index": 27, "split_feature": 43, "split_gain": 24.434999465942383, "threshold": 0.023815476190476192, "decision_type": "<=", "default_left": true, "missing_type": "None", "internal_value": 0.0113238, "internal_weight": 107.914, "internal_count": 1558, "left_child": {"leaf_index": 2, "leaf_value": 0.0001740963359707048, "leaf_weight": 45.82714028656483, "leaf_count": 675}, "right_child": {"split_index": 58, "split_feature": 9, "split_gain": 16.97480010986328, "threshold": 419.00000000000006, "decision_type": "<=", "default_left": true, "missing_type": "None", "internal_value": 0.0194852, "internal_weight": 62.0864, "internal_count": 883, "left_child": {"leaf_index": 28, "leaf_value": 0.07308866602653703, "leaf_weight": 2.1748444214463225, "leaf_count": 31}, "right_child": {"split_index": 60, "split_feature": 21, "split_gain": 13.997599601745605, "threshold": 0.21850000000000003, "decision_type": "<=", "default_left": true, "missing_type": "None", "internal_value": 0.0173117, "internal_weight": 59.9116, "internal_count": 852, "left_child": {"split_index": 61, "split_feature": 24, "split_gain": 18.08060073852539, "threshold": 0.06430000000000001, "decision_type": "<=", "default_left": true, "missing_type": "None", "internal_value": 0.0252906, "internal_weight": 35.6353, "internal_count": 504, "left_child": {"leaf_index": 59, "leaf_value": 0.01591170978984013, "leaf_weight": 25.412192679941654, "leaf_count": 361}, "right_child": {"leaf_index": 62, "leaf_value": 0.04774763001152115, "leaf_weight": 10.22314892709255, "leaf_count": 143}}, "right_child": {"leaf_index": 61, "leaf_value": 0.005393328040387215, "leaf_weight": 24.2762613594532, "leaf_count": 348}}}}, "right_child": {"split_index": 25, "split_feature": 24, "split_gain": 25.56329917907715, "threshold": 0.08235000000000002, "decision_type": "<=", "default_left": true, "missing_type": "None", "internal_value": 0.0372141, "internal_weight": 20.2398, "internal_count": 288, "left_child": {"leaf_index": 21, "leaf_value": 0.022741698482723238, "leaf_weight": 14.724600911140444, "leaf_count": 210}, "right_child": {"split_index": 26, "split_feature": 20, "split_gain": 41.359798431396484, "threshold": 0.08775000000000001, "decision_type": "<=", "default_left": true, "missing_type": "None", "internal_value": 0.0736981, "internal_weight": 5.5152, "internal_count": 78, "left_child": {"leaf_index": 26, "leaf_value": 0.12068816991189031, "leaf_weight": 3.08251879364252, "leaf_count": 43}, "right_child": {"leaf_index": 27, "leaf_value": 0.009442930395314644, "leaf_weight": 2.432684615254402, "leaf_count": 35}}}}, "right_child": {"leaf_index": 17, "leaf_value": -0.002847999134405532, "leaf_weight": 60.028985776007175, "leaf_count": 893}}, "right_child": {"split_index": 8, "split_feature": 20, "split_gain": 54.46139907836914, "threshold": 0.07120000000000001, "decision_type": "<=", "default_left": true, "missing_type": "None", "internal_value": 0.0301429, "internal_weight": 85.9171, "internal_count": 1205, "left_child": {"split_index": 14, "split_feature": 24, "split_gain": 39.36429977416992, "threshold": 0.09655000000000001, "decision_type": "<=", "default_left": true, "missing_type": "None", "internal_value": 0.0663004, "internal_weight": 13.9269, "internal_count": 184, "left_child": {"leaf_index": 8, "leaf_value": 0.05097628736948904, "leaf_weight": 11.947267048060892, "leaf_count": 159}, "right_child": {"leaf_index": 15, "leaf_value": 0.14727059997568034, "leaf_weight": 1.9796088561415661, "leaf_count": 25}}, "right_child": {"split_index": 21, "split_feature": 43, "split_gain": 26.836599349975586, "threshold": 0.039481818181818194, "decision_type": "<=", "default_left": true, "missing_type": "None", "internal_value": 0.0229831, "internal_weight": 71.9902, "internal_count": 1021, "left_child": {"leaf_index": 9, "leaf_value": 0.01404617642067446, "leaf_weight": 47.5110891610384, "leaf_count": 683}, "right_child": {"split_index": 35, "split_feature": 8, "split_gain": 22.51099967956543, "threshold": 0.577350269189625, "decision_type": "<=", "default_left": true, "missing_type": "None", "internal_value": 0.0400157, "internal_weight": 24.4791, "internal_count": 338, "left_child": {"split_index": 59, "split_feature": 36, "split_gain": 16.725400924682617, "threshold": 0.42265, "decision_type": "<=", "default_left": true, "missing_type": "None", "internal_value": 0.027162, "internal_weight": 17.4522, "internal_count": 241, "left_child": {"leaf_index": 22, "leaf_value": 0.04415630149558516, "leaf_weight": 9.871141284704214, "leaf_count": 135}, "right_child": {"leaf_index": 60, "leaf_value": 0.0042186966359068585, "leaf_weight": 7.581099145114421, "leaf_count": 106}}, "right_child": {"leaf_index": 36, "leaf_value": 0.0702868242022946, "leaf_weight": 7.026878759264945, "leaf_count": 97}}}}}}, "right_child": {"split_index": 2, "split_feature": 43, "split_gain": 489.9259948730469, "threshold": 0.23611666666666667, "decision_type": "<=", "default_left": true, "missing_type": "None", "internal_value": 0.075393, "internal_weight": 331.269, "internal_count": 4247, "left_child": {"split_index": 3, "split_feature": 25, "split_gain": 101.14600372314453, "threshold": 0.09120000000000002, "decision_type": "<=", "default_left": true, "missing_type": "None", "internal_value": 0.0609819, "internal_weight": 246.009, "internal_count": 3250, "left_child": {"split_index": 6, "split_feature": 43, "split_gain": 66.46160125732422, "threshold": 0.09762142857142858, "decision_type": "<=", "default_left": true, "missing_type": "None", "internal_value": 0.0442133, "internal_weight": 92.314, "internal_count": 1249, "left_child": {"split_index": 18, "split_feature": 28, "split_gain": 30.426300048828125, "threshold": 1850.0000000000002, "decision_type": "<=", "default_left": true, "missing_type": "None", "internal_value": 0.0277898, "internal_weight": 48.3708, "internal_count": 680, "left_child": {"split_index": 19, "split_feature": 36, "split_gain": 33.499000549316406, "threshold": 0.5916500000000001, "decision_type": "<=", "default_left": true, "missing_type": "None", "internal_value": 0.0350041, "internal_weight": 40.0605, "internal_count": 556, "left_child": {"split_index": 45, "split_feature": 21, "split_gain": 20.205799102783203, "threshold": 0.3047, "decision_type": "<=", "default_left": true, "missing_type": "None", "internal_value": 0.0462954, "internal_weight": 28.9548, "internal_count": 394, "left_child": {"split_index": 51, "split_feature": 7, "split_gain": 18.746200561523438, "threshold": 56.75000000000001, "decision_type": "<=", "default_left": true, "missing_type": "None", "internal_value": 0.0515789, "internal_weight": 26.3081, "internal_count": 356, "left_child": {"leaf_index": 1, "leaf_value": 0.062234847417873766, "leaf_weight": 18.899887725710876, "leaf_count": 254}, "right_child": {"leaf_index": 52, "leaf_value": 0.023300821448782573, "leaf_weight": 7.408173665404319, "leaf_count": 102}}, "right_child": {"leaf_index": 46, "leaf_value": -0.0051001170980492306, "leaf_weight": 2.6466916874051085, "leaf_count": 38}}, "right_child": {"leaf_index": 20, "leaf_value": 0.005074427914049738, "leaf_weight": 11.1057763248682, "leaf_count": 162}}, "right_child": {"leaf_index": 19, "leaf_value": -0.006636484160101181, "leaf_weight": 8.310261592268942, "leaf_count": 124}}, "right_child": {"split_index": 10, "split_feature": 37, "split_gain": 46.331600189208984, "threshold": 0.04075000000000001, "decision_type": "<=", "default_left": true, "missing_type": "None", "internal_value": 0.0620674, "internal_weight": 43.9432, "internal_count": 569, "left_child": {"split_index": 30, "split_feature": 25, "split_gain": 24.336299896240234, "threshold": 0.03980000000000001, "decision_type": "<=", "default_left": true, "missing_type": "None", "internal_value": 0.0820461, "internal_weight": 22.7502, "internal_count": 289, "left_child": {"leaf_index": 7, "leaf_value": 0.014050588884123623, "leaf_weight": 2.086077570915225, "leaf_count": 27}, "right_child": {"split_index": 43, "split_feature": 28, "split_gain": 20.722999572753906, "threshold": 1950.0000000000002, "decision_type": "<=", "default_left": true, "missing_type": "None", "internal_value": 0.0886155, "internal_weight": 20.6642, "internal_count": 262, "left_child": {"split_index": 46, "split_feature": 36, "split_gain": 20.126800537109375, "threshold": 0.7889000000000002, "decision_type": "<=", "default_left": true, "missing_type": "None", "internal_value": 0.0961764, "internal_weight": 18.1441, "internal_count": 229, "left_child": {"leaf_index": 31, "leaf_value": 0.10564934370857339, "leaf_weight": 15.217558838427072, "leaf_count": 192}, "right_child": {"leaf_index": 47, "leaf_value": 0.04319391822990021, "leaf_weight": 2.926524281501769, "leaf_count": 37}}, "right_child": {"leaf_index": 44, "leaf_value": 0.030709843118117263, "leaf_weight": 2.5200822204351416, "leaf_count": 33}}}, "right_child": {"split_index": 32, "split_feature": 36, "split_gain": 23.04520034790039, "threshold": 0.27920000000000006, "decision_type": "<=", "default_left": true, "missing_type": "None", "internal_value": 0.0400543, "internal_weight": 21.193, "internal_count": 280, "left_child": {"leaf_index": 11, "leaf_value": 0.10138640196223855, "leaf_weight": 2.123587109148505, "leaf_count": 27}, "right_child": {"leaf_index": 33, "leaf_value": 0.032330228591881095, "leaf_weight": 19.06939312070608, "leaf_count": 253}}}}, "right_child": {"split_index": 4, "split_feature": 21, "split_gain": 100.52100372314453, "threshold": 0.28110000000000007, "decision_type": "<=", "default_left": true, "missing_type": "None", "internal_value": 0.0709813, "internal_weight": 153.695, "internal_count": 2001, "left_child": {"split_index": 22, "split_feature": 25, "split_gain": 26.54360008239746, "threshold": 0.12765000000000004, "decision_type": "<=", "default_left": true, "missing_type": "None", "internal_value": 0.0974187, "internal_weight": 42.4135, "internal_count": 530, "left_child": {"split_index": 23, "split_feature": 36, "split_gain": 33.392601013183594, "threshold": 0.5635000000000001, "decision_type": "<=", "default_left": true, "missing_type": "None", "internal_value": 0.0859566, "internal_weight": 30.0724, "internal_count": 379, "left_child": {"split_index": 24, "split_feature": 8, "split_gain": 34.80609893798828, "threshold": 0.5631402058640945, "decision_type": "<=", "default_left": true, "missing_type": "None", "internal_value": 0.102931, "internal_weight": 18.5857, "internal_count": 228, "left_child": {"split_index": 52, "split_feature": 22, "split_gain": 18.31450080871582, "threshold": 0.11145000000000001, "decision_type": "<=", "default_left": true, "missing_type": "None", "internal_value": 0.0854918, "internal_weight": 14.1822, "internal_count": 174, "left_child": {"leaf_index": 4, "leaf_value": 0.09960756556238037, "leaf_weight": 10.377797655761247, "leaf_count": 126}, "right_child": {"leaf_index": 53, "leaf_value": 0.04390989506240318, "leaf_weight": 3.8044043481349936, "leaf_count": 48}}, "right_child": {"leaf_index": 25, "leaf_value": 0.1537730519247282, "leaf_weight": 4.403518147766589, "leaf_count": 54}}, "right_child": {"leaf_index": 24, "leaf_value": 0.05726048358906479, "leaf_weight": 11.4867285490036, "leaf_count": 151}}, "right_child": {"split_index": 41, "split_feature": 35, "split_gain": 20.84280014038086, "threshold": 0.16025000000000003, "decision_type": "<=", "default_left": true, "missing_type": "None", "internal_value": 0.123741, "internal_weight": 12.3411, "internal_count": 151, "left_child": {"leaf_index": 23, "leaf_value": 0.057858231989276, "leaf_weight": 2.110772140324115, "leaf_count": 27}, "right_child": {"leaf_index": 42, "leaf_value": 0.1360133021259704, "leaf_weight": 10.23029165714979, "leaf_count": 124}}}, "right_child": {"split_index": 9, "split_feature": 43, "split_gain": 51.9818000793457, "threshold": 0.06458000000000001, "decision_type": "<=", "default_left": true, "missing_type": "None", "internal_value": 0.0607605, "internal_weight": 111.281, "internal_count": 1471, "left_child": {"split_index": 48, "split_feature": 29, "split_gain": 18.884300231933594, "threshold": 12.500000000000002, "decision_type": "<=", "default_left": true, "missing_type": "None", "internal_value": 0.0277448, "internal_weight": 16.8447, "internal_count": 234, "left_child": {"leaf_index": 5, "leaf_value": -0.002542102812191906, "leaf_weight": 5.404192209243777, "leaf_count": 76}, "right_child": {"split_index": 49, "split_feature": 8, "split_gain": 20.918100357055664, "threshold": 0.08917678199743372, "decision_type": "<=", "default_left": true, "missing_type": "None", "internal_value": 0.0421581, "internal_weight": 11.4405, "internal_count": 158, "left_child": {"leaf_index": 49, "leaf_value": 0.009870006804146554, "leaf_weight": 4.92924617230892, "leaf_count": 69}, "right_child": {"split_index": 50, "split_feature": 25, "split_gain": 39.057701110839844, "threshold": 0.12535000000000004, "decision_type": "<=", "default_left": true, "missing_type": "None", "internal_value": 0.0653781, "internal_weight": 6.5113, "internal_count": 89, "left_child": {"leaf_index": 50, "leaf_value": -0.0020263106411290643, "leaf_weight": 2.2042721807956696, "leaf_count": 31}, "right_child": {"leaf_index": 51, "leaf_value": 0.09945503289190004, "leaf_weight": 4.307028912007809, "leaf_count": 58}}}}, "right_child": {"split_index": 12, "split_feature": 8, "split_gain": 40.50199890136719, "threshold": 0.2589221415959548, "decision_type": "<=", "default_left": true, "missing_type": "None", "internal_value": 0.0665644, "internal_weight": 94.4366, "internal_count": 1237, "left_child": {"split_index": 15, "split_feature": 35, "split_gain": 35.679901123046875, "threshold": 0.38750000000000007, "decision_type": "<=", "default_left": true, "missing_type": "None", "internal_value": 0.0517755, "internal_weight": 43.3447, "internal_count": 573, "left_child": {"split_index": 36, "split_feature": 36, "split_gain": 22.2106990814209, "threshold": 0.47725000000000006, "decision_type": "<=", "default_left": true, "missing_type": "None", "internal_value": 0.043356, "internal_weight": 36.3856, "internal_count": 483, "left_child": {"split_index": 40, "split_feature": 9, "split_gain": 21.103500366210938, "threshold": 485.00000000000006, "decision_type": "<=", "default_left": true, "missing_type": "None", "internal_value": 0.0624095, "internal_weight": 14.812, "internal_count": 194, "left_child": {"split_index": 53, "split_feature": 25, "split_gain": 18.16080093383789, "threshold": 0.11740000000000002, "decision_type": "<=", "default_left": true, "missing_type": "None", "internal_value": 0.0791378, "internal_weight": 9.9551, "internal_count": 130, "left_child": {"leaf_index": 10, "leaf_value": 0.029495648468623483, "leaf_weight": 2.583814986050127, "leaf_count": 34}, "right_child": {"leaf_index": 54, "leaf_value": 0.09520444729660846, "leaf_weight": 7.371284440159798, "leaf_count": 96}}, "right_child": {"leaf_index": 41, "leaf_value": 0.026179004234773567, "leaf_weight": 4.8569069132208815, "leaf_count": 64}}, "right_child": {"split_index": 37, "split_feature": 10, "split_gain": 30.86009979248047, "threshold": -1.0000000180025095e-35, "decision_type": "<=", "default_left": true, "missing_type": "None", "internal_value": 0.0297956, "internal_weight": 21.5736, "internal_count": 289, "left_child": {"split_index": 38, "split_feature": 20, "split_gain": 24.57740020751953, "threshold": 0.12590000000000004, "decision_type": "<=", "default_left": true, "missing_type": "None", "internal_value": 0.06733, "internal_weight": 6.13566, "internal_count": 81, "left_child": {"leaf_index": 37, "leaf_value": 0.011794931301676945, "leaf_weight": 2.2408861219882956, "leaf_count": 30}, "right_child": {"leaf_index": 39, "leaf_value": 0.09691840145852428, "leaf_weight": 3.8947703912854195, "leaf_count": 51}}, "right_child": {"leaf_index": 38, "leaf_value": 0.014181040717204841, "leaf_weight": 15.437917500734331, "leaf_count": 208}}}, "right_child": {"split_index": 34, "split_feature": 38, "split_gain": 22.679500579833984, "threshold": 0.032787500000000004, "decision_type": "<=", "default_left": true, "missing_type": "None", "internal_value": 0.0935308, "internal_weight": 6.95911, "internal_count": 90, "left_child": {"leaf_index": 16, "leaf_value": 0.042384604098764926, "leaf_weight": 2.6579165607690802, "leaf_count": 35}, "right_child": {"leaf_index": 35, "leaf_value": 0.12196922477375217, "leaf_weight": 4.301190435886383, "leaf_count": 55}}}, "right_child": {"split_index": 13, "split_feature": 36, "split_gain": 39.63180160522461, "threshold": 0.8166500000000002, "decision_type": "<=", "default_left": true, "missing_type": "None", "internal_value": 0.0788641, "internal_weight": 51.0919, "internal_count": 664, "left_child": {"split_index": 33, "split_feature": 9, "split_gain": 22.824399948120117, "threshold": 491.00000000000006, "decision_type": "<=", "default_left": true, "missing_type": "None", "internal_value": 0.0845688, "internal_weight": 46.2751, "internal_count": 600, "left_child": {"split_index": 39, "split_feature": 35, "split_gain": 21.686599731445312, "threshold": 0.27920000000000006, "decision_type": "<=", "default_left": true, "missing_type": "None", "internal_value": 0.0959202, "internal_weight": 29.0619, "internal_count": 376, "left_child": {"split_index": 42, "split_feature": 38, "split_gain": 20.840499877929688, "threshold": 0.16160000000000005, "decision_type": "<=", "default_left": true, "missing_type": "None", "internal_value": 0.0838934, "internal_weight": 21.4159, "internal_count": 278, "left_child": {"leaf_index": 13, "leaf_value": 0.07099391442429875, "leaf_weight": 16.226537525653846, "leaf_count": 211}, "right_child": {"leaf_index": 43, "leaf_value": 0.12053921815743483, "leaf_weight": 5.189322061836719, "leaf_count": 67}}, "right_child": {"split_index": 47, "split_feature": 23, "split_gain": 19.393400192260742, "threshold": 0.34280000000000005, "decision_type": "<=", "default_left": true, "missing_type": "None", "internal_value": 0.126959, "internal_weight": 7.64601, "internal_count": 98, "left_child": {"leaf_index": 40, "leaf_value": 0.14654659776707565, "leaf_weight": 5.669825717806815, "leaf_count": 72}, "right_child": {"leaf_index": 48, "leaf_value": 0.06297685396567308, "leaf_weight": 1.9761824160814283, "leaf_count": 26}}}, "right_child": {"split_index": 54, "split_feature": 8, "split_gain": 17.30929946899414, "threshold": 0.4775379488651296, "decision_type": "<=", "default_left": true, "missing_type": "None", "internal_value": 0.064568, "internal_weight": 17.2132, "internal_count": 224, "left_child": {"leaf_index": 34, "leaf_value": 0.027479295884965196, "leaf_weight": 4.316044606268409, "leaf_count": 56}, "right_child": {"split_index": 55, "split_feature": 13, "split_gain": 22.82539939880371, "threshold": 2.5000000000000004, "decision_type": "<=", "default_left": true, "missing_type": "None", "internal_value": 0.0762912, "internal_weight": 12.8972, "internal_count": 168, "left_child": {"leaf_index": 55, "leaf_value": 0.13436009230653237, "leaf_weight": 2.283757917582988, "leaf_count": 29}, "right_child": {"split_index": 56, "split_feature": 10, "split_gain": 20.375200271606445, "threshold": 1.5000000000000002, "decision_type": "<=", "default_left": true, "missing_type": "None", "internal_value": 0.061819, "internal_weight": 10.6134, "internal_count": 139, "left_child": {"split_index": 57, "split_feature": 40, "split_gain": 20.05929946899414, "threshold": 0.17125500000000002, "decision_type": "<=", "default_left": true, "missing_type": "None", "internal_value": 0.0926948, "internal_weight": 4.7423, "internal_count": 62, "left_child": {"leaf_index": 56, "leaf_value": 0.05243997035730078, "leaf_weight": 2.816400229930876, "leaf_count": 37}, "right_child": {"leaf_index": 58, "leaf_value": 0.1420748628688263, "leaf_weight": 1.925897195935249, "leaf_count": 25}}, "right_child": {"leaf_index": 57, "leaf_value": 0.034693360640523356, "leaf_weight": 5.871109142899513, "leaf_count": 77}}}}}, "right_child": {"leaf_index": 14, "leaf_value": 0.022555749313121303, "leaf_weight": 4.816831581294536, "leaf_count": 64}}}}}}, "right_child": {"split_index": 5, "split_feature": 43, "split_gain": 70.5718994140625, "threshold": 0.46430000000000005, "decision_type": "<=", "default_left": true, "missing_type": "None", "internal_value": 0.11676, "internal_weight": 85.2599, "internal_count": 997, "left_child": {"split_index": 17, "split_feature": 24, "split_gain": 33.797000885009766, "threshold": 0.1057, "decision_type": "<=", "default_left": true, "missing_type": "None", "internal_value": 0.103988, "internal_weight": 59.5196, "internal_count": 712, "left_child": {"split_index": 29, "split_feature": 6, "split_gain": 24.375499725341797, "threshold": -1.5383592850674566, "decision_type": "<=", "default_left": true, "missing_type": "None", "internal_value": 0.0822993, "internal_weight": 21.724, "internal_count": 271, "left_child": {"leaf_index": 3, "leaf_value": 0.06809497977684024, "leaf_weight": 16.0773413553834, "leaf_count": 205}, "right_child": {"leaf_index": 30, "leaf_value": 0.11941637189641573, "leaf_weight": 5.6466434076428405, "leaf_count": 66}}, "right_child": {"split_index": 28, "split_feature": 8, "split_gain": 24.379600524902344, "threshold": 0.26833459747629596, "decision_type": "<=", "default_left": true, "missing_type": "None", "internal_value": 0.116, "internal_weight": 37.7956, "internal_count": 441, "left_child": {"split_index": 44, "split_feature": 20, "split_gain": 20.55900001525879, "threshold": 0.09535000000000002, "decision_type": "<=", "default_left": true, "missing_type": "None", "internal_value": 0.0976862, "internal_weight": 19.2199, "internal_count": 224, "left_child": {"leaf_index": 18, "leaf_value": 0.1462288035143696, "leaf_weight": 3.2941632270813015, "leaf_count": 36}, "right_child": {"leaf_index": 45, "leaf_value": 0.08618804612847573, "leaf_weight": 15.925755038857458, "leaf_count": 188}}, "right_child": {"split_index": 31, "split_feature": 37, "split_gain": 23.96820068359375, "threshold": 0.20660000000000003, "decision_type": "<=", "default_left": true, "missing_type": "None", "internal_value": 0.133855, "internal_weight": 18.5757, "internal_count": 217, "left_child": {"leaf_index": 29, "leaf_value": 0.14911936282218338, "leaf_weight": 13.398625023663046, "leaf_count": 154}, "right_child": {"leaf_index": 32, "leaf_value": 0.0906993606427796, "leaf_weight": 5.177054740488528, "leaf_count": 63}}}}, "right_child": {"leaf_index": 6, "leaf_value": 0.14540267801546541, "leaf_weight": 25.74028342217207, "leaf_count": 285}}}}}, {"tree_index": 3, "num_leaves": 63, "num_cat": 0, "shrinkage": 0.02, "tree_structure": {"split_index": 0, "split_feature": 43, "split_gain": 5188.240234375, "threshold": 0.033336666666666674, "decision_type": "<=", "default_left": true, "missing_type": "None", "internal_value": 0.000118927, "internal_weight": 2011.7, "internal_count": 29770, "left_child": {"split_index": 2, "split_feature": 43, "split_gain": 376.2770080566406, "threshold": 0.01030982142857143, "decision_type": "<=", "default_left": true, "missing_type": "None", "internal_value": -0.01724, "internal_weight": 1556.89, "internal_count": 24083, "left_child": {"leaf_index": 0, "leaf_value": -0.0213044530170521, "leaf_weight": 1329.691493935883, "leaf_count": 20793}, "right_child": {"split_index": 11, "split_feature": 25, "split_gain": 34.38199996948242, "threshold": 0.09555000000000001, "decision_type": "<=", "default_left": true, "missing_type": "None", "internal_value": 0.00653252, "internal_weight": 227.201, "internal_count": 3290, "left_child": {"split_index": 25, "split_feature": 13, "split_gain": 22.14389991760254, "threshold": 4.500000000000001, "decision_type": "<=", "default_left": true, "missing_type": "None", "internal_value": 0.00160942, "internal_weight": 162.726, "internal_count": 2378, "left_child": {"split_index": 32, "split_feature": 6, "split_gain": 18.620899200439453, "threshold": -0.5411902361353916, "decision_type": "<=", "default_left": true, "missing_type": "None", "internal_value": -0.00216147, "internal_weight": 128.791, "internal_count": 1883, "left_child": {"split_index": 38, "split_feature": 37, "split_gain": 17.58329963684082, "threshold": 0.01306666666666667, "decision_type": "<=", "default_left": true, "missing_type": "None", "internal_value": 0.0135127, "internal_weight": 24.3161, "internal_count": 347, "left_child": {"split_index": 39, "split_feature": 36, "split_gain": 20.65530014038086, "threshold": 0.39230000000000004, "decision_type": "<=", "default_left": true, "missing_type": "None", "internal_value": 0.026671, "internal_weight": 15.1682, "internal_count": 216, "left_child": {"leaf_index": 3, "leaf_value": 0.04440476024895412, "leaf_weight": 9.536172173917295, "leaf_count": 133}, "right_child": {"leaf_index": 40, "leaf_value": -0.003209960734053753, "leaf_weight": 5.632048577070235, "leaf_count": 83}}, "right_child": {"leaf_index": 39, "leaf_value": -0.008060847637175851, "leaf_weight": 9.147916495800017, "leaf_count": 131}}, "right_child": {"leaf_index": 33, "leaf_value": -0.00585238424926866, "leaf_weight": 104.47478467226028, "leaf_count": 1536}}, "right_child": {"split_index": 26, "split_feature": 24, "split_gain": 26.793500900268555, "threshold": 0.10180000000000002, "decision_type": "<=", "default_left": true, "missing_type": "None", "internal_value": 0.0159552, "internal_weight": 33.9352, "internal_count": 495, "left_child": {"leaf_index": 26, "leaf_value": 0.009718600251856103, "leaf_weight": 30.510228477418423, "leaf_count": 446}, "right_child": {"leaf_index": 27, "leaf_value": 0.06793354587707831, "leaf_weight": 3.42501027137041, "leaf_count": 49}}}, "right_child": {"split_index": 12, "split_feature": 20, "split_gain": 60.20899963378906, "threshold": 0.06725000000000002, "decision_type": "<=", "default_left": true, "missing_type": "None", "internal_value": 0.0188788, "internal_weight": 64.4748, "internal_count": 912, "left_child": {"split_index": 20, "split_feature": 43, "split_gain": 26.891399383544922, "threshold": 0.018519444444444446, "decision_type": "<=", "default_left": true, "missing_type": "None", "internal_value": 0.0584194, "internal_weight": 12.3181, "internal_count": 164, "left_child": {"leaf_index": 12, "leaf_value": 0.022573542673060526, "leaf_weight": 5.277069866657255, "leaf_count": 74}, "right_child": {"split_index": 58, "split_feature": 36, "split_gain": 13.589599609375, "threshold": 0.24040000000000003, "decision_type": "<=", "default_left": true, "missing_type": "None", "internal_value": 0.0838366, "internal_weight": 7.04098, "internal_count": 90, "left_child": {"leaf_index": 21, "leaf_value": 0.12090399978722932, "leaf_weight": 2.6520848348736763, "leaf_count": 33}, "right_child": {"leaf_index": 59, "leaf_value": 0.05752155061349606, "leaf_weight": 4.388896554708481, "leaf_count": 57}}}, "right_child": {"split_index": 42, "split_feature": 34, "split_gain": 16.632999420166016, "threshold": 4.500000000000001, "decision_type": "<=", "default_left": true, "missing_type": "None", "internal_value": 0.00934224, "internal_weight": 52.1567, "internal_count": 748, "left_child": {"leaf_index": 13, "leaf_value": 0.05693461747230866, "leaf_weight": 2.649462401866912, "leaf_count": 36}, "right_child": {"leaf_index": 43, "leaf_value": 0.0065705561087739195, "leaf_weight": 49.50725844502449, "leaf_count": 712}}}}}, "right_child": {"split_index": 1, "split_feature": 43, "split_gain": 666.0540161132812, "threshold": 0.15190000000000003, "decision_type": "<=", "default_left": true, "missing_type": "None", "internal_value": 0.059535, "internal_weight": 454.803, "internal_count": 5687, "left_child": {"split_index": 3, "split_feature": 43, "split_gain": 143.35299682617188, "threshold": 0.06666333333333334, "decision_type": "<=", "default_left": true, "missing_type": "None", "internal_value": 0.0424285, "internal_weight": 303.923, "internal_count": 3999, "left_child": {"split_index": 6, "split_feature": 36, "split_gain": 50.376800537109375, "threshold": 0.42265, "decision_type": "<=", "default_left": true, "missing_type": "None", "internal_value": 0.0289161, "internal_weight": 155.418, "internal_count": 2132, "left_child": {"split_index": 9, "split_feature": 25, "split_gain": 43.770198822021484, "threshold": 0.12535000000000004, "decision_type": "<=", "default_left": true, "missing_type": "None", "internal_value": 0.0399707, "internal_weight": 80.1787, "internal_count": 1079, "left_child": {"split_index": 27, "split_feature": 22, "split_gain": 22.01810073852539, "threshold": 0.06945000000000003, "decision_type": "<=", "default_left": true, "missing_type": "None", "internal_value": 0.031401, "internal_weight": 60.8151, "internal_count": 829, "left_child": {"split_index": 29, "split_feature": 8, "split_gain": 19.631000518798828, "threshold": -0.4646422472478779, "decision_type": "<=", "default_left": true, "missing_type": "None", "internal_value": 0.0455629, "internal_weight": 25.6952, "internal_count": 347, "left_child": {"leaf_index": 1, "leaf_value": 0.017358859431258488, "leaf_weight": 7.5258783921599415, "leaf_count": 102}, "right_child": {"split_index": 30, "split_feature": 13, "split_gain": 20.273099899291992, "threshold": 4.500000000000001, "decision_type": "<=", "default_left": true, "missing_type": "None", "internal_value": 0.0568437, "internal_weight": 18.1693, "internal_count": 245, "left_child": {"leaf_index": 30, "leaf_value": 0.06765357480440695, "leaf_weight": 14.387517027556898, "leaf_count": 193}, "right_child": {"leaf_index": 31, "leaf_value": 0.013943204226206225, "leaf_weight": 3.781768582761287, "leaf_count": 52}}}, "right_child": {"leaf_index": 28, "leaf_value": 0.020804838698866544, "leaf_weight": 35.11995130032301, "leaf_count": 482}}, "right_child": {"split_index": 10, "split_feature": 37, "split_gain": 41.29890060424805, "threshold": 0.03171666666666668, "decision_type": "<=", "default_left": true, "missing_type": "None", "internal_value": 0.0662833, "internal_weight": 19.3636, "internal_count": 250, "left_child": {"split_index": 33, "split_feature": 9, "split_gain": 18.337299346923828, "threshold": 457.00000000000006, "decision_type": "<=", "default_left": true, "missing_type": "None", "internal_value": 0.0981942, "internal_weight": 8.83991, "internal_count": 110, "left_child": {"leaf_index": 10, "leaf_value": 0.04617796150495333, "leaf_weight": 2.4954272136092204, "leaf_count": 31}, "right_child": {"leaf_index": 34, "leaf_value": 0.1166523925525584, "leaf_weight": 6.344484277069569, "leaf_count": 79}}, "right_child": {"split_index": 50, "split_feature": 23, "split_gain": 15.751299858093262, "threshold": 0.3110500000000001, "decision_type": "<=", "default_left": true, "missing_type": "None", "internal_value": 0.0381937, "internal_weight": 10.5237, "internal_count": 140, "left_child": {"leaf_index": 11, "leaf_value": 0.05168857669950515, "leaf_weight": 8.017454311251639, "leaf_count": 106}, "right_child": {"leaf_index": 51, "leaf_value": -0.004328595338354045, "leaf_weight": 2.506202206015586, "leaf_count": 34}}}}, "right_child": {"split_index": 23, "split_feature": 3, "split_gain": 22.460100173950195, "threshold": 5.500000000000001, "decision_type": "<=", "default_left": true, "missing_type": "None", "internal_value": 0.0170399, "internal_weight": 75.2398, "internal_count": 1053, "left_child": {"split_index": 56, "split_feature": 25, "split_gain": 13.650099754333496, "threshold": 0.08280000000000001, "decision_type": "<=", "default_left": true, "missing_type": "None", "internal_value": 0.0103673, "internal_weight": 55.3804, "internal_count": 776, "left_child": {"leaf_index": 7, "leaf_value": -0.002272984878514398, "leaf_weight": 20.86146415770054, "leaf_count": 304}, "right_child": {"split_index": 57, "split_feature": 36, "split_gain": 14.411600112915039, "threshold": 0.6795000000000001, "decision_type": "<=", "default_left": true, "missing_type": "None", "internal_value": 0.0180697, "internal_weight": 34.5189, "internal_count": 472, "left_child": {"leaf_index": 57, "leaf_value": 0.02424047984779355, "leaf_weight": 28.117409363389015, "leaf_count": 382}, "right_child": {"leaf_index": 58, "leaf_value": -0.008510884620675493, "leaf_weight": 6.401478856801986, "leaf_count": 90}}}, "right_child": {"split_index": 31, "split_feature": 34, "split_gain": 19.17169952392578, "threshold": 4.500000000000001, "decision_type": "<=", "default_left": true, "missing_type": "None", "internal_value": 0.0352803, "internal_weight": 19.8594, "internal_count": 277, "left_child": {"split_index": 37, "split_feature": 25, "split_gain": 17.9591007232666, "threshold": 0.08590000000000002, "decision_type": "<=", "default_left": true, "missing_type": "None", "internal_value": 0.0599479, "internal_weight": 7.68682, "internal_count": 105, "left_child": {"leaf_index": 24, "leaf_value": 0.023159097898729594, "leaf_weight": 3.426376327872279, "leaf_count": 49}, "right_child": {"leaf_index": 38, "leaf_value": 0.08706046897729397, "leaf_weight": 4.260442338883877, "leaf_count": 56}}, "right_child": {"leaf_index": 32, "leaf_value": 0.01891954262686972, "leaf_weight": 12.172599367797373, "leaf_count": 172}}}}, "right_child": {"split_index": 5, "split_feature": 36, "split_gain": 56.451698303222656, "threshold": 0.6125000000000002, "decision_type": "<=", "default_left": true, "missing_type": "None", "internal_value": 0.0565064, "internal_weight": 148.504, "internal_count": 1867, "left_child": {"split_index": 7, "split_feature": 25, "split_gain": 44.54069900512695, "threshold": 0.09850000000000002, "decision_type": "<=", "default_left": true, "missing_type": "None", "internal_value": 0.0643519, "internal_weight": 106.2, "internal_count": 1314, "left_child": {"split_index": 14, "split_feature": 36, "split_gain": 30.63249969482422, "threshold": 0.27920000000000006, "decision_type": "<=", "default_left": true, "missing_type": "None", "internal_value": 0.049786, "internal_weight": 48.6815, "internal_count": 622, "left_child": {"leaf_index": 4, "leaf_value": 0.08857037959540524, "leaf_weight": 7.090238519012927, "leaf_count": 88}, "right_child": {"split_index": 21, "split_feature": 37, "split_gain": 24.88479995727539, "threshold": 0.009555000000000003, "decision_type": "<=", "default_left": true, "missing_type": "None", "internal_value": 0.0428079, "internal_weight": 41.5913, "internal_count": 534, "left_child": {"leaf_index": 15, "leaf_value": 0.1080429266812069, "leaf_weight": 2.161559909582137, "leaf_count": 28}, "right_child": {"split_index": 34, "split_feature": 9, "split_gain": 18.193599700927734, "threshold": 455.00000000000006, "decision_type": "<=", "default_left": true, "missing_type": "None", "internal_value": 0.0387599, "internal_weight": 39.4297, "internal_count": 506, "left_child": {"split_index": 59, "split_feature": 20, "split_gain": 13.021599769592285, "threshold": 0.08835000000000001, "decision_type": "<=", "default_left": true, "missing_type": "None", "internal_value": 0.0631977, "internal_weight": 9.48368, "internal_count": 118, "left_child": {"split_index": 60, "split_feature": 40, "split_gain": 18.331100463867188, "threshold": 0.050925000000000005, "decision_type": "<=", "default_left": true, "missing_type": "None", "internal_value": 0.0787432, "internal_weight": 6.6039200000000005, "internal_count": 81, "left_child": {"leaf_index": 22, "leaf_value": 0.028049963838574887, "leaf_weight": 2.2558513656258565, "leaf_count": 28}, "right_child": {"leaf_index": 61, "leaf_value": 0.10256420486573097, "leaf_weight": 4.348071940243244, "leaf_count": 53}}, "right_child": {"leaf_index": 60, "leaf_value": 0.024424674842992627, "leaf_weight": 2.8797519728541374, "leaf_count": 37}}, "right_child": {"split_index": 36, "split_feature": 37, "split_gain": 17.97570037841797, "threshold": 0.05562500000000001, "decision_type": "<=", "default_left": true, "missing_type": "None", "internal_value": 0.0306446, "internal_weight": 29.946, "internal_count": 388, "left_child": {"split_index": 41, "split_feature": 23, "split_gain": 16.707599639892578, "threshold": 0.3123000000000001, "decision_type": "<=", "default_left": true, "missing_type": "None", "internal_value": 0.0373648, "internal_weight": 25.1789, "internal_count": 326, "left_child": {"split_index": 61, "split_feature": 43, "split_gain": 12.775199890136719, "threshold": 0.12916666666666668, "decision_type": "<=", "default_left": true, "missing_type": "None", "internal_value": 0.0456153, "internal_weight": 20.0046, "internal_count": 258, "left_child": {"leaf_index": 35, "leaf_value": 0.03884674360058092, "leaf_weight": 17.64734161645175, "leaf_count": 230}, "right_child": {"leaf_index": 62, "leaf_value": 0.08973513525637299, "leaf_weight": 2.357267089188098, "leaf_count": 28}}, "right_child": {"leaf_index": 42, "leaf_value": 0.004517350255769766, "leaf_weight": 5.174313217401504, "leaf_count": 68}}, "right_child": {"leaf_index": 37, "leaf_value": -0.00429707486539707, "leaf_weight": 4.767115041613578, "leaf_count": 62}}}}}, "right_child": {"split_index": 8, "split_feature": 6, "split_gain": 45.5452995300293, "threshold": -1.401287877107641, "decision_type": "<=", "default_left": true, "missing_type": "None", "internal_value": 0.0764662, "internal_weight": 57.519, "internal_count": 692, "left_child": {"split_index": 24, "split_feature": 8, "split_gain": 22.223600387573242, "threshold": -0.7499350930328325, "decision_type": "<=", "default_left": true, "missing_type": "None", "internal_value": 0.0484351, "internal_weight": 17.4644, "internal_count": 214, "left_child": {"leaf_index": 8, "leaf_value": -0.004794265865965958, "leaf_weight": 2.5524785742163685, "leaf_count": 32}, "right_child": {"leaf_index": 25, "leaf_value": 0.057702515152345674, "leaf_weight": 14.91195236891508, "leaf_count": 182}}, "right_child": {"split_index": 15, "split_feature": 20, "split_gain": 28.832000732421875, "threshold": 0.08835000000000001, "decision_type": "<=", "default_left": true, "missing_type": "None", "internal_value": 0.0883872, "internal_weight": 40.0545, "internal_count": 478, "left_child": {"split_index": 43, "split_feature": 8, "split_gain": 16.618999481201172, "threshold": 0.2939210279768964, "decision_type": "<=", "default_left": true, "missing_type": "None", "internal_value": 0.122095, "internal_weight": 8.72016, "internal_count": 97, "left_child": {"leaf_index": 9, "leaf_value": 0.087525494192305, "leaf_weight": 4.410041086375712, "leaf_count": 50}, "right_child": {"leaf_index": 44, "leaf_value": 0.15266007375253166, "leaf_weight": 4.310121864080429, "leaf_count": 47}}, "right_child": {"split_index": 16, "split_feature": 9, "split_gain": 33.555599212646484, "threshold": 449.00000000000006, "decision_type": "<=", "default_left": true, "missing_type": "None", "internal_value": 0.0783743, "internal_weight": 31.3344, "internal_count": 381, "left_child": {"leaf_index": 16, "leaf_value": 0.1254587853815159, "leaf_weight": 5.275477163493636, "leaf_count": 63}, "right_child": {"split_index": 35, "split_feature": 40, "split_gain": 18.09950065612793, "threshold": 0.13280625000000004, "decision_type": "<=", "default_left": true, "missing_type": "None", "internal_value": 0.0680644, "internal_weight": 26.0589, "internal_count": 318, "left_child": {"split_index": 55, "split_feature": 40, "split_gain": 13.757699966430664, "threshold": 0.10780625000000002, "decision_type": "<=", "default_left": true, "missing_type": "None", "internal_value": 0.039369, "internal_weight": 7.35235, "internal_count": 90, "left_child": {"leaf_index": 17, "leaf_value": 0.061078485227667026, "leaf_weight": 4.427908495068553, "leaf_count": 54}, "right_child": {"leaf_index": 56, "leaf_value": 0.00414666857280235, "leaf_weight": 2.924444727599621, "leaf_count": 36}}, "right_child": {"leaf_index": 36, "leaf_value": 0.07878070268229123, "leaf_weight": 18.706545002758503, "leaf_count": 228}}}}}}, "right_child": {"split_index": 13, "split_feature": 3, "split_gain": 30.73710060119629, "threshold": 4.500000000000001, "decision_type": "<=", "default_left": true, "missing_type": "None", "internal_value": 0.0365824, "internal_weight": 42.3036, "internal_count": 553, "left_child": {"split_index": 44, "split_feature": 43, "split_gain": 16.27050018310547, "threshold": 0.10714642857142857, "decision_type": "<=", "default_left": true, "missing_type": "None", "internal_value": 0.0307087, "internal_weight": 38.3042, "internal_count": 503, "left_child": {"split_index": 45, "split_feature": 8, "split_gain": 18.702499389648438, "threshold": 0.3547939440257199, "decision_type": "<=", "default_left": true, "missing_type": "None", "internal_value": 0.0153146, "internal_weight": 16.5988, "internal_count": 229, "left_child": {"leaf_index": 6, "leaf_value": -0.004937192467677892, "leaf_weight": 8.572522453963758, "leaf_count": 119}, "right_child": {"split_index": 46, "split_feature": 24, "split_gain": 21.64859962463379, "threshold": 0.10540000000000001, "decision_type": "<=", "default_left": true, "missing_type": "None", "internal_value": 0.0370054, "internal_weight": 8.02627, "internal_count": 110, "left_child": {"leaf_index": 46, "leaf_value": 0.007600167953763602, "leaf_weight": 4.63897594809532, "leaf_count": 65}, "right_child": {"leaf_index": 47, "leaf_value": 0.07439852770655218, "leaf_weight": 3.387294538319111, "leaf_count": 45}}}, "right_child": {"split_index": 47, "split_feature": 9, "split_gain": 16.166000366210938, "threshold": 463.00000000000006, "decision_type": "<=", "default_left": true, "missing_type": "None", "internal_value": 0.0421578, "internal_weight": 21.7055, "internal_count": 274, "left_child": {"split_index": 48, "split_feature": 26, "split_gain": 23.42650032043457, "threshold": 0.06765, "decision_type": "<=", "default_left": true, "missing_type": "None", "internal_value": 0.0666101, "internal_weight": 7.30859, "internal_count": 92, "left_child": {"leaf_index": 45, "leaf_value": 0.12264716187959486, "leaf_weight": 2.0642042532563236, "leaf_count": 25}, "right_child": {"leaf_index": 49, "leaf_value": 0.04120052701213451, "leaf_weight": 5.244381159543991, "leaf_count": 67}}, "right_child": {"leaf_index": 48, "leaf_value": 0.028979435160960965, "leaf_weight": 14.396867543458937, "leaf_count": 182}}}, "right_child": {"leaf_index": 14, "leaf_value": 0.08897137882765266, "leaf_weight": 3.9993652403354636, "leaf_count": 50}}}}, "right_child": {"split_index": 4, "split_feature": 43, "split_gain": 110.77899932861328, "threshold": 0.3333166666666667, "decision_type": "<=", "default_left": true, "missing_type": "None", "internal_value": 0.093897, "internal_weight": 150.88, "internal_count": 1688, "left_child": {"split_index": 17, "split_feature": 25, "split_gain": 28.795900344848633, "threshold": 0.09160000000000001, "decision_type": "<=", "default_left": true, "missing_type": "None", "internal_value": 0.0824924, "internal_weight": 106.521, "internal_count": 1236, "left_child": {"split_index": 19, "split_feature": 37, "split_gain": 29.405899047851562, "threshold": 0.03185000000000001, "decision_type": "<=", "default_left": true, "missing_type": "None", "internal_value": 0.0635246, "internal_weight": 27.2086, "internal_count": 330, "left_child": {"leaf_index": 2, "leaf_value": 0.10541059941936506, "leaf_weight": 5.498454906046393, "leaf_count": 64}, "right_child": {"split_index": 22, "split_feature": 40, "split_gain": 23.333099365234375, "threshold": 0.08891250000000002, "decision_type": "<=", "default_left": true, "missing_type": "None", "internal_value": 0.0521286, "internal_weight": 21.7102, "internal_count": 266, "left_child": {"leaf_index": 20, "leaf_value": 0.062433628452089836, "leaf_weight": 17.3833329230547, "leaf_count": 213}, "right_child": {"leaf_index": 23, "leaf_value": 0.009352463846862098, "leaf_weight": 4.3268276900053015, "leaf_count": 53}}}, "right_child": {"split_index": 18, "split_feature": 20, "split_gain": 34.71080017089844, "threshold": 0.12590000000000004, "decision_type": "<=", "default_left": true, "missing_type": "None", "internal_value": 0.0888295, "internal_weight": 79.3124, "internal_count": 906, "left_child": {"leaf_index": 18, "leaf_value": 0.10520683811377318, "leaf_weight": 32.973146572709084, "leaf_count": 372}, "right_child": {"split_index": 49, "split_feature": 24, "split_gain": 15.973899841308594, "threshold": 0.2574000000000001, "decision_type": "<=", "default_left": true, "missing_type": "None", "internal_value": 0.0768096, "internal_weight": 46.3392, "internal_count": 534, "left_child": {"split_index": 51, "split_feature": 6, "split_gain": 15.460200309753418, "threshold": -1.5984112325529647, "decision_type": "<=", "default_left": true, "missing_type": "None", "internal_value": 0.0714367, "internal_weight": 40.2459, "internal_count": 464, "left_child": {"split_index": 52, "split_feature": 8, "split_gain": 19.609399795532227, "threshold": 0.2589221415959548, "decision_type": "<=", "default_left": true, "missing_type": "None", "internal_value": 0.0559575, "internal_weight": 17.7859, "internal_count": 207, "left_child": {"leaf_index": 19, "leaf_value": 0.02742225493300682, "leaf_weight": 6.727648980915549, "leaf_count": 80}, "right_child": {"split_index": 54, "split_feature": 26, "split_gain": 14.762700080871582, "threshold": 0.15015000000000003, "decision_type": "<=", "default_left": true, "missing_type": "None", "internal_value": 