tree
version=v4
num_class=1
num_tree_per_iteration=1
label_index=0
max_feature_idx=43
objective=binary sigmoid:1
feature_names=win_odds log_odds implied_prob popularity log_popularity odds_rank_in_race popularity_z weight weight_z body_weight weight_diff abs_weight_diff body_weight_deviation age is_male is_female is_gelding waku_ban prev_finish career_prize_norm jockey_win_rate jockey_in_three_rate trainer_win_rate trainer_in_three_rate course_win_rate distance_win_rate surface_win_rate going_win_rate distance horses_in_race is_g1 is_dirt run_style_id days_from_last_race horse_starts horse_win_rate horse_in3_rate popularity_x_jockey popularity_x_course implied_x_jockey_in3 distance_x_distwinrate weight_diff_x_career age_x_distance horsewin_x_popularity
feature_infos=none none none [0:18] [0:2.8903717578961645] none [-2.0493901531919199:1.6704359892345411] [49:63] [-4.1231056256176641:3.8729833462074166] [0:999] [-32:999] [0:999] [-9:10.98] [2:12] [0:1] [0:1] [0:1] none none none [0.0123:0.28249999999999997] [0.066000000000000003:0.61960000000000004] [0.012999999999999999:0.19800000000000001] [0.043700000000000003:0.42659999999999998] [0.012699999999999999:0.32940000000000003] [0.019:0.32719999999999999] [0.012999999999999999:0.29649999999999999] [0.0115:0.2828] [1000:4100] [5:18] none [0:1] none none [1:15] [0:1] [0:1] [0.00068333333333333332:0.28249999999999997] [0.00070555555555555551:0.32940000000000003] none [0.0144:0.47549999999999998] none [0.25:5.085] [0:1]
tree_sizes=6631 6731 6732 6742 6782 6807 6746 6812 6763 6764 6768 6798 6794 6793 6794 6802 6814 6819 6811 6812 6775 6752 6838 6776 6779 6820 6840 6843 6837 6840 6817 6807 6803 6797 6850 6818 6743 6837 6792 6838 6818 6790 6819 6831 6846 6852 6827 6832 6835 6876 6786 6844 6797 6849 6833 6829 6844 6805 6807 6862 6848 6863 6841 6864 6844 6854 6896 6852 6821 6839 6871 6810 6864 6858 6867 6862 6804 6877 6878 6877 6846 6865 6867 6863 6801 6864 6827 6850 6853 6854 6851

Tree=0
num_leaves=63
num_cat=0
split_feature=43 43 43 35 43 25 21 36 25 21 34 35 38 37 36 43 21 23 43 36 28 36 28 25 21 43 34 25 29 25 21 9 37 35 43 23 21 27 38 38 7 27 37 25 36 35 38 38 27 29 43 20 23 25 21 28 10 20 22 34 14 25
split_gain=6868.5 883.517 814.346 161.702 153.784 105.505 123.997 78.7165 74.0968 72.1769 64.4865 51.2278 50.9362 43.6542 46.597 45.6627 43.0871 43.0654 41.2668 38.8543 36.5168 41.5216 35.395 33.7803 34.5694 33.1173 30.4557 30.3741 26.6795 26.6463 28.922 25.5565 26.5628 24.8698 23.7648 36.4656 23.6214 35.1937 32.2432 31.3861 26.1821 26.5622 24.8385 22.6687 20.9618 20.6915 18.8431 18.4089 17.9467 17.3161 17.2505 17.1988 17.1323 16.729 46.1727 32.0328 25.209 22.1427 18.11 16.6393 15.7269 15.3799
threshold=0.050633333333333343 0.23611666666666667 0.015504807692307694 0.41430000000000006 0.095238095238095247 0.091200000000000017 0.28110000000000007 0.64585000000000015 0.10135000000000001 0.22390000000000002 7.5000000000000009 0.70835000000000015 0.10712500000000001 0.022642857142857145 0.47725000000000006 0.12250000000000001 0.38615000000000005 0.25630000000000003 0.007141428571428572 0.42265000000000003 1850.0000000000002 0.59165000000000012 1950.0000000000002 0.093400000000000011 0.35680000000000006 0.023815476190476192 7.5000000000000009 0.12105 11.500000000000002 0.085550000000000015 0.27430000000000004 447.00000000000006 0.022016666666666674 0.17425000000000002 0.039481818181818194 0.20950000000000005 0.24935000000000004 0.077200000000000005 0.014720000000000002 0.010675000000000002 55.750000000000007 0.051200000000000002 0.015362500000000003 0.099600000000000008 0.70715000000000006 0.16025000000000003 0.072250000000000023 0.061450000000000012 0.074350000000000013 11.500000000000002 0.071430952380952387 0.035150000000000008 0.18270000000000003 0.077700000000000005 0.24530000000000005 1850.0000000000002 -1.0000000180025095e-35 0.051400000000000008 0.094550000000000009 4.5000000000000009 1.0000000180025095e-35 0.10585000000000001
decision_type=2 2 2 2 2 2 2 2 2 2 2 2 2 2 2 2 2 2 2 2 2 2 2 2 2 2 2 2 2 2 2 2 2 2 2 2 2 2 2 2 2 2 2 2 2 2 2 2 2 2 2 2 2 2 2 2 2 2 2 2 2 2
left_child=2 4 18 12 5 20 7 17 19 45 13 27 23 22 -15 47 -14 43 -1 25 21 31 48 46 -25 -4 44 -5 -27 49 -31 -2 51 -19 59 -36 37 39 -39 60 41 -41 -42 -7 61 52 -3 -16 -6 -17 -34 -33 -10 57 -55 56 -56 -12 -58 -11 -30 -8
right_child=1 3 8 11 10 6 26 -9 9 34 53 -13 16 14 15 29 -18 33 -20 -21 -22 -23 -24 24 -26 28 -28 -29 36 30 -32 32 50 -35 35 -37 -38 38 -40 40 42 -43 -44 -45 -46 -47 -48 -49 -50 -51 -52 -53 -54 54 55 -57 58 -59 -60 -61 -62 -63
leaf_value=-2.5650080907864936 -2.4492944842568818 -2.4555242679576494 -2.538774755189606 -2.40339182624035 -2.4185302846260264 -2.4437967642502634 -2.5121124563257897 -2.513214817179751 -2.457140605451348 -2.4840282588714522 -2.4752675693873583 -2.2959077420294745 -2.3644871726890977 -2.4320095623917375 -2.5296632862169059 -2.5354840249244264 -2.4264837624372411 -2.5077031254197819 -2.5494067201035335 -2.5463909087971839 -2.5502088045221365 -2.5377850891077141 -2.4936163220466865 -2.391523566106776 -2.4913565234868211 -2.5410850703493106 -2.5224832609208772 -2.3490400585809565 -2.5085847754806609 -2.4054471966339648 -2.4586523296456444 -2.5373403348677841 -2.5521496111241877 -2.4217591866636639 -2.4587951640864678 -2.5168477319676823 -2.5319990341851688 -2.4069264748143331 -2.5174894334557707 -2.4728505511373591 -2.4404652281737276 -2.5468346626994514 -2.5228866802458376 -2.3505525015791551 -2.5216742433521548 -2.4423503193888836 -2.5228396262021455 -2.466765021518357 -2.3457463857282801 -2.4724840331737066 -2.4989004030241482 -2.4715362861649526 -2.5362003847853756 -2.4053181334790898 -2.4372441542831531 -2.5454902028549853 -2.4785566233751468 -2.5472578850989485 -2.5433822686726559 -2.5300827953465315 -2.5448255134631537 -2.4683985477254029
leaf_weight=1385.8291340395808 4.8642176985740688 4.05351474881172 53.979304738342762 9.9986697137355858 7.6341194435954076 2.1618745326995867 4.3913076445460346 3.7157218530774108 1.8916402161121348 3.3103703781962386 2.972577482461932 5.9451549649238578 9.525759659707548 26.61808018386364 6.0802721232175809 2.5672260075807554 12.70101287961006 2.296991690993309 72.017445370554924 60.329811178147793 8.3772638142108899 10.876931242644785 2.094315953552722 5.2695691734552383 2.296991690993309 15.741148941218851 10.201345451176165 14.389977358281611 8.7150567099452019 5.7424792274832752 24.861557126045227 2.0267573744058636 4.9993348568677884 4.458866223692894 5.8775963857769993 17.29499626159668 16.214058995246887 2.6347845867276183 1.9591987952589986 3.1076946407556516 5.4722449108958244 4.593983381986618 2.229433111846447 5.5398034900426865 4.9317762777209273 7.0260922312736511 3.1752532199025154 2.7023431658744812 2.7699017450213432 6.5531821772456169 4.391307644546032 10.336462609469889 2.6347845867276192 3.107694640755656 4.3913076445460346 3.2428117990493766 5.4046863317489571 3.5806046947836876 2.6347845867276192 43.372607812285423 10.066228292882442 23.037475489079952
leaf_count=20513 72 60 799 148 113 32 65 55 28 49 44 88 141 394 90 38 188 34 1066 893 124 161 31 78 34 233 151 213 129 85 368 30 74 66 87 256 240 39 29 46 81 68 33 82 73 104 47 40 41 97 65 153 39 46 65 48 80 53 39 642 149 341
internal_value=-2.54329 -2.45271 -2.55836 -2.38932 -2.47226 -2.4897 -2.47238 -2.42856 -2.52623 -2.51032 -2.45591 -2.3544 -2.41866 -2.44766 -2.45395 -2.46636 -2.39876 -2.40754 -2.56424 -2.53326 -2.51286 -2.50444 -2.41161 -2.44991 -2.41984 -2.52689 -2.49149 -2.37021 -2.51789 -2.45717 -2.44795 -2.49104 -2.50109 -2.44913 -2.51816 -2.50154 -2.51133 -2.50284 -2.45113 -2.51025 -2.48913 -2.51659 -2.46309 -2.37394 -2.48196 -2.46416 -2.48367 -2.50901 -2.39633 -2.48948 -2.52725 -2.48188 -2.50081 -2.48495 -2.4752 -2.49043 -2.47597 -2.51426 -2.49905 -2.52657 -2.52802 -2.47508
internal_weight=2011.22 286.921 1724.3 67.3559 219.565 106.607 60.7352 18.1733 266.451 81.4081 112.958 30.3338 37.0221 87.6235 75.1251 48.5071 22.2268 14.4575 1457.85 185.043 45.8723 37.495 12.4983 14.7953 7.56656 124.713 42.5619 24.3886 70.7338 39.7244 30.604 26.6181 21.7539 6.75586 69.8556 23.1726 54.9927 38.7786 4.59398 34.1846 15.4034 7.70168 7.70168 7.70168 32.3606 11.5525 7.22877 8.78262 10.404 9.12041 9.39064 12.3632 4.52642 25.3345 18.7813 15.6736 12.4308 6.55318 8.03947 46.683 18.7813 27.4288
internal_count=29770 4247 25523 997 3250 1578 899 269 3944 1205 1672 449 548 1297 1112 718 329 214 21579 2739 679 555 185 219 112 1846 630 361 1047 588 453 394 322 100 1034 343 814 574 68 506 228 114 114 114 479 171 107 130 154 135 139 183 67 375 278 232 184 97 119 691 278 406
is_linear=0
shrinkage=1


Tree=1
num_leaves=63
num_cat=0
split_feature=43 43 43 43 35 36 25 21 25 21 35 43 24 28 36 36 20 8 23 11 43 24 43 35 43 35 9 37 25 29 24 8 43 23 21 24 27 24 26 25 36 35 23 25 21 21 24 36 8 25 29 36 43 36 26 8 20 24 22 8 8 23
split_gain=6184.72 794.983 644.446 122.938 101.544 89.9633 76.1202 99.4018 67.616 61.7597 49.8123 41.3236 38.9974 37.1308 36.5967 36.0072 35.5079 34.3363 33.6936 36.6771 50.5388 33.5402 30.5919 29.4702 26.3828 24.971 24.8534 26.515 24.5565 24.3626 22.1013 22.3886 21.22 30.9188 21.181 56.474 22.2129 21.103 36.7053 25.2134 21.0594 20.5363 19.8171 19.6445 25.685 19.3927 22.309 19.0093 18.5373 18.3075 27.314 18.2172 17.3639 17.2318 17.1154 20.5965 17.0126 16.4797 16.0103 21.3445 15.9337 15.9601
threshold=0.050633333333333343 0.015504807692307694 0.23611666666666667 0.095238095238095247 0.41430000000000006 0.61250000000000016 0.091200000000000017 0.28110000000000007 0.10135000000000001 0.22390000000000002 0.27920000000000006 0.007141428571428572 0.10540000000000001 1850.0000000000002 0.42265000000000003 0.56350000000000011 0.11055000000000002 0.31622776601683983 0.33760000000000007 5.5000000000000009 0.11110555555555557 0.075650000000000009 0.023815476190476192 0.77500000000000013 0.064580000000000012 0.19090000000000004 447.00000000000006 0.022016666666666674 0.07740000000000001 11.500000000000002 0.096550000000000011 0.70002664064368025 0.039481818181818194 0.22085000000000002 0.25700000000000006 0.087350000000000011 0.077200000000000005 0.064700000000000021 0.11245000000000001 0.16160000000000002 0.43650000000000005 0.16025000000000003 0.22385000000000002 0.093400000000000011 0.35680000000000006 0.37225000000000003 0.064700000000000021 0.24040000000000003 1.0283658752048874 0.12235000000000001 13.500000000000002 0.43650000000000005 0.071430952380952387 0.31665000000000004 0.13625000000000001 0.3547939440257199 0.093450000000000019 0.071150000000000019 0.066300000000000012 0.64993368361967974 -1.0374619051909091 0.17880000000000004
decision_type=2 2 2 2 2 2 2 2 2 2 2 2 2 2 2 2 2 2 2 2 2 2 2 2 2 2 2 2 2 2 2 2 2 2 2 2 2 2 2 2 2 2 2 2 2 2 2 2 2 2 2 2 2 2 2 2 2 2 2 2 2 2
left_child=1 11 3 5 12 6 13 21 14 30 15 -1 43 26 22 17 -14 45 19 20 -12 25 48 28 54 -8 51 -28 -6 -24 31 53 -11 -34 35 36 -31 -21 -39 -40 -23 56 -18 57 -45 46 -5 -26 -3 -7 -51 -2 -29 -10 -9 -56 -19 -4 -43 -60 -49 -62
right_child=2 8 4 10 23 49 7 24 9 32 18 -13 16 -15 -16 -17 42 41 -20 37 -22 40 29 -25 47 -27 27 52 -30 34 -32 -33 33 -35 -36 -37 -38 38 39 -41 -42 58 -44 44 -46 -47 -48 60 -50 50 -52 -53 -54 -55 55 -57 -58 -59 59 -61 61 -63
leaf_value=-0.021533792722967592 0.1121966545081244 0.001100682896019319 0.081839224579931785 0.033331772432652021 0.0906154653067998 0.0060869946102203969 0.02728743713351673 0.0098790463947875818 0.10440938412930675 0.016299840935901463 0.071801054472938358 -0.0058770996844506873 0.18674235493736732 -0.0052952742882487946 -0.0028987251007672617 0.05169995812183463 0.16426651330098466 0.02213639885901238 0.060183803678921122 0.02141157700576846 0.13779024351609215 0.16704026661166499 0.0023042978342184476 0.21134264776685374 0.12143964561175455 0.11325232068552678 0.055854970438467898 -0.010123781442392715 0.1559105230661349 0.023211724949854209 0.13621039396962076 0.007125711444912539 0.073437762690689662 0.023811777860493894 0.0099486961695964948 0.10113787509790795 0.072699529569543189 0.13452545607719912 0.021793131057183241 0.10698420623329118 0.097153185144186416 0.15835675584874259 0.10418228491044705 0.1281530924475052 0.036810161569121688 0.032614927140709328 0.090452412139480604 0.010461267138065616 0.044832331114807077 0.002301889992819633 0.073667042327743473 0.029209137381079983 0.041185198014184222 0.040812914810805935 0.015633704441391741 0.097929078544417167 0.094232083425247359 0.019816060975896582 0.12851584126443094 0.070011182653174714 0.0093913078442777343 0.075593435217192764
leaf_weight=1360.4876154959202 3.5854022279381779 50.125117443501949 4.2945447564125043 4.2145264744758633 3.5879770293831852 17.920676819980148 2.7110618129372588 6.8349403217434865 4.1336690559983236 47.351719930768013 7.3378457725048092 71.651169449090958 3.686088182032111 6.3810446858406058 60.177921429276466 30.922264106571674 3.2906545475125339 2.5932466238737133 9.6204238384962064 2.637384518980979 17.904177986085415 5.9930348396301252 15.77285150438547 4.7365330159664145 2.646592669188979 3.1098711863160133 14.042997479438784 5.6411105096340162 27.185696326196194 32.417937844991684 1.8780411779880513 2.6362912282347679 7.420935288071635 16.585818529129028 15.076961822807787 4.901662051677703 4.0887866020202628 4.0748034417629224 3.9931516572833061 2.1829655021429062 4.0560731589794159 3.0721416994929305 19.220020622014999 5.4524685814976692 1.9067194908857343 6.8483294621109954 10.906989544630049 2.3475022837519672 4.0696983039379111 4.038784518837927 4.6792565733194351 1.8187151476740835 4.6288789734244347 3.6928172633051872 2.5384897515177727 2.528201162815094 3.1294833421707153 3.2355679422616959 5.708817206323145 6.3924509286880493 1.7890056744217897 14.245940759778021
leaf_count=20513 49 739 59 58 47 262 37 97 57 691 101 1066 47 95 893 432 43 36 132 36 243 78 233 57 37 41 198 84 345 467 26 37 103 240 221 70 56 55 55 30 54 42 254 71 27 94 150 33 60 58 67 25 66 51 36 36 43 47 78 87 25 200
internal_value=0.000140146 -0.0148147 0.0823337 0.0656933 0.132703 0.0503269 0.0603946 0.0767615 0.016629 0.0315681 0.0796913 -0.0207533 0.110148 0.0379595 0.00989315 0.0689128 0.125464 0.0810364 0.0960163 0.104707 0.119263 0.118041 0.0160006 0.158142 0.056332 0.0754085 0.0473278 0.0380551 0.148871 0.0245167 0.0727884 0.0593573 0.0242597 0.039637 0.0306437 0.0380436 0.0291111 0.074926 0.0878986 0.0542011 0.14097 0.0999234 0.114127 0.082019 0.106094 0.062381 0.0752125 0.0699367 0.00455454 0.0179701 0.0415423 0.0863511 0.0129742 0.0761102 0.0314737 0.058908 0.0634727 0.056487 0.112719 0.0990914 0.0614369 0.0685482
internal_weight=2012.14 1702.47 309.673 233.077 76.5963 111.538 84.8989 48.8007 270.33 83.6993 121.539 1432.14 41.0861 36.0981 186.631 73.7882 26.1968 42.866 47.7508 38.1303 25.242 15.87 126.453 35.5102 32.9307 5.82093 29.7171 24.313 30.7737 72.2582 12.3408 10.4628 71.3585 24.0068 56.4853 41.4084 36.5067 12.8883 10.2509 6.17612 10.0491 20.8961 22.5107 14.8893 7.35919 21.9698 15.1215 21.029 54.1948 26.6387 8.71804 5.40412 10.27 7.82649 11.9016 5.06669 5.72273 7.53011 15.1734 12.1013 18.3824 16.0349
internal_count=29770 25523 4247 3250 997 1578 1191 674 3944 1205 1672 21579 548 517 2739 1020 344 588 652 520 344 210 1846 449 464 78 422 348 392 1047 171 145 1034 343 814 593 523 176 140 85 132 286 297 204 98 302 208 295 799 387 125 74 150 108 169 72 79 106 207 165 258 225
is_linear=0
shrinkage=0.02


Tree=2
num_leaves=63
num_cat=0
split_feature=43 43 43 25 21 43 43 25 20 43 37 43 8 36 24 35 36 24 28 36 8 43 25 36 8 24 20 43 8 6 25 37 36 9 38 8 36 10 20 35 9 35 38 28 20 21 36 23 29 8 25 7 22 25 8 13 10 40 9 36 21 24
split_gain=5618.53 776.421 489.926 101.146 100.521 70.5719 66.4616 61.8844 54.4614 51.9818 46.3316 41.381 40.502 39.6318 39.3643 35.6799 34.4924 33.797 30.4263 33.499 28.4235 26.8366 26.5436 33.3926 34.8061 25.5633 41.3598 24.435 24.3796 24.3755 24.3363 23.9682 23.0452 22.8244 22.6795 22.511 22.2107 30.8601 24.5774 21.6866 21.1035 20.8428 20.8405 20.723 20.559 20.2058 20.1268 19.3934 18.8843 20.9181 39.0577 18.7462 18.3145 18.1608 17.3093 22.8254 20.3752 20.0593 16.9748 16.7254 13.9976 18.0806
threshold=0.050633333333333343 0.015504807692307694 0.23611666666666667 0.091200000000000017 0.28110000000000007 0.46430000000000005 0.097621428571428581 0.10135000000000001 0.071200000000000013 0.064580000000000012 0.040750000000000008 0.007141428571428572 0.25892214159595478 0.81665000000000021 0.096550000000000011 0.38750000000000007 0.42265000000000003 0.1057 1850.0000000000002 0.59165000000000012 0.80522155180509936 0.039481818181818194 0.12765000000000004 0.56350000000000011 0.56314020586409452 0.08235000000000002 0.087750000000000009 0.023815476190476192 0.26833459747629596 -1.5383592850674566 0.039800000000000009 0.20660000000000003 0.27920000000000006 491.00000000000006 0.032787500000000004 0.57735026918962495 0.47725000000000006 -1.0000000180025095e-35 0.12590000000000004 0.27920000000000006 485.00000000000006 0.16025000000000003 0.16160000000000005 1950.0000000000002 0.095350000000000018 0.30470000000000003 0.78890000000000016 0.34280000000000005 12.500000000000002 0.089176781997433716 0.12535000000000004 56.750000000000007 0.11145000000000001 0.11740000000000002 0.47753794886512962 2.5000000000000004 1.5000000000000002 0.17125500000000002 419.00000000000006 0.42265000000000003 0.21850000000000003 0.06430000000000001
decision_type=2 2 2 2 2 2 2 2 2 2 2 2 2 2 2 2 2 2 2 2 2 2 2 2 2 2 2 2 2 2 2 2 2 2 2 2 2 2 2 2 2 2 2 2 2 2 2 2 2 2 2 2 2 2 2 2 2 2 2 2 2 2
left_child=1 11 3 6 22 17 18 16 14 48 30 -1 15 33 -9 36 20 29 19 45 27 -10 23 24 52 -22 -27 -3 44 -4 -8 -30 -12 39 -17 59 40 38 -38 42 53 -24 -14 46 -19 51 -32 -41 -6 -50 -51 -2 -5 -11 -35 -56 57 -57 -29 -23 61 -60
right_child=2 7 5 4 9 -7 10 8 21 12 32 -13 13 -15 -16 34 -18 28 -20 -21 25 35 41 -25 -26 26 -28 58 31 -31 43 -33 -34 54 -36 -37 37 -39 -40 47 -42 -43 -44 -45 -46 -47 -48 -49 49 50 -52 -53 -54 -55 55 56 -58 -59 60 -61 -62 -63
leaf_value=-0.02150093670314503 0.062234847417873766 0.00017409633597070481 0.068094979776840245 0.099607565562380374 -0.0025421028121919058 0.14540267801546541 0.014050588884123623 0.050976287369489039 0.014046176420674459 0.029495648468623483 0.10138640196223855 -0.0057890690083087348 0.070993914424298754 0.022555749313121303 0.14727059997568034 0.042384604098764926 -0.0028479991344055322 0.14622880351436959 -0.0066364841601011812 0.0050744279140497381 0.022741698482723238 0.044156301495585158 0.057858231989275997 0.057260483589064791 0.1537730519247282 0.12068816991189031 0.0094429303953146443 0.073088666026537033 0.14911936282218338 0.11941637189641573 0.10564934370857339 0.0906993606427796 0.032330228591881095 0.027479295884965196 0.12196922477375217 0.070286824202294595 0.011794931301676945 0.014181040717204841 0.096918401458524275 0.14654659776707565 0.026179004234773567 0.1360133021259704 0.12053921815743483 0.030709843118117263 0.086188046128475734 -0.0051001170980492306 0.043193918229900208 0.062976853965673082 0.0098700068041465538 -0.0020263106411290643 0.099455032891900039 0.023300821448782573 0.043909895062403177 0.095204447296608458 0.13436009230653237 0.052439970357300782 0.034693360640523356 0.14207486286882631 0.01591170978984013 0.0042186966359068585 0.0053933280403872146 0.047747630011521151
leaf_weight=1335.5656256228685 18.899887725710876 45.827140286564827 16.0773413553834 10.377797655761247 5.4041922092437771 25.74028342217207 2.0860775709152248 11.947267048060892 47.511089161038399 2.5838149860501272 2.123587109148505 71.291835114359856 16.226537525653846 4.8168315812945357 1.9796088561415661 2.6579165607690802 60.028985776007175 3.2941632270813015 8.310261592268942 11.1057763248682 14.724600911140444 9.8711412847042137 2.1107721403241149 11.486728549003599 4.4035181477665892 3.08251879364252 2.4326846152544022 2.1748444214463225 13.398625023663046 5.6466434076428405 15.217558838427072 5.1770547404885283 19.069393120706081 4.3160446062684086 4.3011904358863831 7.0268787592649451 2.2408861219882956 15.437917500734331 3.8947703912854195 5.6698257178068152 4.8569069132208815 10.23029165714979 5.1893220618367186 2.5200822204351416 15.925755038857458 2.6466916874051085 2.9265242815017691 1.9761824160814283 4.92924617230892 2.2042721807956696 4.3070289120078087 7.4081736654043189 3.8044043481349936 7.3712844401597977 2.2837579175829879 2.8164002299308759 5.8711091428995132 1.9258971959352491 25.412192679941654 7.581099145114421 24.276261359453201 10.22314892709255
leaf_count=20513 254 675 205 126 76 285 27 159 683 34 27 1066 211 64 25 35 893 36 124 162 210 135 27 151 54 43 35 31 154 66 192 63 253 56 55 97 30 208 51 72 64 124 67 33 188 38 37 26 69 31 58 102 48 96 29 37 77 25 361 106 348 143
internal_value=0.000128879 -0.0147072 0.075393 0.0609819 0.0709813 0.11676 0.0442133 0.0160744 0.0301429 0.0607605 0.0620674 -0.0207076 0.0665644 0.0788641 0.0663004 0.0517755 0.00961647 0.103988 0.0277898 0.0350041 0.0154749 0.0229831 0.0974187 0.0859566 0.102931 0.0372141 0.0736981 0.0113238 0.116 0.0822993 0.0820461 0.133855 0.0400543 0.0845688 0.0935308 0.0400157 0.043356 0.0297956 0.06733 0.0959202 0.0624095 0.123741 0.0838934 0.0886155 0.0976862 0.0462954 0.0961764 0.126959 0.0277448 0.0421581 0.0653781 0.0515789 0.0854918 0.0791378 0.064568 0.0762912 0.061819 0.0926948 0.0194852 0.027162 0.0173117 0.0252906
internal_weight=2012.23 1680.96 331.269 246.009 153.695 85.2599 92.314 274.099 85.9171 111.281 43.9432 1406.86 94.4366 51.0919 13.9269 43.3447 188.182 59.5196 48.3708 40.0605 128.153 71.9902 42.4135 30.0724 18.5857 20.2398 5.5152 107.914 37.7956 21.724 22.7502 18.5757 21.193 46.2751 6.95911 24.4791 36.3856 21.5736 6.13566 29.0619 14.812 12.3411 21.4159 20.6642 19.2199 28.9548 18.1441 7.64601 16.8447 11.4405 6.5113 26.3081 14.1822 9.9551 17.2132 12.8972 10.6134 4.7423 62.0864 17.4522 59.9116 35.6353
internal_count=29770 25523 4247 3250 2001 997 1249 3944 1205 1471 569 21579 1237 664 184 573 2739 712 680 556 1846 1021 530 379 228 288 78 1558 441 271 289 217 280 600 90 338 483 289 81 376 194 151 278 262 224 394 229 98 234 158 89 356 174 130 224 168 139 62 883 241 852 504
is_linear=0
shrinkage=0.02


Tree=3
num_leaves=63
num_cat=0
split_feature=43 43 43 43 43 36 36 25 6 25 37 25 20 3 36 20 9 25 20 37 43 37 40 3 8 13 24 22 24 8 13 34 6 9 9 40 37 25 37 36 43 23 34 8 43 8 24 9 26 24 23 6 8 23 26 40 25 36 36 20 40 43
split_gain=5188.24 666.054 376.277 143.353 110.779 56.4517 50.3768 44.5407 45.5453 43.7702 41.2989 34.382 60.209 30.7371 30.6325 28.832 33.5556 28.7959 34.7108 29.4059 26.8914 24.8848 23.3331 22.4601 22.2236 22.1439 26.7935 22.0181 19.8717 19.631 20.2731 19.1717 18.6209 18.3373 18.1936 18.0995 17.9757 17.9591 17.5833 20.6553 17.335 16.7076 16.633 16.619 16.2705 18.7025 21.6486 16.166 23.4265 15.9739 15.7513 15.4602 19.6094 15.4396 14.7627 13.7577 13.6501 14.4116 13.5896 13.0216 18.3311 12.7752
threshold=0.033336666666666674 0.15190000000000003 0.01030982142857143 0.066663333333333338 0.33331666666666671 0.61250000000000016 0.42265000000000003 0.098500000000000018 -1.4012878771076409 0.12535000000000004 0.031716666666666678 0.09555000000000001 0.067250000000000018 4.5000000000000009 0.27920000000000006 0.088350000000000012 449.00000000000006 0.091600000000000015 0.12590000000000004 0.03185000000000001 0.018519444444444446 0.0095550000000000027 0.088912500000000019 5.5000000000000009 -0.74993509303283246 4.5000000000000009 0.10180000000000002 0.069450000000000026 0.11830000000000002 -0.46464224724787789 4.5000000000000009 4.5000000000000009 -0.54119023613539163 457.00000000000006 455.00000000000006 0.13280625000000004 0.055625000000000008 0.085900000000000018 0.013066666666666669 0.39230000000000004 0.46430000000000005 0.31230000000000008 4.5000000000000009 0.2939210279768964 0.10714642857142857 0.3547939440257199 0.10540000000000001 463.00000000000006 0.067650000000000002 0.25740000000000007 0.3110500000000001 -1.5984112325529647 0.25892214159595478 0.24065 0.15015000000000003 0.10780625000000002 0.082800000000000012 0.6795000000000001 0.24040000000000003 0.088350000000000012 0.050925000000000005 0.12916666666666668
decision_type=2 2 2 2 2 2 2 2 2 2 2 2 2 2 2 2 2 2 2 2 2 2 2 2 2 2 2 2 2 2 2 2 2 2 2 2 2 2 2 2 2 2 2 2 2 2 2 2 2 2 2 2 2 2 2 2 2 2 2 2 2 2
left_child=2 3 -1 6 17 7 9 14 24 27 33 25 20 44 -5 43 -17 19 -19 -3 -13 -16 -21 56 -9 32 -27 29 40 -2 -31 37 38 -11 59 55 41 -25 39 -4 -6 61 -14 -10 45 -7 -47 48 -46 51 -12 52 -20 -53 -54 -18 -8 -58 -22 60 -23 -36
right_child=1 4 11 5 28 13 23 8 15 10 50 12 42 -15 21 16 35 18 49 22 58 34 -24 31 -26 26 -28 -29 -30 30 -32 -33 -34 -35 36 -37 -38 -39 -40 -41 -42 -43 -44 -45 47 46 -48 -49 -50 -51 -52 53 54 -55 -56 -57 57 -59 -60 -61 -62 -63
leaf_value=-0.0213044530170521 0.017358859431258488 0.10541059941936506 0.044404760248954123 0.088570379595405244 0.071032130729831833 -0.004937192467677892 -0.002272984878514398 -0.0047942658659659576 0.087525494192305001 0.046177961504953333 0.051688576699505148 0.022573542673060526 0.056934617472308657 0.088971378827652658 0.10804292668120689 0.12545878538151589 0.061078485227667026 0.10520683811377318 0.027422254933006821 0.062433628452089836 0.12090399978722932 0.028049963838574887 0.0093524638468620979 0.023159097898729594 0.057702515152345674 0.0097186002518561028 0.067933545877078311 0.020804838698866544 0.13214257647409564 0.067653574804406952 0.013943204226206225 0.01891954262686972 -0.0058523842492686599 0.1166523925525584 0.038846743600580921 0.078780702682291232 -0.0042970748653970697 0.08706046897729397 -0.0080608476371758515 -0.0032099607340537531 0.11856691120915054 0.0045173502557697663 0.0065705561087739195 0.15266007375253166 0.12264716187959486 0.0076001679537636016 0.074398527706552184 0.028979435160960965 0.041200527012134509 0.1092471853672301 -0.0043285953383540446 0.1185248389126775 0.024855401182877119 0.073056875439147295 0.084728661398747643 0.0041466685728023499 0.024240479847793549 -0.0085108846206754935 0.057521550613496057 0.024424674842992627 0.10256420486573097 0.089735135256372986
leaf_weight=1329.691493935883 7.5258783921599415 5.4984549060463932 9.5361721739172953 7.0902385190129271 6.7148609235882786 8.5725224539637583 20.861464157700539 2.5524785742163685 4.4100410863757116 2.4954272136092204 8.0174543112516385 5.2770698666572553 2.649462401866912 3.9993652403354636 2.1615599095821372 5.2754771634936359 4.4279084950685528 32.973146572709084 6.7276489809155491 17.383332923054699 2.6520848348736763 2.2558513656258565 4.3268276900053015 3.426376327872279 14.911952368915079 30.510228477418423 3.42501027137041 35.119951300323009 28.295348480343819 14.387517027556898 3.7817685827612868 12.172599367797373 104.47478467226028 6.3444842770695686 17.647341616451751 18.706545002758503 4.7671150416135779 4.2604423388838768 9.1479164958000165 5.6320485770702353 9.3492064997553808 5.1743132174015036 49.50725844502449 4.3101218640804291 2.0642042532563236 4.6389759480953199 3.3872945383191109 14.396867543458937 5.2443811595439911 6.093354493379592 2.506202206015586 4.5418210700154331 2.4107674136757842 17.918149121105671 8.6474668309092504 2.9244447275996208 28.117409363389015 6.4014788568019858 4.3888965547084808 2.8797519728541374 4.3480719402432442 2.357267089188098
leaf_count=20793 102 64 133 88 75 119 304 32 50 31 106 74 36 50 28 63 54 372 80 213 33 28 53 49 182 446 49 482 283 193 52 172 1536 79 230 228 62 56 131 83 94 68 712 47 25 65 45 182 67 70 34 51 28 206 99 36 382 90 57 37 53 28
internal_value=0.000118927 0.059535 -0.01724 0.0424285 0.093897 0.0565064 0.0289161 0.0643519 0.0764662 0.0399707 0.0662833 0.00653252 0.0188788 0.0365824 0.049786 0.0883872 0.0783743 0.0824924 0.0888295 0.0635246 0.0584194 0.0428079 0.0521286 0.0170399 0.0484351 0.00160942 0.0159552 0.031401 0.120845 0.0455629 0.0568437 0.0352803 -0.00216147 0.0981942 0.0387599 0.0680644 0.0306446 0.0599479 0.0135127 0.026671 0.0997231 0.0373648 0.00934224 0.122095 0.0307087 0.0153146 0.0370054 0.0421578 0.0666101 0.0768096 0.0381937 0.0714367 0.0559575 0.0831093 0.0724509 0.039369 0.0103673 0.0180697 0.0838366 0.0631977 0.0787432 0.0456153
internal_weight=2011.7 454.803 1556.89 303.923 150.88 148.504 155.418 106.2 57.519 80.1787 19.3636 227.201 64.4748 42.3036 48.6815 40.0545 31.3344 106.521 79.3124 27.2086 12.3181 41.5913 21.7102 75.2398 17.4644 162.726 33.9352 60.8151 44.3594 25.6952 18.1693 19.8594 128.791 8.83991 39.4297 26.0589 29.946 7.68682 24.3161 15.1682 16.0641 25.1789 52.1567 8.72016 38.3042 16.5988 8.02627 21.7055 7.30859 46.3392 10.5237 40.2459 17.7859 22.46 11.0582 7.35235 55.3804 34.5189 7.04098 9.48368 6.60392 20.0046
internal_count=29770 5687 24083 3999 1688 1867 2132 1314 692 1079 250 3290 912 553 622 478 381 1236 906 330 164 534 266 1053 214 2378 495 829 452 347 245 277 1883 110 506 318 388 105 347 216 169 326 748 97 503 229 110 274 92 534 140 464 207 257 127 90 776 472 90 118 81 258
is_linear=0
shrinkage=0.02


Tree=4
num_leaves=63
num_cat=0
split_feature=43 43 43 43 25 21 28 27 43 8 38 36 35 21 24 36 37 24 36 9 8 37 43 25 36 22 25 29 22 8 8 24 24 42 20 24 20 25 9 35 43 8 35 21 8 21 24 25 23 25 11 36 43 27 8 43 28 25 9 37 22 38
split_gain=4818.91 551.682 371.65 103.454 102.387 73.0426 56.2109 45.6112 43.3102 42.2764 41.7432 46.0305 40.913 40.3261 39.6639 36.7275 32.4839 32.1304 29.9847 27.4544 24.7344 23.9914 38.4042 22.9701 20.7668 20.3964 19.0634 34.5734 23.4099 18.6988 18.341 18.2888 18.057 27.7087 18.0421 17.9374 28.102 17.6688 19.0342 18.0317 17.612 17.5142 17.3191 17.2903 17.105 17.4191 16.9667 16.4357 15.9412 18.5751 15.6927 16.0424 15.6093 17.1852 16.2696 15.0602 14.5415 14.334 13.8962 18.1764 22.1214 21.4394
threshold=0.033336666666666674 0.12916666666666668 0.01030982142857143 0.33331666666666671 0.10585000000000001 0.28405000000000008 2150.0000000000005 0.10435000000000001 0.075950000000000017 1.0000000180025095e-35 0.0060101010101010115 0.27920000000000006 0.23610000000000003 0.21540000000000004 0.095600000000000018 0.31665000000000004 0.019287500000000003 0.11165000000000001 0.57735000000000014 435.00000000000006 0.57763538050316476 0.0095550000000000027 0.05556111111111111 0.045050000000000007 0.69615000000000016 0.068200000000000024 0.050300000000000004 14.500000000000002 0.055300000000000009 -0.29488391230979366 0.28867513459481414 0.075650000000000009 0.064700000000000021 0.63125000000000009 0.15505000000000002 0.10890000000000001 0.092700000000000018 0.12060000000000001 449.00000000000006 0.35415000000000002 0.064580000000000012 -0.37718836198263123 0.27920000000000006 0.38040000000000007 0.39207851397273236 0.37620000000000003 0.13070000000000001 0.18020000000000003 0.23900000000000002 0.12015000000000002 7.5000000000000009 0.81665000000000021 0.054562500000000007 0.069350000000000009 0.3015113445777643 0.018636111111111114 1650.0000000000002 0.15520000000000003 515.00000000000011 0.038575000000000005 0.10195000000000001 0.030350000000000005
decision_type=2 2 2 2 2 2 2 2 2 2 2 2 2 2 2 2 2 2 2 2 2 2 2 2 2 2 2 2 2 2 2 2 2 2 2 2 2 2 2 2 2 2 2 2 2 2 2 2 2 2 2 2 2 2 2 2 2 2 2 2 2 2
left_child=2 4 -1 12 6 7 8 21 18 37 -4 13 44 14 26 -10 23 -15 19 30 32 -6 29 -17 40 52 -12 -28 -29 -23 -2 -24 33 -14 -19 -27 -37 -7 -39 57 58 -33 -13 -34 45 -3 -18 -45 -46 -50 51 -22 54 -54 -21 -30 -51 -40 59 61 -61 -11
right_child=1 3 10 -5 5 9 -8 -9 15 24 11 42 20 17 -16 16 46 34 -20 25 50 22 31 -25 -26 35 27 28 55 -31 -32 41 43 -35 -36 36 -38 38 39 -41 -42 -43 -44 47 48 -47 -48 -49 49 56 -52 -53 53 -55 -56 -57 -58 -59 -60 60 -62 -63
leaf_value=-0.021270213777129503 0.041494949630250258 0.056742580725696649 -0.0076160024913345401 0.10799311908979181 0.12344228265472325 -0.0018803323608554648 -0.0099849049010217652 0.1463130127192056 0.094498967299144906 0.048861747282340967 0.0068410258280231714 0.0007872533924279955 0.080392487239323934 -0.0032505220426372926 0.10027140748922647 0.017493318701072343 0.023375095426707841 0.054008004045787525 0.0021127456193211487 0.0073965084970296037 0.11739764046185597 -0.01297261437061013 0.038649235773747966 0.084754355816734642 0.019438714205723163 0.013154027110000464 0.014647911005415921 0.017317718538776675 0.050651827878048915 0.046636283614034546 0.11593344868828301 0.047835672490445909 0.088657321478231327 0.010996497433464482 0.001689019195486711 0.09194813319621517 0.0072098614365105982 0.064025393491053822 0.033834486647630405 0.079495181753006891 0.070271106192990263 0.10709997659597809 0.043326349392101553 0.050501289045266788 0.092964021584022005 0.018596136716857347 0.071706496401042819 0.086593656918462492 0.024542703489214137 0.044800277084579336 0.055464075417059083 0.063404011463687696 0.082220803918467547 0.028236002685499199 0.045474360765955311 0.11360280817357037 0.099577677106337303 0.00086909646314061383 9.8931529541079082e-05 0.0513144740937794 -0.0092497033433996852 0.11546442649133232
leaf_weight=1305.4390033781528 4.2722535133361808 14.816704340279104 61.867867559194565 48.622067295014858 3.0103174000978496 7.1813215911388388 14.040746226906775 3.5289676412940016 5.8510015755891791 7.4899886399507576 8.9884369298815745 92.63855242729187 4.7240131795406324 25.226800642907619 3.7829150483012191 2.8984402269124976 26.798246249556545 7.7796727269887906 20.076195612549782 8.7926136478781753 15.584597207605844 2.7835289984941483 3.7948302105069187 8.8316419422626478 6.6374498456716529 42.824947379529476 9.7672775164246577 2.928234934806822 3.4507248103618622 7.1426891237497347 2.1739526391029358 3.2766560390591666 34.969754725694656 4.6809714734554291 4.145582303404808 3.0166275873780242 3.3167057037353516 6.13477994501591 10.984214492142206 2.0193916186690322 25.61629106849432 9.2721295952796865 3.8529100269079199 15.234997659921648 8.3637263998389262 7.7399582490324965 3.2682140544056884 9.2146104797720891 5.4326233193278304 4.6336906030774099 3.4491516202688208 3.583377592265605 5.8020576462149602 4.648504912853241 9.6709491759538633 3.9861699789762497 4.451043613255024 10.408389203250406 2.5988034605979911 6.6833903491497022 3.5496489629149437 2.9097260162234306
leaf_count=20793 55 172 912 452 34 94 196 39 66 97 129 1333 52 364 50 36 341 109 289 122 162 35 42 102 86 582 138 40 50 89 28 36 370 53 59 40 46 77 141 24 298 98 54 165 95 94 40 98 64 53 36 38 71 61 131 52 50 133 34 85 48 37
internal_value=0.000109995 0.0556349 -0.017152 0.0826063 0.0384157 0.0521261 0.0280516 0.0779128 0.0315856 0.0428072 0.00636973 0.0115852 0.0734582 0.0239118 0.0400171 0.0474643 0.0404941 0.00946418 0.0242659 0.0294796 0.0813504 0.0688633 0.06183 0.0688178 0.0538842 0.0260421 0.0316136 0.0423934 0.0676712 0.0296786 0.0691193 0.0807277 0.0747881 0.0468821 0.0363157 0.0179981 0.0492278 0.0258406 0.0326547 0.0239518 0.0584295 0.0926093 0.0025815 0.0790255 0.0572945 0.0439947 0.0290579 0.0646709 0.0699036 0.0555986 0.100563 0.10803 0.0394514 0.0592302 0.027708 0.0863679 0.0731447 0.0180524 0.0448771 0.0503313 0.0301868 0.0691576
internal_weight=2010.66 476.807 1533.85 185.501 291.306 125.023 166.283 32.8091 152.242 92.2134 228.415 166.547 136.879 70.0558 32.9038 47.6475 41.7965 37.1521 104.595 84.5186 91.4415 29.2802 26.2698 11.7301 55.4853 78.0724 29.1208 20.1324 10.3651 9.92622 6.44621 16.3436 68.8243 9.40498 11.9253 49.1583 6.33333 36.7281 29.5468 23.412 48.8478 12.5488 96.4915 59.4194 45.4377 22.5567 30.0665 24.4496 22.8811 14.5174 22.6171 19.168 28.9141 10.4506 18.4636 7.43689 9.08473 21.3926 23.2316 20.6328 10.233 10.3997
internal_count=29770 5687 24083 1954 3733 1527 2206 373 2010 1154 3290 2378 1502 991 459 585 519 532 1425 1136 974 334 300 138 685 1053 409 280 142 124 83 176 738 105 168 668 86 469 375 298 599 134 1387 633 528 266 381 263 262 167 236 200 385 132 253 102 103 274 301 267 133 134
is_linear=0
shrinkage=0.02


Tree=5
num_leaves=63
num_cat=0
split_feature=38 38 38 3 25 21 21 25 21 40 21 6 38 42 25 40 21 29 38 21 38 27 29 8 34 8 25 38 6 11 34 20 27 28 38 26 34 10 25 21 8 8 25 8 6 25 21 40 29 27 25 37 25 8 10 21 25 20 25 9 24 9
split_gain=2061.99 272.786 226.431 77.9613 38.274 51.2654 32.8782 70.0999 31.5252 30.1988 28.2553 27.062 26.4588 26.3518 24.6782 24.0923 23.2584 23.2507 19.1442 18.0716 17.7577 17.6896 15.8536 22.2729 20.5894 15.4195 15.2797 14.2994 17.247 20.7322 14.0498 13.647 14.296 13.5489 13.3439 13.1564 18.6942 13.8535 12.7996 18.3641 12.1794 13.8114 11.9156 11.3122 20.7785 11.2407 16.0602 11.4336 11.1071 11.0424 10.8735 10.6232 10.4815 11.4475 11.6829 10.4813 11.5627 13.529 12.3752 18.0071 11.8911 19.2829
threshold=0.032787500000000004 0.010675000000000002 0.10480000000000002 2.5000000000000004 0.10585000000000001 0.27430000000000004 0.23220000000000005 0.10135000000000001 0.37620000000000003 0.20938125000000005 0.23220000000000005 1.0000000180025095e-35 0.012139743589743592 1.0443750000000003 0.10890000000000001 0.15681562500000001 0.36415000000000003 8.5000000000000018 0.030350000000000005 0.31845000000000007 0.019492857142857145 0.082850000000000021 13.500000000000002 -0.65465367070797653 7.5000000000000009 0.81919936676133975 0.036250000000000011 0.16160000000000005 -1.5984112325529647 1.5000000000000002 5.5000000000000009 0.061800000000000008 0.073050000000000018 1075.0000000000002 0.017280000000000004 0.18695000000000003 5.5000000000000009 3.5000000000000004 0.091600000000000015 0.35680000000000006 -0.16903085094570178 0.90724022378979829 0.15915000000000004 -0.12661950380987511 -0.36647406100557073 0.048000000000000008 0.12630000000000005 0.083306250000000012 9.5000000000000018 0.22880000000000003 0.077100000000000016 0.055625000000000008 0.13145000000000004 0.33407904921227533 1.5000000000000002 0.15340000000000001 0.060800000000000007 0.076550000000000021 0.06925000000000002 499.00000000000006 0.087350000000000011 499.00000000000006
decision_type=2 2 2 2 2 2 2 2 2 2 2 2 2 2 2 2 2 2 2 2 2 2 2 2 2 2 2 2 2 2 2 2 2 2 2 2 2 2 2 2 2 2 2 2 2 2 2 2 2 2 2 2 2 2 2 2 2 2 2 2 2 2
left_child=1 11 3 4 13 -6 7 20 15 27 -5 -1 -9 19 18 48 34 -7 -8 26 45 25 23 24 -22 31 -2 -10 29 -29 49 -14 -33 -28 43 -11 37 -37 -12 -40 51 -42 -41 44 -16 -3 47 -47 -4 -30 -50 -19 -36 54 -54 -35 -57 58 -58 -60 61 -59
right_child=2 6 8 10 5 17 14 12 9 35 38 -13 21 -15 16 -17 -18 40 -20 -21 22 -23 -24 -25 -26 -27 33 28 30 -31 -32 32 -34 55 52 36 -38 -39 39 42 41 -43 -44 -45 -46 46 -48 -49 50 -51 -52 -53 53 -55 -56 56 57 60 59 -61 -62 -63
leaf_value=-0.010306051400862784 -0.012045543145390037 -0.011640305720633808 0.028616442022214309 0.072844573604508578 0.079425155152556798 0.073911918521904471 -0.0095108810612187424 -0.0073391397689115687 0.030172054448202493 0.11346956507811806 -0.0026442592167699318 -0.018434245408200673 0.060932439463532752 -0.0063320542086698732 0.070017247318708883 0.1056528294101704 -0.0066292174890620597 0.057170175305527156 0.015026893487238293 0.0096083029187931414 0.088854462279649063 0.099314745793452508 0.0037144612419868972 0.012668289053165709 0.0064580250240381188 0 -0.0059208081826029766 0.0089413254288497716 0.10722341125080727 0.051892387427361124 0.039883553057188097 -0.0010232736083298373 0.055474531587672161 0.058451338453074778 0.010310318324301427 0.087275017571299893 0.037301602545914359 0.048431046871705359 0.03096271022212755 0.003054222000951976 0.044864896561732488 0.014551596888123148 0.020414519579623765 -0.006225226875234152 0.0025780291161726708 0.029828069188097051 -0.0012848797171972862 -0.018780973014431226 0.035782678605238212 0.053981704747523618 0.074802706316358047 0.013806066169299637 0.02047451898190818 0.014265913829076387 0.076704965360993166 0.017808023501638563 0.08603195914411671 0.0003939338718148928 0.054682287760605436 -0.0096532899773888198 0.040374491357755268 0.066080368235033257
leaf_weight=209.27775523811579 2.5208852514624587 32.745690606534481 3.3776926547288886 3.2177017778158179 15.562417194247244 7.1273506283760062 183.16236761957407 4.4626120179891613 20.472175486385822 2.7880102023482349 15.988140247762201 800.43780292570591 10.444032095372686 8.0321473926305753 2.2509381696581832 8.7330504208803159 57.683436319231987 2.6286289915442493 13.444072037935255 13.851392619311808 3.459525108337405 2.1553241536021224 34.447114437818527 14.389459997415541 1.9886666089296339 3.5545553714036933 2.733892321586608 6.2616885080933598 4.9289103522896749 18.416007950901985 4.6784876435995093 3.9989031851291648 2.9465290009975433 9.5330341905355436 32.984987504780293 13.497194513678556 8.2504934594035131 6.6200493350625029 25.58453943580389 36.173322170972824 43.428990907967091 7.5481858998537055 28.725932978093624 26.352110810577869 8.1425049602985364 11.501320049166678 89.817169845104218 2.1350771263241759 3.9980165585875538 3.5169548541307449 27.996707305312157 15.461853839457033 3.1665390804409972 8.2013109102845174 3.29988893866539 13.449332207441328 4.1085504516959181 8.830088719725607 9.2172510623931867 1.9939442574977864 21.972743950784206 2.1226613596081725
leaf_count=3241 33 497 36 38 172 81 2794 64 243 27 236 12809 126 113 32 88 854 32 186 189 43 25 488 204 28 49 35 73 48 203 53 55 36 115 476 139 95 72 342 511 528 102 388 401 123 165 1349 33 49 39 295 190 43 119 43 177 51 116 109 26 279 26
internal_value=0.000123172 -0.0105576 0.0387287 0.0290361 0.0367937 0.0461598 0.000677153 0.00673646 0.0604112 0.0532568 0.0155307 -0.0167543 0.0364654 0.0279695 -0.0032162 0.0746201 0.00311754 0.0391835 -0.00780755 0.0310581 0.00239381 0.0450499 0.0120554 0.0262524 0.0602934 0.0386568 0.0348772 0.0443837 0.0518514 0.0412347 0.0708964 0.0463556 0.0231886 0.0365381 0.00981455 0.0694654 0.0644613 0.0750936 0.0136704 0.0165859 0.035404 0.0404909 0.0108138 0.000664138 0.0182564 -0.00144403 0.00176657 0.0218781 0.0664602 0.0867308 0.0702099 0.0206899 0.0167836 0.0308864 0.0507114 0.0382189 0.0349099 0.0395454 0.0554565 0.0429996 0.0318336 0.014115
internal_weight=1999.8 1566.45 433.348 299.813 190.123 91.7574 556.734 218.046 133.535 89.43 109.69 1009.72 27.562 98.3659 338.688 44.1055 142.082 76.195 196.606 90.3338 190.484 23.0993 54.2848 19.8377 5.44819 20.944 76.4824 58.2742 37.802 24.6777 13.1244 17.3895 6.94543 73.9615 84.3983 31.1557 28.3677 20.1172 106.472 90.4838 69.0677 50.9772 64.8993 36.7456 10.3934 136.199 103.454 13.6364 35.3724 8.44587 31.9947 18.0905 47.6527 14.6677 6.46643 71.2276 61.6946 48.2452 15.3197 11.2112 32.9255 10.9528
internal_count=29632 24283 5349 3889 2374 1105 8233 3162 1460 992 1515 16050 355 1269 5071 468 2091 933 2980 1156 2807 291 763 275 71 266 967 659 416 276 140 217 91 934 1237 333 306 211 1477 1241 852 630 899 556 155 2044 1547 198 380 87 344 222 681 205 86 899 784 607 186 135 421 142
is_linear=0
shrinkage=0.02


Tree=6
num_leaves=63
num_cat=0
split_feature=43 43 43 43 43 36 36 40 21 24 20 36 9 6 36 24 36 24 40 24 40 37 26 23 24 20 36 24 21 21 26 29 6 9 24 10 37 24 20 43 24 40 37 38 23 26 11 40 29 7 24 37 9 22 29 37 38 10 42 42 9 21
split_gain=4385.51 503.593 238.267 80.5654 69.1771 52.4037 44.7799 30.1119 39.7831 27.511 34.1355 28.9612 26.2588 27.934 24.373 23.6083 23.0845 21.1143 20.8936 20.8265 19.5094 18.8105 18.7157 18.3555 18.8684 18.5399 18.1123 16.8928 19.4796 16.3375 16.2594 15.9183 15.5214 15.3496 15.1432 14.659 14.4787 13.9948 21.0919 13.5869 13.5432 12.2082 12.1927 22.3743 19.9985 15.0114 16.8347 14.2769 13.2466 13.2021 11.5932 47.4098 15.3403 11.7806 11.9855 11.5655 21.4756 12.3752 13.1153 11.5404 15.7073 11.8232
threshold=0.027780555555555555 0.11110555555555557 0.0087355769230769258 0.29285000000000005 0.050633333333333343 0.21110000000000004 0.34845000000000004 0.091762500000000011 0.24770000000000003 0.08235000000000002 0.076550000000000021 0.21110000000000004 465.00000000000006 -1.2216442315407368 0.70715000000000006 0.087350000000000011 0.52275000000000016 0.17090000000000002 0.045531250000000002 0.098300000000000012 0.060634375000000011 0.14062500000000003 0.1145 0.20720000000000002 0.096550000000000011 0.12310000000000001 0.64585000000000015 0.036200000000000003 0.12250000000000001 0.38040000000000007 0.12770000000000004 13.500000000000002 -0.32194463230829068 453.00000000000006 0.14210000000000003 5.5000000000000009 0.0086150000000000029 0.08235000000000002 0.06430000000000001 0.056353333333333339 0.04105000000000001 0.12499375000000001 0.023033928571428577 0.030350000000000005 0.2647500000000001 0.092800000000000007 3.5000000000000004 0.17125500000000002 13.500000000000002 55.750000000000007 0.089350000000000013 0.012822500000000002 469.00000000000006 0.13770000000000002 16.500000000000004 0.021597500000000002 0.03238333333333334 -4.4999999999999991 0.3625000000000001 0.51250000000000007 473.00000000000006 0.24530000000000005
decision_type=2 2 2 2 2 2 2 2 2 2 2 2 2 2 2 2 2 2 2 2 2 2 2 2 2 2 2 2 2 2 2 2 2 2 2 2 2 2 2 2 2 2 2 2 2 2 2 2 2 2 2 2 2 2 2 2 2 2 2 2 2 2
left_child=2 4 -1 12 5 15 23 22 37 32 11 19 13 17 42 -2 27 31 -14 -11 -5 40 -8 35 39 -26 -19 -7 -29 -15 -17 -3 -4 -27 -32 -6 -18 38 -9 -25 -20 -35 44 -44 -10 -45 48 -48 -47 -49 -30 52 -52 54 -53 -42 -57 -58 -59 61 -61 -60
right_child=1 3 9 20 6 16 7 8 14 10 -12 -13 18 29 -16 30 36 26 21 -21 -22 -23 -24 24 25 33 -28 28 50 -31 34 -33 -34 41 -36 -37 -38 -39 -40 -41 55 -43 43 45 -46 46 47 49 -50 -51 51 53 -54 -55 -56 56 57 58 59 60 -62 -63
leaf_value=-0.021347862626879377 0.029427444277795915 0.033701435270264195 0.011232167276383461 0.043070944830042805 0.090430011091542986 -0.013012392291200499 0.026499154285002515 0.076522018640037839 0.031139179494406647 0.037244018185534661 0.0046794903288370528 0.015161720988246846 0.003062851877153298 0.11680622315797777 0.0079832408564068577 0.085731963101077405 0.029648509536471288 0.1157024803659123 0.011425703868197211 0.11249199458148447 0.089970340003487928 0.041036611321693846 -0.0091782503977295912 -0.00044552135872533974 0.08481323834291607 0.088733669710226226 0.044814382250786412 0.06514937531522863 0.014207856525384454 0.051874392088656796 -0.0020378052925512299 0.067441438873561174 -0.0063504320543576812 -0.0012103497871815956 0.064658138188171774 0.041875129124717796 -0.0053060316743823869 0.10420865259984298 0.007026636814031666 0.041805211912221314 0.096734908151884832 0.046488445280940711 0 0.0827481407447095 0.10715432596172175 0.030809163002471784 0.0059072473664750933 0.0066881620831485099 0.069970189989838436 0.064570672056982414 0.037872376239787432 0.02005262528367522 0.11274453823366455 -0.014231319133780599 0.06457592112122644 0.023593186508961268 0.035357845637128606 0.025452464500096191 0.12338458116168805 0.029252632581223011 0.068691049701303408 0.07473568740637701
leaf_weight=1255.0839837379754 15.858000285923483 9.477514751255514 24.794214852154255 4.4218166321516028 9.9679211229085904 5.1882915496826163 40.708294659852982 6.1280397698283178 3.234317108988761 3.9279240220785168 49.274046160280704 9.6222084537148458 3.0270923376083365 8.7430628985166532 11.235844947397707 7.6539179980754835 5.6997193321585682 5.4912605956196767 2.2292895242571822 2.6802340596914291 74.058271765708923 23.473233975470066 6.6564307287335387 3.8675664365291587 8.4340917989611643 2.3747298642992964 2.530414916574955 4.2191842198371878 46.035870976746082 2.5472614616155616 2.1898704990744591 18.090072833001614 101.54592341929674 3.0361227840185148 3.0852531343698502 4.2193170711398116 24.664950974285603 4.4283820837736121 2.6028672456741333 12.040976002812384 4.7113121449947348 6.2534888684749603 5.5552801936864844 3.4710462018847457 2.7883435040712357 7.0344821363687542 9.1383932679891604 2.6396097019314757 8.5316449925303441 4.4621532186865807 2.1993493884801856 28.508326739072803 3.1176648214459419 3.3519798666238776 2.6314087584614745 5.9392664581537238 6.0757040977478018 3.1958529427647582 3.2783337458968154 5.2664181366562834 33.852213986217976 12.183174185454844
leaf_count=20526 210 100 354 44 112 73 508 69 38 56 710 135 34 85 143 97 81 54 24 35 628 243 87 49 91 26 26 55 631 27 29 187 1522 37 38 47 348 45 31 138 46 69 68 39 31 82 107 31 96 50 29 375 39 46 35 62 62 33 33 54 350 122
internal_value=0.000118746 0.0480852 -0.0181749 0.0708133 0.0319762 0.0222222 0.0408524 0.0340058 0.0422752 0.00256812 0.0130791 0.0381201 0.0620151 0.0748701 0.0348999 0.0465679 0.0165703 0.0653742 0.0560482 0.0700275 0.0874532 0.057612 0.0214089 0.0568226 0.0485871 0.0616791 0.0949412 0.0214065 0.0234408 0.103291 0.0667834 0.0561953 -0.00286691 0.0438332 0.0371268 0.0767881 0.00127042 0.0738476 0.0566104 0.0314385 0.0625536 0.0308097 0.0412445 0.0369052 0.068567 0.0427572 0.0379312 0.0230221 0.0529268 0.0440537 0.021246 0.029226 0.0842117 0.0203353 0.0242024 0.0640173 0.061563 0.0649844 0.0679485 0.0703054 0.06359 0.0863294
internal_weight=1998.73 551.805 1446.93 228.592 323.213 154.404 168.809 118.615 71.2504 191.845 65.5044 16.2304 150.111 46.8796 58.0911 28.787 125.617 35.5893 103.232 6.60816 78.4801 100.205 47.3647 50.1942 36.007 20.0984 8.02168 95.2521 90.0638 11.2903 12.929 27.5676 126.34 11.6643 5.27512 14.1872 30.3647 13.1593 8.73091 15.9085 76.7316 9.28961 46.8553 40.8326 6.02266 35.2773 31.8063 16.2402 15.5661 7.10176 85.8446 39.8087 5.31701 34.4917 31.1397 74.5023 69.791 63.8517 57.776 54.5801 39.1186 15.4615
internal_count=29632 6294 23338 2214 4080 2086 1994 1425 830 2812 936 226 1542 479 685 374 1712 367 1063 91 672 1029 595 569 410 223 80 1283 1210 112 164 287 1876 132 67 159 429 145 100 187 786 106 542 473 69 405 366 188 178 81 1155 524 68 456 410 762 716 654 592 559 404 155
is_linear=0
shrinkage=0.02


Tree=7
num_leaves=63
num_cat=0
split_feature=43 43 43 35 25 20 28 25 24 35 25 24 20 36 36 35 36 8 11 20 27 25 34 38 40 43 11 6 37 37 36 34 10 6 25 26 24 20 22 9 24 24 43 24 42 8 8 6 8 20 20 24 20 34 40 8 43 8 24 20 43 36
split_gain=4119.58 438.371 236.394 99.5011 68.3658 58.4371 47.3061 38.6982 34.5079 31.2941 28.029 26.1648 31.3671 25.9983 24.9847 24.5119 25.6265 23.2617 23.0216 20.8692 43.2175 27.8124 20.2771 18.6968 18.3125 19.1748 19.6048 29.4661 16.7289 16.7075 18.2632 16.0592 15.9988 14.8853 14.7796 15.0851 14.5214 14.2891 15.8977 15.4679 14.5341 21.6193 14.2286 14.1548 14.1399 13.7699 13.2464 13.2088 13.5018 13.1888 13.0863 17.8655 24.0782 12.7 12.6711 13.0319 12.6425 12.5723 12.2133 17.2171 19.6776 24.6701
threshold=0.027780555555555555 0.095238095238095247 0.0087355769230769258 0.46430000000000005 0.09555000000000001 0.12165000000000002 2050.0000000000005 0.038750000000000007 0.12445000000000002 0.70835000000000015 0.13030000000000003 0.08235000000000002 0.076550000000000021 0.29285000000000005 0.69615000000000016 0.19090000000000004 0.36930000000000002 0.089176781997433716 13.500000000000002 0.062400000000000004 0.079800000000000024 0.041600000000000005 6.5000000000000009 0.010009090909090912 0.20938125000000005 0.13960000000000003 1.0000000180025095e-35 -1.5984112325529647 0.0078364285714285723 0.0083200000000000027 0.43650000000000005 7.5000000000000009 2.5000000000000004 -0.32194463230829068 0.11165000000000001 0.15555000000000002 0.037350000000000001 0.040100000000000004 0.049500000000000009 493.00000000000006 0.062800000000000009 0.065400000000000014 0.066663333333333338 0.062100000000000009 0.9437500000000002 0.74215300248127047 -1.2882705448690215 -1.6299857977476866 0.48795003647426732 0.13230000000000003 0.19675000000000001 0.10085000000000001 0.08185000000000002 7.5000000000000009 0.087521875000000013 -0.16903085094570178 0.039481818181818194 -1.1060788282573639 0.091700000000000018 0.095350000000000018 0.07142678571428572 0.42265000000000003
decision_type=2 2 2 2 2 2 2 2 2 2 2 2 2 2 2 2 2 2 2 2 2 2 2 2 2 2 2 2 2 2 2 2 2 2 2 2 2 2 2 2 2 2 2 2 2 2 2 2 2 2 2 2 2 2 2 2 2 2 2 2 2 2
left_child=2 4 -1 7 6 10 8 -3 19 32 29 33 13 23 17 45 -17 42 24 20 21 -2 -10 -13 25 46 27 -27 -25 -6 -31 -12 -5 -4 -14 44 -23 39 43 -38 53 -42 -7 -39 -36 -9 -18 -28 50 -20 51 52 -49 -40 -53 57 -19 -56 -21 60 61 -60
right_child=1 3 11 9 5 14 -8 15 22 -11 31 12 34 -15 -16 16 18 56 49 58 -22 36 -24 28 -26 26 47 -29 -30 30 -32 -33 -34 -35 35 -37 37 38 40 -41 41 -43 -44 -45 -46 -47 -48 48 -50 -51 -52 54 -54 -55 55 -57 -58 -59 59 -61 -62 -63
leaf_value=-0.021317295185984683 -0.0024019321243177647 -0.0092868194029015524 0.010904230312917698 0.084401800922783612 0.093323468245490884 0.0039594030057926652 -0.0147108854054257 0.037424066692329533 0.088780098321046289 0.11070548270413515 0.085047860580569984 0.022037335862717007 -0.0061892550649384082 0.0033271375063158195 -0.0083241159390746462 0.079844958926500134 0.0018657782499922498 0.015499033025761118 0.0446928826352464 0.0024268916438418119 0.097073738585993191 0.0012292855894459364 0.02080668297188492 0.10938828576884171 0.078605623126206461 0.016491339165110273 0.029336503763580463 0.064761872738231849 0.038129819021511281 0.051462946298259302 0.026723854792159617 0.03438568148672777 0.060002338687245478 -0.0062578377511301785 0.014661900110890119 -0.013319262089882704 0.060088177255093821 0.099819368536921957 0.019503656391640759 0.0057998976982977435 0.08932734315882708 0.024070903008307248 0.037263091657188135 0.022385061609212761 0.057510584180463703 0.067910261225722676 0.045992316458210197 0.073216232068202006 0.084909802905287518 -0.013496778946185381 0.022066373759667534 0.11769266500803319 0.01926588317113721 -0.016947746257967407 0.078500612924424326 0.088572576643539611 0.044875838268818323 0.029681384914131127 0.053501064788897365 -0.0027543383242624874 0.083879455788261142 -0.011498187603679513
leaf_weight=1231.9782377667725 13.572051122784613 3.4406584203243247 25.031159542500973 37.906019829213619 2.6198159679770461 17.666787840425972 15.06667575240135 35.286640174686909 4.7259608805179587 14.852781005203722 12.855851732194425 4.4243156239390391 24.901799462735653 6.2617082372307769 7.7273073345422736 25.772040650248528 3.1852108836174038 7.9050904363393775 3.1225487887859336 32.917286112904549 3.2126908078789702 6.8153946921229354 3.1323904916644096 3.2017266154289246 17.979803152382374 9.5333184674382228 4.081476427614688 11.504153713583944 2.8506826236844063 29.154588237404823 22.40114364027977 3.7386755198240271 19.550274662673473 100.99529679864645 15.269595146179205 5.4042179286479941 11.559672974050043 1.9893013760447491 11.958904482424261 2.7524998039007178 2.3677227050065985 13.336104676127432 7.2575540244579306 2.1143461167812347 3.8946142941713324 7.8174951672554007 27.949328817427158 6.7347875535488111 18.021950133144855 2.7611141055822372 3.4393952041864386 3.1222984194755581 7.0236924663186073 5.3757785111665717 3.9881992414593688 8.4615069329738617 30.854809783399105 5.5623024702072152 4.6278101950883883 6.4884308725595465 2.6839159652590743 4.3660184368491173
leaf_count=20526 181 39 354 315 29 227 211 372 58 109 131 61 363 89 102 244 36 106 31 445 40 92 40 40 165 90 39 109 36 333 271 42 166 1522 215 77 147 26 159 36 29 169 83 27 55 80 302 65 163 28 34 28 70 75 35 77 348 51 59 88 32 60
internal_value=0.000111758 0.0454248 -0.0180987 0.0632489 0.0281877 0.0381313 0.0186542 0.0561153 0.0224404 0.0836465 0.0510586 0.0025131 0.0126864 0.0362493 0.0251981 0.0572317 0.0608874 0.0293226 0.0572017 0.0198207 0.026551 0.0231599 0.0629573 0.0553191 0.0589578 0.0556937 0.0609547 0.0433009 0.0780431 0.0437224 0.0408805 0.0742233 0.0763295 -0.00281645 0.00456787 0.0155637 0.029156 0.0327825 0.0258841 0.0500234 0.0209423 0.0348512 0.0139414 0.062824 0.0239041 0.0432388 0.0416044 0.066928 0.0695124 0.0172315 0.0618925 0.0656213 0.0463951 0.00797947 0.0775815 0.0695487 0.0390444 0.0512757 0.00982494 0.0229368 0.037319 0.0219483
internal_weight=1996.55 572.342 1424.21 281.097 291.245 142.182 149.063 208.788 133.996 72.3091 70.7701 192.235 66.2087 16.7384 71.4115 205.347 162.243 63.6842 136.471 126.138 75.0545 71.8418 7.85835 10.4767 130.587 112.608 81.4731 21.0375 6.05241 54.1755 51.5557 16.5945 57.4563 126.026 49.4702 24.5684 58.2697 51.4543 37.1422 14.3122 33.0385 15.7038 24.9243 4.10365 19.1642 43.1041 31.1345 60.4356 56.3541 5.88366 38.3322 34.8928 13.7585 17.3347 21.1343 18.012 38.7599 9.5505 51.0835 18.1662 11.6777 8.99383
internal_count=29632 6294 23338 2648 3646 1672 1974 2058 1763 590 806 2812 936 226 866 2019 1567 764 1323 1665 981 941 98 137 1264 1099 761 199 76 633 604 173 481 1876 710 347 760 668 485 183 432 198 310 53 270 452 338 562 523 59 360 326 135 234 191 163 454 86 684 239 151 119
is_linear=0
shrinkage=0.02


Tree=8
num_leaves=63
num_cat=0
split_feature=43 43 43 35 36 35 24 20 35 40 21 38 36 20 38 40 40 23 35 36 11 43 8 11 43 8 24 8 8 38 22 26 36 20 43 35 22 7 11 6 8 21 24 26 26 40 20 34 24 42 8 40 22 38 42 26 8 9 43 21 40 34
split_gain=3879.76 386.903 228.379 83.8076 44.268 45.7958 36.6221 46.6281 25.3981 24.8907 32.2684 24.3726 28.4587 27.4736 27.7176 26.1227 22.4867 21.9903 20.6436 21.36 20.0103 17.3014 16.5092 15.973 26.8004 15.7018 15.6656 15.4883 21.6457 15.4534 15.2905 15.2329 15.0161 14.4996 17.9511 14.4525 14.047 13.8484 13.5408 13.4427 13.5322 13.3829 41.3477 15.2346 15.7847 13.3317 19.3301 16.5324 13.2858 12.9919 12.8878 16.3774 17.3125 12.8872 12.5494 13.921 14.2856 13.6922 12.4091 12.3559 12.083 12.0429
threshold=0.027776388888888892 0.095238095238095247 0.0087355769230769258 0.46430000000000005 0.34845000000000004 0.31665000000000004 0.089350000000000013 0.09555000000000001 0.70835000000000015 0.12410000000000003 0.36415000000000003 0.0057138095238095247 0.22650000000000003 0.050950000000000002 0.017075000000000003 0.035050000000000005 0.041475000000000005 0.26820000000000005 0.19090000000000004 0.36930000000000002 13.500000000000002 0.04761944444444445 0.94183559002014083 1.0000000180025095e-35 0.12250000000000001 0.1641226857045813 0.038900000000000011 0.41288271688709494 -0.4472135954999571 0.066658333333333347 0.061500000000000006 0.089400000000000021 0.59165000000000012 0.039900000000000012 0.048816666666666675 0.23610000000000003 0.082550000000000026 56.750000000000007 5.5000000000000009 -1.6299857977476866 0.3547939440257199 0.25445000000000001 0.097450000000000023 0.21535000000000001 0.093700000000000019 0.27142406250000006 0.12310000000000001 4.5000000000000009 0.092150000000000024 0.9437500000000002 0.32633196665548431 0.19760000000000003 0.082550000000000026 0.041216666666666672 0.49375000000000008 0.12860000000000002 0.061087592803236043 465.00000000000006 0.033336666666666674 0.32805000000000006 0.12197500000000001 7.5000000000000009
decision_type=2 2 2 2 2 2 2 2 2 2 2 2 2 2 2 2 2 2 2 2 2 2 2 2 2 2 2 2 2 2 2 2 2 2 2 2 2 2 2 2 2 2 2 2 2 2 2 2 2 2 2 2 2 2 2 2 2 2 2 2 2 2
left_child=2 4 -1 16 6 9 17 27 50 26 58 -4 13 15 -15 -13 -3 21 54 -20 23 -2 36 45 -25 -9 -6 28 -8 -27 -17 -30 53 34 -28 -14 -7 -16 -38 -26 41 -41 -43 44 -44 46 -21 -48 -37 -23 51 52 -5 -12 -18 56 -56 -57 -11 -22 -58 -42
right_child=1 3 11 8 5 22 7 25 -10 10 32 12 35 14 37 30 18 -19 19 20 59 49 -24 24 39 29 33 -29 31 -31 -32 -33 -34 -35 -36 48 38 -39 -40 40 61 42 43 -45 -46 -47 47 -49 -50 -51 -52 -53 -54 -55 55 57 60 -59 -60 -61 -62 -63
leaf_value=-0.021287373093180118 0.02238806242080834 0.01348094884958821 -0.0086792822797949181 0.073693211217240123 -0.020744462431864636 0.021873718117558182 0.081652568109112506 0.018910584529408751 0.10093408705588341 0.0096694933941610713 0 -0.019091638977592858 -0.0024268896759283404 -0.00065562851485889727 0.019457027989994914 0.07528729244188101 0.057362407008124089 0.0052254569436405865 0.074112272876371899 0.053601271843822296 0.047148974168111923 0.053332148808612034 0.087932588323658342 0.034187464902403 0.028282132052988133 0.037441044621026959 0.0056031997891000176 0.093341328495235465 0.054839805310803201 0.085502117637717104 0.030191727820242164 -0.011911541529196434 -0.0071526372821412356 0.009301385081441009 0.063453300800524554 -0.0015184290405399184 0.033220021134846518 0.074841413818631089 0.07425729218562277 0.078914249970405775 0.08295967532339521 0 0.025582895064644912 0.027031615819157074 0.07391880556919396 0.081229074442412397 -0.0045112134834960436 0.037454093766609541 0.064665304611649821 0.0018675083223344306 0.08220704982275738 0.084375296634141062 0.037498199645258315 0.035747302312066652 0.023392972465529131 0.053807815903805949 0.039807606091515457 0.0033497687441436655 0.051339409212047771 -0.0089032597950309527 0.087934320298147545 0.048506764829349618
leaf_weight=1209.2639496400952 29.219478271901608 6.0003293454647055 56.4469961412251 9.331020615994932 6.0556281358003607 13.521003685891634 5.6122953742742538 15.975008346140383 15.967207908630369 3.6659191772341755 6.3050768598914209 2.3282074816524974 77.284476760774851 27.789728663861752 5.1960546374320966 6.0305515490472299 13.619202606379984 16.061131127178669 26.827820897102356 17.398579336702824 2.7157735452055922 17.043203540146354 2.9384077638387671 15.057832695543764 4.549865096807479 17.289031334221367 4.2521184757351858 8.9999763369560224 2.6966933310031909 3.3729257807135573 7.175495058298111 2.4334598183631897 9.7672075331211072 83.24949686229229 4.5262423828244209 2.1413689702749243 8.5347065776586515 2.9554716944694519 6.0749346092343322 10.841837309300898 26.609997689723969 5.286385901272296 3.5602867379784646 5.0695338100194922 21.307322695851326 3.4945004582405081 5.6789306923747054 10.142729192972181 2.395134411752224 2.3646704405546179 26.485840432345867 9.8361170515418035 14.976867303252218 11.581800840795038 8.1376882195472771 2.7336925715208045 5.9541484862565976 9.1621174365282041 19.123567380011082 3.2473108991980553 4.0108243897557259 6.2804144844412795
leaf_count=20526 376 65 866 77 83 166 59 194 109 48 80 34 1120 400 71 81 137 204 239 166 26 190 34 161 42 198 59 94 28 35 100 29 125 1086 53 30 103 39 71 97 229 53 32 47 190 30 54 96 31 28 205 74 125 130 83 27 61 95 213 33 39 56
internal_value=0.000104857 0.0428805 -0.0180866 0.0591908 0.0268848 0.0205146 0.0362726 0.0481343 0.0773571 0.0158334 0.0272698 0.00229733 0.0069726 0.0186011 0.00881427 0.0407525 0.052736 0.0258008 0.0538242 0.0570982 0.0537701 0.0324981 0.0426137 0.0553633 0.0597271 0.0343895 0.00988856 0.0730387 0.0547026 0.0459905 0.0516235 0.0231696 0.0124904 0.0119673 0.0363324 -0.000327217 0.0373326 0.0408884 0.0510685 0.064227 0.0662029 0.0584029 0.0516969 0.0607606 0.0673134 0.0433714 0.0389519 0.0223026 0.0337357 0.0472775 0.0708648 0.061658 0.0518817 0.0233532 0.0409877 0.0332058 0.0443083 0.0157199 0.0448742 0.0166644 0.0604916 0.0767218
internal_weight=1993.96 594.948 1399.01 294.284 300.664 179.596 121.068 56.3794 76.5971 148.527 50.4436 189.743 133.296 51.4755 35.9413 15.5343 217.687 64.6885 211.687 168.069 141.241 48.6274 31.0691 135.278 98.5635 36.637 98.0835 19.7424 10.7424 20.662 13.206 5.13015 27.6541 92.0279 8.77836 81.821 28.1306 8.15153 14.6096 83.5056 78.9558 46.0654 35.2235 29.9371 24.8676 36.7147 33.2202 15.8217 4.5365 19.4079 60.6298 34.144 24.3079 17.8869 43.6177 29.9985 18.1027 11.8958 22.7895 5.96308 9.96497 32.8904
internal_count=29632 6334 23298 2648 3686 2251 1435 637 590 1877 596 2772 1906 725 510 215 2058 798 1993 1551 1312 594 374 1253 907 427 1281 210 116 233 181 57 335 1198 112 1181 340 110 174 746 704 419 322 269 222 346 316 150 61 218 481 276 202 210 442 305 183 122 261 59 100 285
is_linear=0
shrinkage=0.02


Tree=9
num_leaves=63
num_cat=0
split_feature=43 43 43 35 25 21 28 25 24 28 25 35 8 20 24 21 25 35 9 37 24 21 23 10 43 9 8 9 8 43 3 8 29 6 38 20 38 24 20 43 25 38 24 20 24 43 10 8 8 10 10 22 29 9 43 37 42 37 8 7 43 9
split_gain=3662.2 340.258 226.62 71.9168 60.0509 52.4501 41.4212 31.7196 28.6338 24.8869 23.7026 21.1218 20.9013 20.4978 24.4153 19.6078 34.0039 18.543 22.3952 17.6064 20.3072 20.4987 17.1102 17.0466 16.8205 17.7794 16.4658 17.4533 15.9691 15.676 31.0097 14.8604 14.5401 14.4364 14.0441 13.9527 12.9733 12.7966 23.1474 15.5211 12.7675 19.5996 12.5202 13.5557 12.4523 13.9786 12.263 12.1279 12.0474 11.4396 12.5743 16.5367 11.1236 10.8177 11.0611 16.0018 16.5648 15.0235 12.9483 13.6358 10.6491 20.5986
threshold=0.027776388888888892 0.095238095238095247 0.0087355769230769258 0.46430000000000005 0.09555000000000001 0.35680000000000006 2050.0000000000005 0.038750000000000007 0.12445000000000002 2050.0000000000005 0.10135000000000001 0.70835000000000015 -0.19999999999999962 0.11055000000000002 0.11610000000000002 0.21805000000000005 0.041600000000000005 0.23610000000000003 431.00000000000006 0.049466666666666673 0.10680000000000002 0.25810000000000005 0.17095000000000002 1.5000000000000002 0.064580000000000012 449.00000000000006 0.57763538050316476 507.00000000000006 0.81238846605344928 0.039481818181818194 6.5000000000000009 1.0682674799889635 11.500000000000002 -1.3799685194920939 0.0063414285714285725 0.044850000000000008 0.018181666666666669 0.045250000000000005 0.040300000000000009 0.016663333333333339 0.12235000000000001 0.019492857142857145 0.083800000000000013 0.095350000000000018 0.089350000000000013 0.05556111111111111 2.5000000000000004 1.3399905493303577 -0.53405042945238923 -1.0000000180025095e-35 -6.4999999999999991 0.080050000000000024 13.500000000000002 495.00000000000006 0.032537222222222224 0.007581666666666668 0.70625000000000016 0.0061366666666666679 0.85552708337934169 54.500000000000007 0.057141428571428579 475.00000000000006
decision_type=2 2 2 2 2 2 2 2 2 2 2 2 2 2 2 2 2 2 2 2 2 2 2 2 2 2 2 2 2 2 2 2 2 2 2 2 2 2 2 2 2 2 2 2 2 2 2 2 2 2 2 2 2 2 2 2 2 2 2 2 2 2
left_child=2 4 -1 7 6 9 8 -3 15 26 31 46 -11 14 35 16 -2 19 -19 48 -21 -22 -18 -23 28 -26 27 40 -7 30 -28 37 -10 -20 -33 -12 -14 -4 39 -39 -6 -42 -17 -44 45 -31 -5 -36 -9 50 -37 -52 -41 54 -24 57 58 -56 59 -57 -43 -62
right_child=1 3 10 11 5 24 -8 17 32 12 13 -13 36 -15 -16 42 22 18 33 20 21 23 53 -25 25 -27 29 -29 -30 44 -32 34 -34 -35 47 49 -38 38 -40 52 41 60 43 -45 -46 -47 -48 -49 -50 -51 51 -53 -54 -55 55 56 -58 -59 -60 -61 61 -63
leaf_value=-0.021258079995182061 -0.0018101881757498694 -0.0093371696858355474 -0.014082429079434281 0.072854471196905163 0.029131850201940326 0.0072631770577252178 -0.013690029505045694 0.033348631860086048 0.010544273142252243 0.035198379066373034 0.062786145587767031 0.092901729682636006 0.048634825502453384 0.00023339569158882149 0.077960969409604217 -0.0015222729300137911 0.05226188143604299 0.096696654616684669 0.058716312041674983 0.025084984563471191 0.094767016068713822 0.054480012608557067 0.0064458877298351792 0.028262410961426059 0.077743639262137607 0.026947864587093896 -0.0059982578146400688 0.0047683516963829622 0.040671857213666826 0.0096576857448032998 0.086574108824180249 -0.00864130845890064 0.071472723261121557 0.043658292561040764 0.06309735774002008 -0.0086862827439554511 0.11326424223543866 0.0015295145270803332 -0.0050440793760306683 0 0.076954517514373488 0.012808674794451913 0.029486274702371987 -0.0019168674079166779 0.083694878446202173 0.066788534494402252 0.05243253916123531 0.003026047643683953 0.075724942208280549 0 0.083997635413104815 0.0059281913926392425 0.044302075109711139 0.0084696602787909733 0.026679674704101902 0.062661227333744879 0.00022950865289293493 0.084950936100036414 0.079439273519157153 0.0198127917986302 0.084514920567362081 0.010542872468336082
leaf_weight=1186.9360713511705 16.126403152942657 3.4522580280899993 32.966518152505159 42.225175864994526 26.318214796483517 34.071373954415321 15.564799852669237 4.4984911754727372 2.3131621256470662 4.339633621275425 2.4492986612021985 17.002536498010159 2.3885918334126455 19.934777520596981 3.2522374764084807 25.794601358473301 11.956599771976469 5.349634811282157 84.671455040574074 27.958781167864799 3.4179488420486441 23.924891822040081 6.9533673524856559 19.101043201982975 3.2407817766070393 20.129176557064056 3.9930879175663021 7.2473397180438033 6.8562017828226081 3.005825161933898 2.0597326159477234 3.4350536204874498 6.2544348314404488 43.434770248830318 3.6251877248287201 1.854855094105005 4.8477881625294685 12.858474895358087 80.018399585038424 2.8822780400514594 7.4992900192737606 5.5652079507708532 15.39971984177828 8.2122584059834463 8.3146275579929334 4.5332070961594582 21.393183350563049 2.2812546715140343 10.415324464440342 11.053752359002823 2.4997973218560281 2.0285294726490974 8.9443040788173658 12.378759674727915 3.5544904097914687 3.8647069856524565 7.0694389641284934 4.3420978933572769 2.4147710725665084 14.205224923789499 3.3832825645804405 2.8881195113062859
leaf_count=20526 211 39 504 315 299 424 215 44 28 42 31 109 26 279 40 344 142 44 706 279 30 226 95 187 32 216 49 81 79 35 24 52 71 403 50 25 46 194 1182 42 80 63 193 110 83 42 166 31 100 154 34 28 126 160 44 46 88 54 29 175 30 30
internal_value=9.88087e-05 0.0407183 -0.0180113 0.0556219 0.0257968 0.0348281 0.0170518 0.0497246 0.0204814 0.0450409 0.00224736 0.0720097 0.0727922 0.0152738 0.0280179 0.0181084 0.0240674 0.050659 0.0555442 0.0432452 0.0390048 0.0472123 0.0303552 0.043049 0.0209877 0.0345703 0.0405694 0.0341902 0.0130609 0.0555013 0.0263516 -0.00156057 0.0558313 0.0536913 0.0226078 0.0191779 0.0937583 -0.00324508 0.000153777 0.0170525 0.0387643 0.051396 0.00801063 0.0184948 0.0660917 0.0450333 0.0661736 0.0410408 0.0636014 0.0123985 0.0333799 0.0509779 0.0334489 0.0253897 0.0302113 0.0347416 0.0270856 0.0600804 0.0361395 0.0295821 0.0341923 0.0519584
internal_weight=1990.95 613.932 1377.02 306.845 307.086 150.681 156.405 226.225 140.84 86.3839 190.085 80.6209 11.576 43.0732 23.1385 132.272 82.8659 222.772 133.456 89.3165 74.4027 46.4439 66.7395 43.0259 64.2975 23.37 74.8079 52.9015 40.9276 21.9065 6.05282 147.011 8.5676 128.106 9.3415 19.8862 7.23638 137.67 104.703 24.6851 45.6541 19.3359 49.4066 23.612 15.8537 7.53903 63.6184 5.90644 14.9138 17.4369 6.38318 4.52833 11.8266 54.7829 42.4041 35.4507 27.5541 7.89659 20.4847 18.0699 11.8366 6.2714
internal_count=29632 6334 23298 2648 3686 1681 2005 2058 1790 930 2772 590 114 591 312 1691 1044 2019 1153 866 722 443 833 413 751 248 816 583 503 233 73 2181 99 1109 133 272 72 2048 1544 362 502 203 647 303 160 77 481 81 144 241 87 62 168 691 531 436 338 98 250 221 123 60
is_linear=0
shrinkage=0.02


Tree=10
num_leaves=63
num_cat=0
split_feature=43 43 43 35 25 21 24 36 8 24 28 35 40 42 36 38 35 36 36 8 9 21 29 35 38 8 24 10 36 24 36 43 9 21 38 26 24 24 25 21 26 9 40 9 6 8 25 10 11 6 9 26 13 24 24 25 42 11 21 24 26 8
split_gain=3457.61 382.732 136.754 85.9016 49.4387 52.379 39.1543 37.0257 33.9502 31.5303 27.69 27.0419 24.8409 28.6593 21.7861 21.472 20.8336 25.6154 20.5588 19.6228 19.1492 19.0308 18.3378 17.809 22.7415 17.7543 17.1335 17.878 16.9625 16.7163 16.6906 15.7294 15.6972 18.9789 17.0719 15.4883 15.412 15.4869 15.1116 21.9935 17.6766 14.2619 14.4851 13.2649 12.2514 14.9282 12.2085 15.9248 12.1772 12.0971 13.0619 12.0756 13.792 14.728 13.0527 11.9571 11.4745 11.3978 11.1474 10.9218 10.8768 10.6522
threshold=0.022098461538461543 0.067420833333333346 0.0087355769230769258 0.29285000000000005 0.09555000000000001 0.35410000000000003 0.042450000000000009 0.56350000000000011 0.60302268915552704 0.10680000000000002 2050.0000000000005 0.70835000000000015 0.25337000000000004 0.9437500000000002 0.37980000000000008 0.0050225000000000009 0.27920000000000006 0.26135000000000003 0.29285000000000005 -0.96500778847837188 477.00000000000006 0.27705000000000007 11.500000000000002 0.35415000000000002 0.0080062500000000012 0.75137433651937624 0.11165000000000001 -8.4999999999999982 0.29285000000000005 0.098300000000000012 0.64585000000000015 0.048816666666666675 453.00000000000006 0.38040000000000007 0.058341666666666674 0.12770000000000004 0.087350000000000011 0.065400000000000014 0.10795000000000002 0.27635000000000004 0.086250000000000007 465.00000000000006 0.052425000000000006 463.00000000000006 -1.3799685194920939 0.4472135954999612 0.16985000000000003 -4.4999999999999991 7.5000000000000009 -0.86780405324941345 473.00000000000006 0.049550000000000004 4.5000000000000009 0.06695000000000001 0.033000000000000008 0.11585000000000002 0.73437500000000011 5.5000000000000009 0.18345000000000003 0.16255000000000003 0.064450000000000021 -0.069421164606923588
decision_type=2 2 2 2 2 2 2 2 2 2 2 2 2 2 2 2 2 2 2 2 2 2 2 2 2 2 2 2 2 2 2 2 2 2 2 2 2 2 2 2 2 2 2 2 2 2 2 2 2 2 2 2 2 2 2 2 2 2 2 2 2 2
left_child=2 4 -1 6 10 16 -3 12 -7 38 14 41 13 32 25 -4 17 19 26 -6 -21 -22 -15 -16 -25 31 27 -17 -10 61 43 51 34 46 -8 -11 37 -27 40 -40 -9 55 -43 -18 -44 -46 47 -34 49 50 -33 54 -53 -54 -2 58 -28 -37 -5 -30 -29 -19
right_child=1 3 15 11 5 8 7 9 28 35 -12 -13 -14 22 23 18 30 29 -20 20 21 -23 -24 24 -26 36 56 60 59 -31 -32 48 33 -35 -36 57 -38 -39 39 -41 -42 42 44 -45 45 -47 -48 -49 -50 -51 -52 52 53 -55 -56 -57 -58 -59 -60 -61 -62 -63
leaf_value=-0.021246711838255505 -0.019116473472307868 -0.005199156637507845 -0.012824156658004663 0.081538542707260117 0.0078576292976235331 0.0021989732997805926 0.045107841143814512 0.020648788950119783 0.069094071545940119 0.063229525510397344 -0.01266369178712729 0.084357975046413639 0.092623801370558353 0.049550718711539911 0.0032005934675293532 0.056951488561666257 0.031825928413519687 0.032361227597283777 -0.0061917695553998968 0.075525356221907855 0.059980999018869732 0 -0.0012661119511805565 0.0077880031400868986 0.087646011303819396 0.04189200552526038 0.0094601278055783666 0.0127295274426713 0.005225541402652743 0.038405476249145122 0.020879676373953448 0.094436661983471532 0.021946627090146994 0.027472191354140172 0.083225001203151461 0.043366269552396947 0.074932031082383069 -0.0081405348283012796 0.072881281303883272 0.015449315837117759 -0.014804480910119521 0.022314817428462686 0.060325228269368952 0.086766277393491506 0.037379610853754394 0.060677490873805279 0.023782039086811993 0.059262475948899225 -0.0036721889777324591 0.021464775752833162 0.030653465427873096 -0.00094296429084355802 -0.00075788647075034782 0.070945500298138772 0.029999211870100906 0.077408487036012413 0.056827488337703638 0.016123152748498445 0.045639508302570228 0.046114216007835086 -0.0067447466378991877 0.0042277574398808856
leaf_weight=1168.0823224782944 2.2843589410185841 7.1779713779687873 37.570716939866543 5.203375160694125 3.8408008664846447 37.110890880227089 9.8565612584352511 15.142963580787184 4.6690931320190421 11.439355492591856 16.06012748926878 16.617642551660538 5.2045297622680655 4.2685747146606428 63.210675083100796 2.648824591189622 2.8110888600349409 7.9214841052889851 39.25626240298152 11.463110320270063 4.6817563101649267 3.6792817786335945 7.6273945719003677 3.9025253355503073 2.2213491424918175 8.9409164339303988 3.7103800326585752 27.758140169084072 6.4435155317187292 19.296790927648544 3.5601977035403243 2.931344546377658 5.6587188616394988 18.121770069003105 11.691123344004152 20.718221411108974 3.9641160815954199 3.2132048532366744 4.011455386877059 8.2732984721660596 8.6748745217919332 6.4887284189462653 69.324060074985027 7.8920205757021904 31.623635292053223 19.410902366042137 6.2486198917031279 44.385089680552483 2.3658215701580039 5.3674935251474372 2.8834928423166275 27.916611537337303 2.0535492449998847 2.2218402624130249 17.580309994518757 23.764166317880154 5.1823310256004333 9.6507794782519323 16.662438735365868 4.5358327925205231 19.139048617333174 17.280286177992821
leaf_count=20580 32 76 589 46 43 464 92 158 52 104 226 100 44 40 871 37 31 92 582 116 46 43 77 50 26 113 52 395 76 219 39 30 53 167 100 198 43 41 33 84 96 60 507 80 285 171 54 411 28 64 33 369 28 28 225 182 65 95 140 51 283 202
internal_value=0.000117086 0.0363319 -0.0190424 0.0495004 0.0194371 0.028444 0.0401865 0.0419108 0.0127472 0.0310827 0.0121142 0.0592049 0.0492948 0.0470505 0.0147783 0 0.0384134 0.0335743 0.00493743 0.0505069 0.0584987 0.0338827 0.0171092 0.00645024 0.0386365 0.0217826 0.0124614 0.00773814 0.0373144 0.0243627 0.0607413 0.0170127 0.0506985 0.045999 0.0663597 0.0429422 0.0406767 0.028483 0.0171453 0.0350973 0.00759908 0.0566929 0.0529363 0.0732523 0.0545325 0.0464514 0.0518212 0.0551809 0.0362218 0.0448637 0.0648767 0.0118662 0.00414741 0.0369688 0.0241003 0.0668628 0.0378805 0.0349289 0.054816 0.022781 0.00472202 0.0133282
internal_weight=1992.9 689.55 1303.35 387.246 302.304 135.186 198.151 190.973 52.7593 77.9109 167.118 189.095 113.062 107.858 151.058 135.266 82.4268 68.1635 97.695 23.6649 19.8241 8.36104 11.896 69.3345 6.12387 81.7231 58.4387 49.546 15.6484 44.4986 14.2633 65.6048 95.9619 74.4142 21.5477 41.8084 16.1182 12.1541 36.1026 12.2848 23.8178 172.477 126.847 10.7031 120.359 51.0345 56.2924 50.0438 13.5482 11.1823 5.81484 52.0567 32.192 4.27539 19.8647 45.63 8.89271 30.369 21.8658 10.9793 46.8972 25.2018
internal_count=29717 7134 22583 3373 3761 1554 1882 1806 643 768 2207 1491 1038 994 1981 2003 911 761 1414 248 205 89 117 947 76 1034 832 715 179 513 150 837 877 685 192 397 197 154 371 117 254 1391 1023 111 963 456 518 464 155 127 63 682 425 56 257 368 117 293 186 127 678 294
is_linear=0
shrinkage=0.02


Tree=11
num_leaves=63
num_cat=0
split_feature=43 43 43 35 25 21 25 28 8 28 28 25 38 24 27 23 43 42 24 35 26 36 26 21 9 35 10 24 10 21 36 38 27 27 36 43 29 24 10 9 11 35 35 38 6 27 43 36 8 38 8 10 36 40 24 26 40 36 10 43 35 11
split_gain=3284.11 342.306 136.113 77.1754 45.365 47.3155 41.7531 38.8511 31.341 30.2705 26.3177 22.5049 20.7739 20.5773 31.431 23.977 22.0428 19.6976 24.8287 22.6234 19.6009 19.5791 18.8455 18.4839 22.3506 16.5235 16.3586 15.7171 16.2657 15.2593 14.6773 14.2057 14.1759 13.6943 13.1724 19.2755 12.88 16.1606 14.4572 17.717 12.8651 12.2926 12.1367 11.8809 25.7705 11.5494 13.7529 21.2803 11.0818 11.0735 11.0464 11.0959 11.044 10.4697 14.7999 10.3557 10.2216 10.2523 12.9211 10.2167 10.0878 9.91285
threshold=0.022098461538461543 0.067420833333333346 0.0087355769230769258 0.46430000000000005 0.09555000000000001 0.35410000000000003 0.097450000000000023 2050.0000000000005 0.60302268915552704 2760.0000000000005 2050.0000000000005 0.038750000000000007 0.0050225000000000009 0.089150000000000021 0.05680000000000001 0.19905000000000003 0.054562500000000007 0.51250000000000007 0.11065000000000001 0.23610000000000003 0.12685000000000005 0.29285000000000005 0.11245000000000001 0.27635000000000004 465.00000000000006 0.19090000000000004 9.5000000000000018 0.11165000000000001 -8.4999999999999982 0.18345000000000003 0.29285000000000005 0.12990000000000004 0.10085000000000001 0.11565000000000002 0.56350000000000011 0.10714642857142857 11.500000000000002 0.045700000000000011 -1.0000000180025095e-35 455.00000000000006 5.5000000000000009 0.27920000000000006 0.90000000000000013 0.032787500000000004 -1.0069447770645308 0.10250000000000002 0.030530000000000005 0.39230000000000004 -1.1547005383792526 0.053225000000000001 0.54932029659931569 1.5000000000000002 0.31665000000000004 0.050518750000000008 0.057800000000000011 0.064450000000000021 0.068925000000000014 0.27920000000000006 -1.0000000180025095e-35 0.041232142857142863 0.16025000000000003 2.5000000000000004
decision_type=2 2 2 2 2 2 2 2 2 2 2 2 2 2 2 2 2 2 2 2 2 2 2 2 2 2 2 2 2 2 2 2 2 2 2 2 2 2 2 2 2 2 2 2 2 2 2 2 2 2 2 2 2 2 2 2 2 2 2 2 2 2
left_child=2 4 -1 6 10 17 7 11 -7 23 13 -3 -4 15 -15 16 36 29 41 22 25 27 52 40 31 32 34 28 -14 -6 -10 60 49 -29 -27 -36 -2 -38 39 -39 -8 48 61 -26 -45 46 -16 -48 -19 -13 51 -43 -20 54 -40 -30 59 58 -58 -17 -25 -5
right_child=1 3 12 42 5 8 9 -9 30 -11 -12 20 21 14 45 56 -18 18 19 -21 -22 -23 -24 24 43 26 -28 33 55 -31 -32 -33 -34 -35 35 -37 37 38 53 -41 -42 50 -44 44 -46 -47 47 -49 -50 -51 -52 -53 -54 -55 -56 -57 57 -59 -60 -61 -62 -63
leaf_value=-0.021218930067399003 -0.008731223094614696 -0.0030896351062458371 -0.012709539424096561 0.068431311335165529 0.061567249497708407 0.0021512577300831733 0.068784041977865182 -0.0036548480363377167 0.064229250695198484 0.088569464971494358 -0.012546491497648469 0.0071534436068464548 0.053384446351880277 0.072019126667783165 0.0027273988326646566 -0.0083032765001821249 0.056651952568920534 -0.0041850003071463339 0.09369436902614936 0.097967117139919929 0.0082319920679425826 -0.0061007974168179489 0.01610133377992648 0.013128965532909147 0.0044424756700579358 0.060601048522378166 0.011563577638575698 0.055538207966523617 0.012342254588168927 0.016504352701474684 0.021950080139032706 0.069537639829434936 0.070542895794548949 0.004682370354439057 0.0072076176126370439 0.048487619576691079 -0.00020789577952917918 0.012631646761732519 0.079549484189471428 0.088412523863380846 0.041581602964781958 0.0062643917710863599 0.08623377904983949 0.03649004707772404 0.077035203832225854 0.00012142976752274941 0.064917819953271255 0.014722576289687117 0.032514135436876528 0.035167532526333624 0.090359880302934834 0.064235011356179636 0.036052561296884521 0.0055092229760188658 0.0079965397643810207 -0.0066491660860596782 0.074775740484275904 0.0060571670894939422 0.014994122362108651 0.0091439095437001669 0.049946195578209826 0.052598836987418442
leaf_weight=1146.436956834048 6.4612647593021384 5.4091989174485198 37.156880214810371 38.14493965357542 3.4058165028691318 37.177984014153481 22.974016115069389 10.796798400580881 4.9308459460735348 7.1447480767965308 15.889076832681893 11.367488510906702 2.7779512181878081 5.359435871243476 6.3852403014898362 31.662959881126881 6.4347939714789382 3.5247094631195095 3.4492980465292948 5.4632386043667784 8.2683572173118574 39.049141023308039 5.0539149418473244 3.7525372952222851 4.3297429904341689 26.863559365272522 5.1002117767930022 5.5224305242300016 28.058164045214653 24.548444986343384 11.17580573260784 17.66543123871088 2.6456956714391699 3.6456154137849808 5.9909358024597195 21.888130478560925 8.4694831073284167 2.1700271442532566 2.2173333615064603 3.2952195554971695 12.435986168682573 2.6496387571096403 9.8393767625093442 101.2828288897872 6.8559189587831488 8.9671926125884038 6.500562518835066 7.4990561157464981 28.304234333336353 11.942096352577208 2.6832141727209091 2.848373644053936 2.9368797987699509 7.8842566087841988 2.5381018444895744 19.029157165437937 2.1280988082289696 17.096612572669983 4.7424314543604877 23.02382280677557 26.633716657757759 39.389040619134903
leaf_count=20580 87 61 589 260 32 464 176 115 52 53 226 122 37 58 86 442 70 40 32 48 82 582 55 35 46 239 49 67 395 270 127 138 27 50 70 189 113 27 28 41 98 28 56 870 63 118 71 96 317 114 27 29 33 101 33 283 27 230 62 291 229 281
internal_value=0.00011124 0.0346934 -0.0189807 0.0468704 0.0187678 0.0272805 0.0421639 0.032082 0.0123748 0.0475961 0.0117617 0.0359905 0 0.0143183 0.0278838 0.0102763 0.0229808 0.0365655 0.0433931 0.0639891 0.038271 0.00482119 0.046446 0.0460201 0.0429683 0.0411115 0.0469989 0.0120937 0.00753638 0.0224006 0.0355511 0.0546417 0.0272303 0.0360386 0.0502051 0.03981 0.0161054 0.0222715 0.032867 0.0599985 0.0595306 0.0344106 0.0636139 0.037888 0.0391914 0.0193981 0.027669 0.0386833 0.0283557 0.0217667 0.056672 0.0377369 0.0690807 0.020335 0.0433836 0.0046071 0.00383125 0.0146854 0.0351404 -0.000898165 0.0455845 0.0605438
internal_weight=1989.27 707.598 1281.68 400.721 306.877 138.152 313.347 110.272 53.2846 203.075 168.725 99.4757 135.239 152.836 34.7115 118.124 39.4705 84.8678 56.9135 16.9033 94.0665 98.0825 11.4401 195.93 160.52 85.7981 59.8428 59.0333 49.8653 27.9543 16.1067 48.0517 25.9553 9.16805 54.7426 27.8791 33.0357 26.5744 18.1049 5.46525 35.41 40.0102 87.3734 112.468 108.139 29.3521 20.3849 13.9996 31.8289 23.3096 8.18123 5.49801 6.38618 12.6397 4.75544 47.0873 78.6539 23.9671 6.87053 54.6868 30.3863 77.534
internal_count=29717 7134 22583 3373 3761 1554 2776 1068 643 1708 2207 953 2003 1981 429 1552 500 911 609 168 892 1414 120 1655 1381 810 547 832 715 302 179 402 263 117 498 259 430 343 230 68 274 441 597 979 933 371 253 167 357 236 84 57 65 162 61 678 1052 319 89 733 264 541
is_linear=0
shrinkage=0.02


Tree=12
num_leaves=63
num_cat=0
split_feature=43 43 43 35 36 35 24 36 40 8 24 8 24 38 35 38 40 9 36 21 20 21 36 21 27 26 24 38 13 20 27 10 40 36 20 29 38 21 40 24 21 13 21 36 8 8 38 11 8 21 34 8 13 24 43 22 21 38 40 9 24 21
split_gain=3124.18 307.546 135.472 69.0769 36.7485 41.269 33.5693 31.025 28.5907 27.4928 26.7437 23.9643 23.4875 21.6165 21.492 20.0986 19.7506 20.2401 18.6527 17.7157 16.7095 16.6363 21.6434 15.5423 14.4503 14.2944 21.9498 14.1778 14.1356 14.2025 23.6685 13.9016 15.1509 13.7442 19.0051 16.6533 19.4514 13.4615 17.2033 13.1955 14.0197 13.0664 12.9196 12.8578 16.4857 15.5136 17.7689 14.6096 12.1927 12.1277 11.9797 11.7323 25.5841 11.7073 12.8253 17.1334 19.1035 12.1187 11.3371 10.906 10.3923 9.90041
threshold=0.022098461538461543 0.067420833333333346 0.0087355769230769258 0.29285000000000005 0.26135000000000003 0.27920000000000006 0.042450000000000009 0.56350000000000011 0.058762500000000009 0.54258694102170624 0.10680000000000002 0.36944255420764277 0.083050000000000013 0.011027884615384618 0.70835000000000015 0.0050225000000000009 0.25337000000000004 453.00000000000006 0.29285000000000005 0.11590000000000002 0.11125000000000002 0.28110000000000007 0.19090000000000004 0.32560000000000006 0.10085000000000001 0.083900000000000016 0.11165000000000001 0.058341666666666674 4.5000000000000009 0.11055000000000002 0.08475000000000002 3.5000000000000004 0.045193750000000005 0.42265000000000003 0.061800000000000008 15.500000000000002 0.016226785714285718 0.27790000000000009 0.096137500000000015 0.11165000000000001 0.19125000000000003 3.5000000000000004 0.32185000000000002 0.81665000000000021 0.42645879870616593 0.6750188404231442 0.084500000000000006 1.5000000000000002 -1.3603139210898563 0.16945000000000002 5.5000000000000009 0.2939210279768964 3.5000000000000004 0.08135000000000002 0.039481818181818194 0.080650000000000013 0.34335000000000004 0.014963333333333335 0.034343750000000013 457.00000000000006 0.057950000000000008 0.21540000000000004
decision_type=2 2 2 2 2 2 2 2 2 2 2 2 2 2 2 2 2 2 2 2 2 2 2 2 2 2 2 2 2 2 2 2 2 2 2 2 2 2 2 2 2 2 2 2 2 2 2 2 2 2 2 2 2 2 2 2 2 2 2 2 2 2
left_child=2 4 -1 6 11 13 -3 16 -7 23 37 25 -13 -6 43 -4 17 27 19 -17 24 -14 -23 -10 50 26 31 -8 29 30 -12 32 -2 34 35 36 -15 38 49 40 58 -37 -41 44 -5 46 -45 -48 -27 -9 -19 -22 -53 57 -55 56 -56 -36 -21 -33 -46 -34
right_child=1 3 15 14 5 8 7 10 9 -11 28 12 21 33 -16 18 -18 20 -20 39 51 22 -24 -25 -26 48 -28 -29 -30 -31 -32 59 61 -35 53 41 -38 -39 -40 42 -42 -43 -44 45 60 -47 47 -49 -50 -51 -52 52 -54 54 55 -57 -58 -59 -60 -61 -62 -63
leaf_value=-0.021191735320721727 -0.0016622174278673242 -0.0054419807998307554 -0.012594957506149704 0.047964904977230258 -0.0047698600900749491 0.0038409505209340191 0.040676090465032372 0.040120489065581896 0.035917160890836235 0.070057674810497322 0.022245774373738439 0.023617011370606622 0.079384595363473254 -0.015016888193400612 0.074357653949232438 0.052398990434603707 0.081186273223895683 0.05960820879345783 -0.0060107240255802838 -0.019489052031832245 0.014901345864105868 0.075906604952193035 0.021532843419654581 -0.0038736468702400416 0.073296037828633601 0.043888796359578139 0.080972772070968771 0.073763056042162753 0.079894138817864391 0.028751433140684457 0.090180216823601264 0.036197511151974344 0.051928967375846506 0.0071300438015394355 0.022156973472594869 0.082517018436716147 0.044735991882170811 0.0016547815545709284 0.049361732847248485 0.049794342007131273 -0.0053288015993715908 0.022297343447849467 3.7397675930128629e-05 0.026808424342361345 0.032078789644045383 0.014447113159316596 0.032765266795590227 0.071232776537633102 -0.0019311902499040952 -0.00072044737750110387 0.034092298845050231 0.050423073651507694 0.0074331715271340314 0.00622949958329185 0.075879459818821063 0.010862423094458904 0.018351081995902432 -0.021164075641540027 0.022516117391586619 -0.01424440468313801 0.065469056711527612 0.014027798837768318
leaf_weight=1125.1637605316937 4.113771855831156 7.2624010369181624 36.750486426055431 90.354860477149487 34.41411442682147 12.25824762880802 10.82357954978943 3.9879140108823803 21.452819049358371 8.9140001162886602 4.2139163985848409 18.221788287162781 7.6510623171925571 3.6219182312488538 18.128111273050308 3.8835124149918547 5.762413151562213 10.932560570538042 38.845935825258493 2.8014187514781979 16.804090365767479 4.5341347604989997 8.9523991346359235 4.6030983440577975 7.0828643664717665 2.5742145925760296 2.7323397025465956 12.989133633673189 3.1506449505686751 32.727419272065163 4.4295075237751007 2.2465680763125402 10.084600195288656 78.90375092625618 3.9429557770490629 4.424154929816722 4.9175910353660583 16.378452621400356 7.832441233098506 5.4199195951223356 26.050229597836733 2.5460477396845818 3.5330500602722168 12.597979538142679 4.9049991816282263 8.1388330608606321 6.8173138424754169 12.768266178667544 15.067367777228354 9.3090269789099676 30.303334578871727 17.74735959619284 8.3566938862204534 18.332833923399448 4.9313634410500544 10.122598946094511 4.7744873315095901 6.7506671547889709 17.923792567104101 5.873942106962204 49.831917002797127 4.2980328127741805
leaf_count=20580 53 76 589 695 477 154 95 39 238 92 34 219 70 45 100 49 44 90 582 41 156 49 95 56 58 29 24 101 27 299 37 25 112 1000 51 47 54 168 67 65 383 28 48 105 41 59 45 83 183 97 275 147 72 233 51 114 52 82 246 75 363 53
internal_value=0.000106152 0.0331863 -0.018919 0.0444909 0.0181397 0.0138402 0.0363441 0.0378579 0.0304605 0.0396499 0.0281654 0.0292602 0.0408442 0.00938365 0.0528522 0 0.0443716 0.0423982 0.00470816 0.0117408 0.0378902 0.055283 0.040667 0.0287912 0.0461117 0.0193948 0.0279368 0.059198 0.0386832 0.0351952 0.0583458 0.0219571 0.0314689 0.0128058 0.0196843 0.0389932 0.0192256 0.0154969 0.0259983 0.00872079 0.00434339 0.0618747 0.0308128 0.0506751 0.0535761 0.0400024 0.0462752 0.0583459 0.00489978 0.0116161 0.0411212 0.0284339 0.0368961 0.0133927 0.0185759 0.0297083 0.0485946 -0.00482853 0.0165953 0 0.0626274 0.0410709
internal_weight=1985.27 724.897 1260.37 413.636 311.261 224.911 210.094 202.831 47.2282 34.9699 82.0293 86.3502 39.3594 177.682 203.542 135.208 120.802 115.04 98.4579 59.6119 91.2269 21.1376 13.4865 26.0559 48.3188 46.9908 29.3493 23.8127 44.5215 41.3708 8.64342 26.6169 18.4964 143.268 64.3646 15.5097 8.53951 37.5078 21.1294 55.7284 46.7754 6.9702 8.95297 185.414 145.092 40.3224 32.1836 19.5856 17.6416 13.2969 41.2359 42.9081 26.1041 48.8549 38.1613 19.8284 9.70585 10.6936 20.7252 8.12051 54.7369 14.3826
internal_count=29717 7134 22583 3373 3761 2774 1882 1806 540 386 768 987 433 2234 1491 2003 1038 994 1414 832 798 214 144 294 423 554 342 196 397 370 71 318 218 1757 757 174 99 371 203 783 670 75 113 1391 1099 292 233 128 212 136 365 375 219 583 450 217 103 133 287 100 404 165
is_linear=0
shrinkage=0.02


Tree=13
num_leaves=63
num_cat=0
split_feature=43 43 43 35 25 20 25 28 28 24 21 20 25 8 24 20 35 36 34 20 27 25 38 12 36 36 40 38 6 42 36 25 43 8 21 22 38 29 11 38 8 20 12 43 25 22 24 36 43 8 8 24 38 40 20 24 28 11 42 35 24 42
split_gain=2978.36 305.188 102.567 66.3428 41.0058 41.6999 38.1581 42.9288 25.7182 24.9203 24.2544 21.8811 23.3631 21.3126 19.2222 34.8661 19.1363 21.5253 18.4478 18.2881 28.5495 19.5963 16.578 16.5563 15.841 15.5746 15.4215 15.39 29.1849 14.7477 13.657 13.6517 13.5339 12.794 12.7596 12.7236 12.6589 12.4021 12.382 12.3218 11.9598 12.6229 11.818 17.3921 11.5894 11.5616 12.6717 11.4876 13.1905 12.0953 10.7881 10.177 11.7616 20.0461 10.0663 12.876 10.0616 10.9012 9.96299 9.88654 9.81951 11.8587
threshold=0.020410714285714289 0.066663333333333338 0.0087355769230769258 0.46430000000000005 0.09555000000000001 0.11280000000000001 0.096700000000000022 2050.0000000000005 2150.0000000000005 0.11065000000000001 0.27635000000000004 0.11920000000000001 0.038750000000000007 0.86375239460885989 0.089350000000000013 0.054300000000000008 0.27920000000000006 0.37980000000000008 4.5000000000000009 0.062200000000000012 0.077700000000000005 0.039800000000000009 0.01025192307692308 0.3000000000000001 0.21110000000000004 0.44945000000000007 0.24135312500000003 0.032787500000000004 -1.0069447770645308 0.51250000000000007 0.26135000000000003 0.10585000000000001 0.12916666666666668 0.80522155180509936 0.25135000000000002 0.12575000000000003 0.12990000000000004 15.500000000000002 1.5000000000000002 0.048575000000000007 0.58528757149280863 0.12795000000000004 0.10000000000000002 0.036698484848484862 0.12060000000000001 0.046900000000000004 0.036200000000000003 0.6795000000000001 0.033336666666666674 -0.069421164606923588 0.5574710085051785 0.099250000000000019 0.024363095238095243 0.054087500000000004 0.05050000000000001 0.13070000000000001 2300.0000000000005 5.5000000000000009 0.73437500000000011 0.77500000000000013 0.042450000000000009 0.58750000000000024
decision_type=2 2 2 2 2 2 2 2 2 2 2 2 2 2 2 2 2 2 2 2 2 2 2 2 2 2 2 2 2 2 2 2 2 2 2 2 2 2 2 2 2 2 2 2 2 2 2 2 2 2 2 2 2 2 2 2 2 2 2 2 2 2
left_child=2 4 -1 6 8 9 7 11 14 16 56 12 -3 35 19 -16 17 31 -14 20 21 -2 -4 36 54 34 27 -25 40 -11 -22 -6 51 42 60 47 -12 -35 -34 -36 -29 -42 43 -17 -15 58 -47 48 -7 -50 -18 52 53 -27 -24 -56 57 -8 -23 -5 -20 -62
right_child=1 3 22 59 5 13 10 -9 -10 29 23 -13 18 44 15 33 50 -19 25 -21 30 45 24 26 -26 32 -28 28 -30 -31 -32 -33 38 37 39 -37 -38 -39 -40 -41 41 -43 -44 -45 -46 46 -48 -49 49 -51 -52 -53 -54 -55 55 -57 -58 -59 -60 -61 61 -63
leaf_value=-0.021165113242404613 -0.0086796204825891031 -0.0040382148192587095 -0.005530673885145684 0.054019505051689835 0.012778091165798157 -0.0018201786505783529 0.059489731522275047 -0.008088073350829594 -0.016722148747779216 0.021730943648675338 0.041053890367129545 -0.00050268217666765507 0.056880130030408378 0.00024702506857190374 0.070043153821084558 0.0028911265549954701 0.038956517864509155 0.0074287286462744861 0.018892291082091402 -0.0037313349338368267 0.095348004606316664 0.022236194937504047 0.067505671344094242 -0.0015298872038356968 0 -0.019905045387418333 0.054148441055107889 0.025677880467085634 0.070480955482651805 0.068949051391986038 0.024009195272367105 0.044300716698673366 0.008258218408490477 0.01352718395745795 0.0029665485772578555 -0.014271643933341101 0.062403031392135259 0.07907261362338254 0.042918978930925319 0.044723752667502781 0.057506241631220895 0.030761557903333087 0.0012120613638200157 0.067112140941043633 0.050352642990282671 -0.014682992816556309 0.014539679778107099 -0.02022699395201866 0.0050437536748370749 0.030941549104625141 0.088352892859567045 0.036198403619102454 -0.009039226974668798 0.046930814130618233 0.0051723965218286932 0.062536970705586614 0.079086443425410241 0.035003562698268702 0.068589075266900931 0.075129100872820404 0.077340965444063908 0.041749212696200022
leaf_weight=1104.2575261965394 17.162404656410217 5.6824171766638747 86.573814872652292 81.698796957731247 8.414654344320299 13.165998034179209 24.232059501111507 11.369252540171145 13.277772441506384 3.9184875562787047 35.183217100799084 7.3491929396986952 16.310001760721207 2.5378790646791449 5.6739030480384818 3.9060864374041619 7.3118598088622075 20.789200879633427 3.2228618338704136 35.706145688891411 2.2322077304124823 8.4296166375279409 2.2933097928762463 4.9213048443198195 16.640493251383305 2.5633867457509103 15.742972932755945 65.535123392939568 8.1756061762571317 11.557845152914522 2.4649128168821335 18.657961949706078 5.5702396705746677 2.6613451540470114 5.3424721881747228 8.4831062704324705 19.269963689148426 2.2193224877119064 20.01544626057148 6.3319047540426254 12.138274960219858 20.832842543721199 18.00102811306715 2.9854738339781761 8.0867360159754735 6.4183065034449092 55.780093166977167 3.8769482523202887 11.659029826521865 20.489973612129695 2.7213967218995094 5.9767927080392829 9.32369716465473 5.0426493808627129 6.5338897183537465 1.9841452315449712 7.3805185034871092 12.756717704236506 2.5041058324277392 12.19590289890766 8.3937257304787654 9.092014513909815
leaf_count=20580 236 63 1333 534 95 174 173 121 190 40 289 74 138 29 56 52 72 240 31 488 25 102 23 51 236 29 118 554 70 103 31 189 47 32 54 106 139 25 162 54 92 167 229 34 84 89 710 52 138 222 24 60 101 54 88 25 50 95 32 64 70 79
internal_value=0.000101202 0.0310919 -0.0193004 0.041882 0.0162285 0.0242837 0.0377934 0.0286098 0.00983649 0.0347686 0.0426949 0.0324283 0.0348075 0.0129248 0.0119902 0.025071 0.0285051 0.0229985 0.0371123 0.00839486 0.0129832 0.0103856 -0.00121175 0.0393287 0.012256 0.0329908 0.0351963 0.0324269 0.0340214 0.0575091 0.0604319 0.0347375 0.0255241 0.0160923 0.0439104 0.00801202 0.0488146 0.0453972 0.0355817 0.0261484 0.0308624 0.040914 0.00998919 0.0319752 0.0388325 0.0149093 0.011448 0.0119473 0.0148236 0.0217095 0.0537534 0.0140017 0.00574074 0.0240697 0.0309243 0.0197317 0.0562413 0.0513012 0.0339074 0.0569088 0.0535198 0.059517
internal_weight=1981.03 762.743 1218.28 441.649 321.094 141.671 347.755 121.586 179.423 73.3714 226.169 110.217 102.868 68.2997 166.145 35.4472 57.8951 47.8618 97.1852 130.698 94.9916 90.2945 114.026 181.799 27.4518 80.8752 127.346 111.603 106.682 15.4763 4.69712 27.0726 48.4922 29.7733 32.383 57.6751 54.4532 4.88067 25.5857 11.6744 98.5062 32.9711 24.8926 6.89156 10.6246 73.1321 62.1984 49.1919 45.315 32.149 10.0333 22.9065 16.9297 7.60604 10.8113 8.51803 44.3693 36.9888 10.9337 93.8947 20.7086 17.4857
internal_count=29717 7432 22285 3533 3899 1568 2935 1137 2331 763 1798 1016 942 805 2141 428 620 524 879 1713 1225 1169 1705 1480 372 741 1052 934 883 143 56 284 453 372 288 692 428 57 209 108 813 259 315 86 113 933 799 586 534 360 96 244 184 83 136 113 318 268 134 598 180 149
is_linear=0
shrinkage=0.02


Tree=14
num_leaves=63
num_cat=0
split_feature=43 43 43 35 25 20 35 24 40 36 24 42 36 25 36 25 20 35 20 27 20 24 9 38 20 25 27 24 11 40 43 43 36 36 9 10 36 43 23 43 27 38 9 40 11 42 38 38 38 9 24 20 40 38 6 40 25 23 9 25 9 36
split_gain=2842.8 277.165 102.256 60.5335 37.9731 31.955 29.8251 28.9626 26.802 22.2697 23.9779 23.378 20.2445 19.576 19.0075 18.9941 18.3385 18.0765 16.3968 19.1521 16.3227 32.6473 16.0621 15.886 14.8976 14.1209 13.5926 13.3583 12.8916 12.7661 12.1001 11.3563 11.6699 11.2618 11.2069 12.6152 11.1485 11.0348 10.8054 12.9183 9.8251 9.338 11.6551 9.13304 9.04393 9.02684 9.0684 12.083 9.16026 8.94065 8.87606 20.5881 11.9971 12.9019 9.44295 8.69159 8.67671 8.58832 10.5843 8.55687 8.45531 9.76423
threshold=0.020410714285714289 0.066663333333333338 0.0087355769230769258 0.29285000000000005 0.081800000000000025 0.11280000000000001 0.27920000000000006 0.11165000000000001 0.21397500000000003 0.57735000000000014 0.039550000000000009 0.9437500000000002 0.37980000000000008 0.087450000000000014 0.19090000000000004 0.10585000000000001 0.076550000000000021 0.70835000000000015 0.11055000000000002 0.10085000000000001 0.052050000000000006 0.090150000000000008 457.00000000000006 0.01025192307692308 0.044850000000000008 0.039800000000000009 0.073050000000000018 0.15340000000000001 9.5000000000000018 0.10012187500000001 0.048816666666666675 0.11110555555555557 0.81665000000000021 0.6795000000000001 467.00000000000006 -1.0000000180025095e-35 0.56350000000000011 0.033336666666666674 0.22085000000000002 0.04761944444444445 0.080050000000000024 0.10215 467.00000000000006 0.038193750000000005 11.500000000000002 0.51250000000000007 0.011027884615384618 0.014720000000000002 0.017852777777777783 455.00000000000006 0.07640000000000001 0.061450000000000012 0.04066875000000001 0.026210000000000004 -1.5984112325529647 0.13046250000000004 0.10835000000000002 0.16640000000000002 465.00000000000006 0.06370000000000002 473.00000000000006 0.27920000000000006
decision_type=2 2 2 2 2 2 2 2 2 2 2 2 2 2 2 2 2 2 2 2 2 2 2 2 2 2 2 2 2 2 2 2 2 2 2 2 2 2 2 2 2 2 2 2 2 2 2 2 2 2 2 2 2 2 2 2 2 2 2 2 2 2
left_child=2 4 -1 8 20 6 7 12 9 10 -3 18 15 -11 27 55 -9 31 19 50 21 25 56 43 -25 -2 -15 -7 38 -24 -22 -5 -33 37 -31 -36 49 -16 39 -27 -32 -28 -43 -4 -30 -14 -47 -48 -49 -8 51 52 -12 -54 -55 57 -20 -6 -59 -41 -37 -62
right_child=1 3 23 17 5 14 36 16 -10 13 11 -13 45 26 33 -17 -18 -19 22 -21 30 -23 29 24 -26 28 41 -29 44 34 40 32 -34 -35 35 60 -38 -39 -40 59 -42 42 -44 -45 -46 46 47 48 -50 -51 -52 -53 53 54 -56 -57 -58 58 -60 -61 61 -63
